-0.10685219250918067,0.22794475222236385,0.08132596886959859,1.1710888905950985,-0.066518682629407,-0.004691492340183293,0.21544597061779533,0.01818823399548996,-1.4813401869847738,1.5998556665937056,-1.1683278765356773,-1.746383428572053,0.28571910053773175,0.1575197920859058,0.13430865568396405,0.07087037165942303,0.09321174629081956,0.12565429009032802,-0.07234431958365771,0.1182619926207288,-0.29852606122567477,0.32605996561564393,0.11146329386993611,0.019757998343995678,0.1319590970526919,0.5872454222388738,-0.9041829557112508,1.5266996021266583,-0.06188728773740253,0.1708365432119683,0.11922657749839377,-0.014335752987562995,0.11560418677998227,0.0989316243523969,0.2077176956741106,0.3354483651321216,1.71885673863262,0.7575157354128014,0.034459274945266516,0.12336581776416217,0.0020340690583801474,0.0737647929790062,0.21214246171979337,-0.145738486391616,0.21374856046852006,-0.06819208126964388,-0.00840931643187903,0.10989636312672191,0.07003695673249322,0.1306868000980089,0.024391692923325152,-0.002472882651901197,0.022482456479766037,0.2137634425905507,0.11426131019906265,0.08687296796066492,0.08802155756257758,0.03193807634845816,0.14675424020988276,-1.0409029336299522,0.32181581620020316,0.11895483960582413,-0.7150848921842266,0.03531233372819244,0.41607890503099904,-0.05689920218327891,0.10499948188591655,0.13868965460049973,0.015197804242056752,0.18470815434593418,-0.06419067258375583,0.21302279401375843,0.10664639802273526,0.0667225903848627,0.1308222805725787,0.14771997469604065,0.13652942208659688,0.2572817931577385,0.16271138732580495,0.09100916087683919,0.014004567077542152,-0.07955064987818776,0.12138746447127104,0.06435464973909455,-0.8711075564767895,-0.006644172678127989,0.23319509486136397,1.4275107939268072,0.2798571119163454,0.00044514662792088044,-0.026130443862664263,0.13555990911714008,-0.030447773835587482,0.13917210116624515,0.09639366886254838,0.06555107462636006,0.0365555522638987,0.0806920713267351,0.13915576413319317,-0.16133888404229835,0.13617396587159428,0.19069369014023096,0.08286462537115537,0.07665257625400722,0.056896698732706676,0.19581841669003638,0.049575966938214026,-0.7352830432502248,0.05619021888109871,0.137291217916086,-0.5729354493092786,-1.1528462061078981,-1.1064672655911274,0.5984562837050457,0.5120981606079814,-1.6600971994068843,-0.020622724667348036,-0.23193254323111784,2.2112008114707233,1.3515379095607418,-0.4557973570969367,0.6937467049904703,2.019369404137204,1.0640349061462282,1.0858550571608572,0.3284391221036707,0.2704073608671415,0.3409952200756978,0.4138848223607379,0.2788214823392379,0.14641777178417723,0.23764763851867368,-0.055665117366326754,0.21915445753061444,0.13539858884706088,0.13928666735629341,0.43102538219057523,0.33657290418824515,-0.1492358203540259,0.18722564436299136,0.18999834411233665,0.1831485343990746,-0.02077656512264088,0.13848567147104593,0.21798227607478252,0.2252750122119382,-0.005431294625642036,0.07853023645396454,0.14592968967583358,0.1970623876995186,0.1389436375155404,0.12780186988895423,0.10493769831699722,0.1418942848959055
-0.10698327519658658,-1.0409147976304602,-0.09264066474312954,-0.9109597701342964,0.06275708063890825,0.0030193318749873544,-0.8948851370596348,-0.11907824698980925,0.5705364387701787,-1.7385399832119461,0.2508484284896699,-1.828992130236071,-0.41331987445189533,-0.15413303916041196,-0.11245614984325154,-0.0806542653503354,-0.3102053326901778,-0.2692206352130145,-0.056857264638374115,-0.21788514612031373,1.9108140950580312,-1.3999550988148042,-0.19171067752407506,0.037263504827055094,-0.045801422210872286,-2.0426617150265933,0.8150827101253244,-3.1070633007139445,-0.024659323105169603,-0.16657713652589126,-0.20429833566842065,0.02114585921207182,-0.12649276548419122,-0.0745802164157033,-0.10657806947840706,-0.29335999298426063,-0.5668506494622452,-0.5609151365321923,-0.007987099506488071,-0.24682221464076243,-0.1548239480045962,-0.2474446802022637,-0.10322947736742451,-0.07253918197984752,-0.17110606299420847,-0.43258192614283963,-0.5724559026158875,-0.6617814066344925,-0.3034558511312238,-0.5734997140637088,-0.17418335496028736,-0.06442585064425659,0.12487085112182125,-0.17625325281565243,-0.22013022497493276,-0.14040103736375642,-0.08620917104753568,-0.2467351126193814,-0.26854447500810247,-0.7462024098583396,-0.17439673773214195,-0.2599604753299681,-0.8300188182538952,-0.531141813537884,-0.2504402485488547,0.09842114865725661,0.033794929504371796,-0.024706724143459795,-0.21643213785228088,-0.0385201230139384,-0.14165745791269246,-0.16629127408448022,-0.12140453495053814,-0.026855674106318853,-0.0706881468020936,-0.1832177914204322,-0.27091685338247357,-0.14217783760383637,-0.17645107817247702,-0.2407135361561431,-0.14700385843225477,-0.01972795940020806,0.012447340911827727,0.041004264972618214,1.4892522446648129,0.08570063728681508,-0.08786625881294959,-0.4836008969601912,-0.2245712322536215,0.042485079686791764,0.09132898306484344,-0.19694756541138514,-0.051783089062897705,0.0372784496764729,-0.1952918627653639,-0.12946184250539827,-0.23094384057150594,-0.06460133855482803,0.17300953250200485,-0.14926135598348286,-0.2355967488406361,-0.23466986257564676,-0.029671739389090804,-0.3105673380162175,0.009247611865243095,-0.07269401151080424,-0.29298070686631483,-0.7303663348256508,-0.05603587887561286,-0.26923226205153783,0.26505069329937636,1.9254238706654023,1.0828503906544493,1.8567620617825908,-0.26280150828659105,1.4862520927153104,0.008082919127066627,1.0709782983931952,0.81196681800978,2.1211644288970453,-0.48486043488907155,-0.7270030981801142,-2.2257567491402743,1.319422626320276,1.0771603881364016,-0.10620406353190825,-0.034083983559032055,0.6690375204745794,-0.33610727393577194,-0.04230176722500752,-0.010839633983890838,-0.10230265249957636,-0.00011780908759395193,-0.06813584621221501,-0.03820806198205338,-0.013795212218967883,0.26163351288739284,-0.05253871777070251,-0.18830369856740894,-0.22286266099796684,0.02014440706231281,-0.06814225556154074,-0.04326235882976184,-0.08148175880391095,-0.022053958452422112,-0.0302776347684214,-0.14412163257438879,-0.004879363271155537,0.00253224659549981,-0.1691748805993989,0.009597738350982515,0.006326889464784813,-0.10065445598629072,-0.11687979958833318
-0.05924690202355262,-0.04804911018714195,-0.03922704742437547,0.007101695761832363,0.09385434927286554,-0.042101869893507574,-0.07480291058458235,0.12167869495589767,-0.2960018786876954,-0.10927156082194812,0.24492655642587793,-0.19312662949579384,0.8345071659583009,-0.08402170180851558,0.12978316422919617,-0.15879082455030152,-0.010904116576457113,0.23801924029517954,-0.07899168114376344,-0.13413522527899582,-0.9546901694780283,1.2758458784033633,0.355816587002064,0.10350047051171221,-0.005893341519613086,0.04461010805423558,-0.38470055192377917,1.2865679429760306,-0.15584886604284415,0.09458454587333019,-0.0965070474807502,-0.03622285583378569,0.06842675473833995,0.04976275937917471,-0.015816770392501758,-0.056226306738129284,-0.5738457359927861,0.9958978238291872,0.13179391125270004,0.022944085922983883,-0.21083296854205744,-0.06596680737412293,0.21249925614759443,0.05338923757417056,0.24568196722001126,1.0210005043659736,-0.6450202910008359,-0.3371130588367615,-0.615895138666526,-0.3786624613572352,-0.017189064539734587,-0.05982016188670823,0.06123053398679422,-0.02303077995650726,0.09352461276655226,0.03197945388113039,0.07509004496465871,0.014027443518077195,0.005253990852356645,-0.5577646341817128,0.06437526827954866,0.15801990415306635,1.2605137490418603,-0.17868531487404588,-0.17597931559028032,0.06268048006067947,0.11812717028820273,0.07638443536124584,0.1739948498286677,-0.007993446678774049,0.01961346158228077,0.05881747219283265,0.0003237742157508772,0.06612699585451808,-0.035719980716630524,-0.13584014666732344,-0.2194554761236269,0.10019674950573605,0.030732848538898846,-0.17572176772042264,0.0983848011945441,-0.026796431530074542,0.04579951924384167,-0.0713369172473426,0.026278452531702686,0.1787835853811885,0.04058411275516703,-0.14875944359710716,0.10655149211062864,0.013023956375642947,0.014177142213549258,-0.048077453609885724,0.102181021166318,-0.10280379756997673,0.07933434244303922,0.11832323078174295,-0.09974942145926956,-0.12026338833980955,0.08101024514364813,0.006887716369032178,-0.04085768599808046,-0.012252509585689951,0.187603372032065,-0.1746854200784662,-0.22781374375278082,-0.28197140629871575,0.016336810033858225,-0.8075667184523179,-0.022741064293463464,0.07299618661315975,3.2746813046160956,2.6602844185253374,-4.347462732100939,-3.8328485893892146,1.1256373847585934,0.621154263874704,0.6739383218675512,-0.24665967108772743,-3.4363426469492175,-3.148145459496188,1.9565059506657334,1.5086931166796302,2.1890706022725883,0.9889803125634963,-0.03400038211574151,0.06766228620921369,0.11598240719701991,-0.6534171635580586,0.20635471283982615,0.10939648089446224,0.05488261537467269,-0.1058011366749415,-0.05697346763075594,-0.0028070194487506673,-0.15599391522058606,-0.07959454909049327,0.17314660679021934,-0.11155358571690416,0.039303315667984534,0.15946055403588286,-0.043719123643636976,-0.010494024981599185,0.22022469790000046,-0.015677293278692706,0.21747237212458242,0.09473929404907999,-0.03138018725806656,0.045225251107479984,-0.11452625793402857,-0.06255286512309138,0.025603467157047217,0.1910548071615294,0.07533830602062498,0.01111466888572866
-0.0036353327475272946,-0.4578427000654569,0.017120975057976055,-0.3868615922786451,0.032552089030256554,0.11691964758312968,-0.4220926466332097,0.0850008120603709,-0.4184072306236724,1.6172068741398167,-0.6470959559787057,2.2116517084804976,-0.28983118584842354,0.05945564945262647,0.12786464794095354,0.13903006232861356,0.15998773340929304,0.10194105231471268,0.13632570524726498,-0.03457947915654671,-0.5319251502056463,-0.373333327697416,0.013102823648282049,0.22099686207346392,0.03630647296685493,-0.17053582355783287,-0.22005388320115873,2.266570006012457,-0.18279860777863446,0.11718335365766508,-0.009225754045429769,0.1747701080969009,-0.11078033016869557,0.09814666245800173,-0.05886228886646235,0.04553938857467812,0.8688630189071084,-0.3182732586600287,0.12126096406388076,0.16772700449245354,0.0753119811118318,0.10583985467439846,0.16094679727662098,-0.11045849504177295,0.1361414128796163,-0.4789271938370975,0.24698797170154485,-0.3517840987241196,0.22849926064579093,-0.005356455204666228,0.13639854043484428,-0.015963692909083293,0.05506449973609763,0.2315418585908736,0.10840201494058369,0.03482899713943121,0.025866930850467634,0.18048574154458033,0.13812435519462818,1.822046536317175,0.30454414272428054,0.1399481819465788,-0.4760132207360907,-0.16178754228899075,-0.04373492773401258,-0.00959030086921936,-0.008360483359142313,0.0594637744867415,0.18561614137807642,0.05880135381191676,0.10831058593727866,0.11306001156769076,0.031794498136615536,0.21026727541105328,0.19143092474816845,-0.02067107837191179,0.0937918374932629,0.25021852840982167,0.03514912920286847,0.06340012481963712,0.21987434445332182,0.010079544712139829,-0.011636032367748567,0.17612671464799423,-0.10605425182969119,-0.07436824608342596,0.04778405488665922,-0.3560696555757447,0.06526430958371057,0.1397118565870886,-0.14004436824035107,0.11410032537700682,-0.029547959258900972,0.06316844351327605,0.018948926151753687,-0.045901407004410706,-0.07684426791976738,0.17700364138101896,0.40315435728843607,-0.06149739327252491,0.055266014507461596,0.07164016516557516,-0.0070856545429589315,-0.10177130623426027,0.2288742908850391,0.22245044577713355,-0.004086848615862583,1.645383964691365,0.1743544975469745,0.1245281841494845,-1.5010991360267572,0.687593628740895,-0.2010984436016353,1.8241303287936996,-1.8219736698911642,-0.30751187490617327,-0.5129803272710965,-0.7324351759841522,2.1208879572589696,2.521546087736614,-0.3606804551349241,-0.2862926287228256,0.6588156013819361,-1.6370798241693294,-0.35278974050383877,0.03798661563500472,0.04969031853937058,1.63600873197523,-0.03738375981224235,-0.032386096856783196,-0.05189674327284283,-0.01259599912720662,0.22348289580309705,-0.03388147922111968,0.10087338698362787,0.10263000445606167,-0.031135295581401823,0.1265786376350058,0.30035288797764104,-0.10852019545072769,0.21044337879350253,0.0013829047371199878,0.03377620213780514,0.1412066585705501,0.1096768435361718,0.13381015931646267,0.06790670189317932,0.1523346406264916,0.060175630208884744,-0.0052781214729982545,0.12727119634074344,0.056802849393988226,0.03429744850226984,0.04797547413538457
-0.07021331545276843,-0.35495907066589744,-0.18795316883516347,-0.09387082053578173,-0.1484860403840621,-0.1019392585889597,-0.6997936184783619,-0.07467495035762875,-1.1041142260276142,-0.1071456902031084,-1.0641528026035123,-0.5241085972038892,-0.8771992884760809,-0.07035244744523707,-0.09785791435681991,0.04755681518479364,0.030005305673306847,-0.026264388374563297,-0.05573686627128427,-0.03701225978031099,-1.1012385627424754,-0.14953845596409096,-0.10303521335793395,0.08330553241407006,-0.18416322913199362,-0.31668668346302753,1.1289331708664478,-0.844917959801442,0.17675991074490913,0.029527962094705297,-0.12267209823397109,-0.19480123233805463,-0.20042570157407108,-0.1466848241089782,-0.257130882524535,-0.30838961260731595,-0.17977133655456237,-0.34055668364814695,0.12520607836392697,-0.15451005014477567,-0.006108378299719083,-0.1051528022501248,-0.2541830954332743,-0.2290788475586349,-0.11955848418372926,-0.29053328452182414,-0.07569942676475308,2.1619237812798833,-0.4529668567479999,1.2743810193375698,-0.16170015511612512,-0.303619469502941,-0.05335438027297874,-0.2700235293462992,-0.2858300048847387,-0.12611586211965617,-0.027121569251581684,-0.018188787985851145,-0.09486686199591678,-0.914640074296244,-1.6210906835094692,-1.6880816306702597,2.1974070892780424,-0.2588477661370789,-0.44389172208472877,-0.0038066377948858545,0.16431762531612434,-0.02615343462469773,-0.3280554416948019,-0.2687234064095811,-0.16646141127098507,-0.6691855207303535,-0.2987742096043116,0.035461832142120654,-0.030717757193985003,-0.4049687698698877,0.3339123319611197,-0.06050939463016995,-0.09125898930598945,-0.24907188730017607,-0.17581209109356102,0.0027726510347280027,-0.03646599433005934,-0.18346823501177273,-0.3852470268402565,-0.14653209982724477,-0.05365076962717936,-0.2439353451127409,0.044399935590615155,-0.15827951762107165,0.11829602470828643,-0.1135877915881666,-0.039869609736712,0.05199494097046554,0.03695077959637147,-0.12006623152042102,-0.10019829892736487,0.01714783873041395,-0.104815607419606,0.010889828409272849,-0.12879002830783856,0.06371614004958129,-0.22708277152363043,-0.22869674317912925,-0.2804425843642994,0.636874414402482,1.3040087071180955,0.26833486835435494,-0.37189343344402565,-0.22242098950290323,1.035147370209486,-5.5366870058886954,4.940374712226553,0.17310000742051554,1.3008041245600965,0.9011436831433339,-0.254375184771098,-0.24620161558547024,-0.5819320582558678,-1.5329669354723616,0.8200072570594475,0.9784717861186173,-0.6599843803808124,1.2356546036886094,-0.4030468259920463,-0.06860894638323699,-0.2810825942326707,-0.6614215128405395,-0.09229029105099304,0.04296236946140827,-0.07834418442981601,-0.10043517761261471,-0.17685933256766834,0.17380453765865286,-0.11944086852910925,-0.04301123486884561,0.005141839721779064,0.0599976956553314,-0.10701248177880444,-0.08713983203393842,-0.07709795074831884,-0.2643628166076234,-0.03591381865970487,0.10503345617521788,-0.09938412742423147,-0.13220948163658275,-0.011799481447296555,0.05034685767469915,-0.01949691037354065,-0.21891041769365485,-0.19724931167994336,-0.057626926130676506,-0.08427095221917323,-0.024997584904072955
0.2060253991010792,0.18489194076576895,0.1191745601611023,0.060384021868232746,-0.08017536218719103,0.04564569460565278,0.01554656955495736,-0.09354159075007572,-0.06191523767725409,-0.9954705549477766,0.07973312258250805,-1.2199768061063683,-3.2011066870518143,0.08575556738379633,0.09292386921413433,-0.17263464115565294,0.06947179910025983,0.09152845827453361,0.04775551930787864,0.08476025048949021,0.0465598789355913,0.05079284095070484,0.015205527497731224,0.18230185514833144,0.08649290354698437,0.15540238008377602,0.10887236376970126,0.06071306349459109,0.0665588100489424,0.04669773600161004,-0.15745022318015076,-0.030329775022820412,-0.015171776460206541,0.09928061365690195,0.6225881054144159,-0.4695973664513232,-0.31869368506608675,-0.05959980520446936,0.0781495744875102,-0.1930440910473393,0.10424954302191236,-0.13388804014687686,-0.11395600790231168,0.1505676733360785,-0.02206138125646535,-0.6774234649581378,-0.5269384999444412,-0.0040210392153157415,-0.3944014274310161,0.45807972915985273,0.0003806873724066381,0.6322221898656887,0.05744371662359654,-0.040812749511887354,-0.07625362861398798,-0.21207570228348915,-0.19293458601080601,-0.6198032182139842,-0.6001063739600888,2.8446571523009707,0.8484278284614445,0.9462126203939518,-0.04090339600458284,0.5004033560921015,0.6063667981069925,-0.04130851869756832,0.020862474228907642,0.760014228816067,0.7037382087814381,-0.19718046727942964,-0.5879812307683874,0.07421773096514689,-0.09140227771230723,0.050392290633244234,0.012810569985965034,0.6608721011674304,0.4229806927519067,-0.1815828422950656,0.11151929370134847,-1.3649697851562788,-0.9718643908373521,0.045321025579276406,0.040663075218633694,0.005902196614148066,-0.08145866741359056,0.084636652316864,-0.033638227220467685,0.1426956309546841,0.0801616498022719,0.06416946159635363,0.07077467821354191,0.06789072226469968,0.15716077129777897,-0.00535741496485529,0.23017849445436053,0.058375624528388334,-0.07191620879327033,0.0009328046758209114,-0.040791869475299676,0.04271392594345771,-0.18758679480832124,0.07626829848349313,0.0028631459987396675,0.5272440309302314,0.5473837999804396,0.06553168759376815,1.3610145087334293,1.1739252457865086,1.0350925326845324,1.1103364308278056,-0.6602098197509325,3.6193892889184824,-0.7113605978000249,0.9615402149306189,-0.3458069351916547,-0.03271059314683028,0.033457589230040545,0.06273364116206137,-0.18310724569444173,0.016085313208403423,-0.0864678620253232,0.0977136385037032,-0.16945128244572533,-0.04726073347344927,0.10912058088035896,-0.1818056182307185,0.05252977732791433,-0.07739802280341472,0.09862545573354647,0.04262594607707627,0.041844349205481905,0.1634044858794681,0.09775066559495299,-0.1251238758465072,-0.07146978374445245,-0.0336077258576708,0.06556805683691232,-0.1889214693157019,-0.1504708047881104,-0.05568395533137305,0.1278528247299479,-0.08997604010656865,0.18760124343240706,-0.026164491882139075,0.23594253397191897,0.1629597416221046,-0.1072534236519859,-0.009061692681239962,0.020752056382877995,0.16396201903711954,0.2257889991738502,-0.18916866242132643,0.048558969835208,0.03340842912476316
-0.1601798102234691,-0.1883994835503505,-0.07376010214041141,-0.17627418343094559,-0.15298057497105796,-0.02954269065533856,-0.11402677913205522,-0.05973790708070083,-0.24115952840721877,-0.3006745519388729,-0.08134621931224599,-0.2120654281433034,1.2279351752629932,-0.1315399772848826,-0.004436105167692853,-0.06164021547770785,-0.4564040743449574,-0.10734194921443974,-0.15660496714822553,-0.15719020678220233,0.17442161875462936,-0.182026642772212,0.07154454540335477,-0.04437020377651509,-0.17579150458538426,-0.2811767783197469,-0.20663797530407532,-0.06872050511217538,0.03687593111339962,-0.11711263753795831,-0.23518703548671852,-0.18149976960105113,-0.19362528362055798,0.0025646392131169413,-0.24942367141338273,-0.18212602006074471,-0.11780145182935835,-0.17341020104292118,-0.013351853022278466,-0.09690118100099636,-0.2610638964818035,-0.06453396808937543,-0.22542036197895896,-0.1492541392179398,-0.3029910690788075,-0.7756642231009812,-0.20653665252938982,-0.7862767109424108,-0.052580413668772585,-0.8188105918180717,-0.22164369056964983,-0.06775672489556889,-0.024097782824932967,-0.15646732838008826,-0.17239782755910296,-0.4511941895898664,-0.39684334993249704,-0.5682818292429787,-0.5442537139562862,0.5038893430049637,1.3546280580622687,0.1686207475321512,0.33712182819037156,1.111608290734684,1.010416421629694,-0.12177276610504914,-0.09970638994515837,-0.5373342384003764,-0.4029092952652318,-0.9231690482604757,-0.9803330389075992,-2.529493173943561,0.29126459087556206,-0.0780479242053306,-0.04224423562960941,1.134800807899213,1.202261910632586,-0.2257713224743816,-0.26752278570949883,0.9576377325910967,1.2184746648123024,-0.3997873542764738,-0.02639671548582401,-0.17204223172574848,-0.3070518305647117,0.13608752513291672,0.014167365974509481,-0.36396081984071343,0.01692311946539826,0.013788947564523195,0.10674849449465403,-0.06885723510300172,0.040481172517089534,-0.030437233118278895,-0.06400844511190179,-0.10427254728561948,-0.09851951114078439,-0.17810382968701063,0.029366148553233228,-0.18102249551590294,0.022797957123218596,-0.06152147575607937,-0.024143474095200415,0.5212750404853072,0.867705240143728,-3.0131960920224468,1.6895102025496134,-1.3262710049527668,0.8601899942675819,1.4366025156980626,1.4639362460706824,1.2431353317995328,-0.5655046469723476,-0.3162924744066461,0.03813455916788088,-0.12094624610517218,-0.06845048196637563,-0.07605723826477617,-0.1191218553445129,-0.3325331430424459,-0.17364297824834624,-0.2512268200095583,-0.28415609197567254,-0.1797625447769723,0.04527658848710833,-0.039383251421527335,0.10158003101885409,-0.19308446349066974,0.020889306673971406,-0.12628197401272237,0.19234040831171434,-0.005305954898634726,0.11487214003287644,-0.0018979145200195356,-0.11870975340855412,-0.18788549843779948,0.16848157868229993,-0.009474443640188542,-0.17448545412470481,-0.1680568018855193,-0.18119699406641454,-0.06136919775249016,0.05480210813488737,-0.17878241293842542,-0.13438939249416906,0.0033053380941086945,-0.15663601376121572,0.15074769807968597,0.04655383207598854,-0.15163142523325665,0.02216525595300558,0.027346682976301002,-0.17996444330697697,0.06700772839555759
0.025340568726183108,-0.08340918352491593,0.05597771381401485,0.02052745484877995,-0.013136994744767878,-0.07753525689415981,-0.0651621550019795,0.07852027085127111,-0.1331885718338491,-0.1036845594758854,0.0974386116311994,-0.022348176059733934,2.4100182852088485,-0.15418393297073307,0.09360085253653042,-0.13126045181784932,0.132460337585479,-0.14413445428651828,-0.043561236569929405,0.1686462133768519,0.09268089508828732,-0.10950668732294903,0.0024396746182734686,0.030866886248851214,0.010849089450847067,0.24078830757239958,0.06294246695755493,-0.06769286599818465,0.1198106736184849,-0.13596479650679721,0.06651870288378915,-0.04400106137818213,0.022745350664267115,-0.011222577810371953,-0.17491205982407237,-0.19608993904456828,0.12027822174218865,0.21562351291923954,0.0337451373075324,0.019162582777341914,0.05830431472898751,0.019295329364491368,-0.1086768675505824,0.02364569988502883,-0.13853985994981732,-0.10597444119582924,-0.025062355566782962,-0.15549380880440503,-0.13642887311125626,-0.0012342875722489144,-0.1532948767088527,-0.001721883991074037,-0.046846973957968156,0.15982606828622845,-0.03012354026611432,-0.02392396128740621,-0.06215711054508009,-0.7397409316402823,-0.7571708728896787,-0.5964668373352106,-0.16492034307030234,0.5489458947465117,-0.7197135290154891,-1.5000861730825317,-1.4276517453380069,-0.16059537352878184,-0.0166304788102589,-0.08249233465311308,-0.26508281836587105,-0.6788277293834909,-0.8861412917900102,3.1884645359026464,0.4966426853909998,-0.10481354589548593,-0.06699159144699093,0.7145947311943067,0.8620811002644814,0.06290087258502629,-0.08347027957320728,0.03632023990360905,-0.029138182624753192,0.054096758361054646,-0.07300470977094231,-0.11206581294900739,0.26581525603867545,0.012264241459105216,0.06669861515520265,-0.060293555080076895,-0.09231075947039902,0.11126256862824364,-0.31033744238479954,-0.06875541373045808,-0.1369581761830403,-0.057260021092365096,0.13187538521407524,-0.08473408111914386,0.01504402638817704,-0.012507607673813417,-0.28256083317512937,-0.048350481700637674,-0.0825263089201113,-0.013405239488998532,-0.16084283013263326,1.0764651833997123,0.8195798902176865,3.420757050338473,-1.4044959107842794,1.9724171775389945,0.659928307036529,0.34084482422954837,-0.12794160688044084,-0.03163127730621362,-0.061823240208835714,0.003803614902778594,0.02461470822199686,-0.07849102296986876,0.08799969186708206,-0.000569457079932629,-0.04087471668915688,-0.04944438998326956,0.07756118698716978,0.03635653921669302,-0.14203926791825794,-0.009058311761919619,0.0024699278274810605,-0.024177073576876585,0.02712088957829228,-0.03639359296937568,0.03562370841257642,-0.012886688064569319,-0.13105393203161259,0.049262125777492304,0.06070108797340331,-0.15366913768973312,-0.04484045601310815,-0.05733344413035176,-0.08586250754209852,0.00928375454423011,0.02706117276794159,0.05015559542791501,0.07238610530725534,-0.08808871962456229,-0.054890682958962496,-0.149046507868826,0.011893331314279023,0.08696847550090459,0.2351915536952527,0.05319438112660187,-0.12397213236030602,-0.05329254266719611,-0.10450119649193437,0.017486285180197684,-0.10186526539931691,-0.08889399712130708
0.822548042426853,0.5780987705029265,-0.3158383293818593,1.9576466554218117,0.43832936355773044,0.20106644402895493,0.5705593379483902,-0.3057775432642288,0.5585266627149331,-1.3896784248381915,0.3628568935166751,1.2038005360251174,-0.35339231621142125,-0.4398227969446027,0.004650515558389164,0.008621604260923479,-0.15007390819640312,-0.4072567062882472,0.7299698355944567,-0.27777493383437163,0.9727839479556664,0.5760444126846014,-0.2004160035763719,0.10992337702222936,-0.03616643484668099,1.6679412982425428,0.5449014938898278,2.735615780749809,-0.10080919771943764,0.07025252250661863,0.03829707685603146,-0.2191810117599542,-0.053497810528849304,0.17010041391478822,0.051995750776888464,-0.05865457213703227,-0.6900378519494595,0.21829575525633224,-0.08859498717076998,0.019119290413934904,0.009108408347969221,-0.07189067735213651,-0.08288488236334612,-0.06871598735769362,0.16650502665993405,1.4630012500062983,-0.16817068923868647,1.5651314799762666,-0.17568513764612684,1.6505782781715679,-0.10964665147651005,-0.04510131472687377,0.04161834634453638,-0.0914731738394762,-0.08793874522563899,-0.03324635093075239,-0.024198356818998373,-0.1074537077642344,0.08055477136485005,-0.14658248645732944,0.035803403348107325,0.04563862372557795,-0.24233936900899222,0.15091632993702564,0.10456946859960434,0.01566843828913153,-0.13969379389096243,-0.020503341241789586,0.06651043552266032,0.15583915851325572,-0.24798678547289302,-0.017912905190474022,0.044158219835513254,0.07505126427636033,0.1440113192455237,-0.06625072030130746,0.04442744847260501,0.05768715361732459,-0.032460233390437604,0.032305382261885326,0.015576125001375382,-0.017427208861841202,-0.21316767834122674,0.026114748414551543,-0.058042468653590154,0.04648666501977605,0.07289946243268117,-0.12347647823519187,-0.02574436089220047,0.10608487503626103,-0.056990826831021295,0.10877457576858425,-0.02642472907696144,-0.00081697886761752,-0.06740769992548855,-0.01762605747443356,0.048024841260282176,0.08037493873885786,-0.012617553352646723,0.06453780411471234,0.052644253933727014,-0.040447895788914105,0.007340670983111538,0.05109183891129056,0.04723561855653626,-0.010070898725447055,0.10892136058422859,-0.049491489573594574,-0.01415842625489693,-0.03451799842888719,-0.3924409050001519,-0.40757252224491564,0.9759735732730108,-0.829149205747436,-0.22387329164128825,-0.16607024692148228,0.7940856572422835,0.6981331066058608,0.36939056345275456,-0.24181588947946356,0.5291847848758319,-0.7156456767134113,1.179867469214929,0.22557485000571856,-0.1489056325513371,0.05225972344550257,0.09628601316174132,-0.0868156946522148,0.0028129146970865995,0.1094969369073313,-0.03303042704090673,0.06526403462447668,-0.012605951941627131,-0.07771153767238514,-0.10225743836306789,0.09630673439919987,-0.042290623826274014,-0.1833589929723469,-0.0016117861437530327,-0.08107494491686063,-0.07570105611735035,0.008377287719651686,-0.03663877541713241,-0.03951299564167975,0.07067182849341541,-0.12423988374722088,0.03169953315964318,-0.06190015113580365,-0.10346255834733883,-0.011832126952198155,-0.06161287319815428,-0.08119313510521997,0.004841648152239488,0.002737955249071492
-0.5116589797251053,0.9555562708445383,-0.22471119365791295,-1.5368212145127569,-0.2777780378858255,-0.285753926011346,0.4456216438688153,-0.1628258705619368,0.9176740974284422,-1.0384935471614178,0.9775316304344607,-0.0753471573658196,0.7647198621816705,-0.08034443026879273,-0.1593129113161296,-0.011172168285117499,-0.014756538212624471,0.21414486537651953,-0.11947640656619775,-0.21512198844181787,0.38780835002493486,0.198347123444963,-0.059996537425281896,-0.30232078914453714,-0.4603889024807149,-0.5106355936413045,-0.4093056285453745,-1.8169477425275335,-0.19924200757772498,-0.4380318898271025,-1.7226336353804825,-0.2300178720442526,-0.23174492304398092,-1.2972829505663175,-0.41073885107325697,-0.1966051651828894,0.015160634129798846,-0.09454093960818644,-0.24678798267524235,-0.21232513420395793,-0.21789810817574937,-0.2715233315982631,-0.18569513131820847,-0.10819744752367334,-0.2561834048521734,0.21872042986249043,0.8063930997795745,0.1566456247419521,0.8696051194270413,-0.7206428954709604,-0.2576351485193317,-0.3619876921107926,-0.01638620223944267,-0.3557028932152326,-0.3813767946277149,-0.06733088250680659,-0.2274645792919892,-0.42670783509555915,-0.5506661333730262,-0.3778941966700668,-0.4684586842174934,-0.16934166535349698,-0.41175876574196363,-0.6025924276171326,-0.6957634142528898,-0.12836001328370597,0.02921263486305802,-0.037520763934630275,-0.09576396732361049,-0.29762251179080107,-0.19921071419290456,-0.35238961186996526,-0.28503230057760437,-0.0721852181423959,-0.14166825388678736,-0.15612729389286506,-0.20770746574261192,-0.2901007922441127,-0.0016555281577855826,-0.20685343372040235,-0.2166195705370793,-0.1594370634137017,-0.21272496288487397,-0.09023678061769189,-0.06926638179736275,-0.12052153843256655,0.10695045807333736,-0.09677739564318807,-0.07826379489127469,-0.07945392278932704,-0.18653645315693015,0.09419671948509026,0.07727527094638796,-0.09281301962755467,-0.047934906866406814,-0.29796011421198215,-0.38370933674571117,-0.035432625614118106,-0.13759667650274462,-0.07109956538137473,-0.21256513191764106,-0.14446361326987325,-0.08420950532052811,-0.20773416672464798,-0.037298823247517175,-0.3376548440824522,-0.14781564052989896,-0.3536733425920386,-0.06039717896557504,-0.08507986325979523,-1.734449908600486,-1.2582338221885054,-0.4477315503938384,0.319784536273532,0.8398141078896489,0.8050518904044655,1.1196143359607926,1.121813753703105,0.7871851666734823,0.8638857097821847,-0.35680933012822746,0.5714510814311984,-1.4144015628996556,-0.8529794636461765,-0.7432994522329635,-0.2194532844387587,0.1429139062742785,-0.6863254164168733,-0.0545509562606939,0.029646755346453755,-0.06525740083073982,-0.08581742327727297,-0.06821356959200901,-0.06195048401680334,0.019932136433892248,0.06265053430354296,-0.044056016409577285,-0.2594751635731531,-0.2966756744010256,-0.20882628853275753,-0.2979822877510909,-0.1818300983138991,-0.21666838343721942,-0.17619259473933024,-0.22543335238671855,-0.06372757734584526,-0.28286799433756576,0.09177630852822317,-0.08898702844209198,0.05836328768001252,0.023435399656841573,-0.15505769199176417,-0.2762410844235723,-0.046880856336154964
-0.14003917677794533,-0.01449315404689166,0.1192704484642443,-0.22785082582341756,-0.15723487336542347,-0.46964970159005476,0.9619002072068027,-0.2567883732024193,1.2441739505372431,1.4381978110076505,1.2857177735131222,0.9316280615239216,1.74013847526866,0.055465796661324444,-0.17937903392090737,0.14657157460915565,-0.13046274255069185,-0.25053948097082196,0.01765679371152308,-0.023785532406951217,0.5105719804685491,0.22836610526276144,-0.05214341205849793,0.06991701001791553,-0.06527914912251177,-0.2072830963022836,0.36233158268137594,-0.1671964852074826,-0.05007012396889861,-0.09017973761546093,1.5455170214088132,-0.17123366635344564,-0.16650565623221114,1.234207877688641,-0.5896631964448513,0.040321452990965644,0.5435176446173366,0.6331084525092384,0.0006878138626428687,-0.15282176844289502,-0.08613166800470454,-0.06875459848200717,0.07476575610842486,0.09887225281307001,0.031630603200659475,-1.1381106931940521,0.7785388763281698,0.6481723633816485,0.9273560563956436,0.6119415621300781,-0.057747720060314124,0.5561655058594096,0.060116385537081325,0.003982407624439276,0.018308861273823564,-0.02763453610804077,-0.13578214147840167,0.08819316648509513,0.06554932814571948,-0.6020096588721124,-0.11680835418318772,-0.15287282514765133,-0.5792289752625298,0.5681121411032538,0.14590345777167069,-0.0550731517190557,0.10141099051141622,-0.20577470707158302,0.12618281740794512,-0.00659116370430973,-0.011750148014265929,-0.11673792792320906,0.04371506942550226,0.037625310093710014,-0.15396366434730996,-0.061320363468584785,0.08510556289347888,-0.0516949423038615,0.03900801737861715,-0.09669018925098184,-0.11401245319699736,0.11806566747456788,-0.275015239970564,0.15018961940039074,0.2385572839825615,-0.1644179459812908,0.015713519916948,-0.11159135360467377,0.03575230456625158,0.03600946375663525,-0.09376635800306352,-0.06589795671418755,0.1679993863755913,0.17631032792063242,-0.08201333914602608,0.06699926359994264,-0.18919024756256864,0.14441506936641618,0.02404548299938646,0.04677955142653608,0.15180212662447906,0.10421220891186336,0.09314195582653481,-0.02636108574396519,0.10700418517162279,0.15568747571192335,0.16887498655136848,0.21490642361326953,-0.02796757182954697,0.08757341799485768,-0.6505323577100212,0.9876641198734861,2.289119672076432,0.7361419624540971,0.15142860476128797,-0.04329664512248258,-0.24575541282274824,-0.3035680736235106,-0.7255568567550639,-0.5859663812942533,-0.2512252744703772,-0.20090045851605365,-0.1995190235592095,-0.018628822544563065,0.05215037007442249,-0.031063202715110417,-0.04511132620168844,-0.036245777562448366,-0.048794565837401827,-0.1463539175009943,0.02902690001397584,-0.053091162180109994,-0.09549928756672942,-0.10722893184291211,0.04139378545467301,0.05966793312286765,-0.08531504390546352,-0.1651271906287478,-0.0507818795172301,-0.06763024105208183,0.024257748856451725,-0.17995187445137303,-0.07163695923040217,0.09075245396519291,-0.06384081074937394,0.05382933907562317,0.051910076373802724,-0.07484028226068332,0.10856605649096458,0.16088266554838881,-0.0033606711247533326,-0.15234793192110213,0.03745743798837325,0.01220563466172275
0.023894180244793475,-0.1848736224108041,0.10691706353295807,-0.09848145584815086,0.03684930868340548,-0.25760243152795,0.038569983869754354,-0.09180073382576823,0.1639029278744867,1.1658317427122107,0.39812670911898107,1.1220634793838642,-2.409110903028052,0.024511608385488957,0.019382086810283854,0.04952322909329765,0.047731050909128034,-0.09707516379696944,-0.09566682016313705,-0.18107232124163233,-0.061871374135209094,-0.0521763287071427,0.002519818033532582,-0.02413334108838927,-0.1220204000657141,-0.2049712557949831,-0.03053814221244375,-0.3912425189318256,-0.048524041469417196,-0.04255631403612452,-0.09287831625400082,-0.11321561447448732,-0.1876313351297307,-0.11911667763334541,1.291769030455892,0.5432966230912927,0.36197926756403415,-0.23031565269922985,0.03956814040704707,-1.5595033928608462,0.018280752036945725,-0.21025252116441234,-0.19989314284737886,0.011765308737078517,-0.08064191299481406,1.0806125315080706,0.3851780544796525,-2.227109487067048,0.30360292588354276,1.7628235573210138,-1.4825942444928222,0.1255364642284055,-0.058383429477787005,-0.06619863028668362,-0.3644041195508403,-0.08961740024663178,-0.20951940444872827,-0.09052606410339646,0.7995637087044108,1.727958367230343,0.03759864365909395,0.16955985542383253,1.7598072090065384,0.7339534539327933,0.1800389814104745,-0.005014657429327544,-0.12051787537838948,-1.0812691258709595,-0.33057274057395003,1.6833562523744983,1.2091340939391693,-0.5791289823393535,0.14674241629443152,0.0325624104156022,0.07222330677124505,-0.09451464785631991,-0.7738514493433749,-0.13292243324043382,-0.14870638222115518,0.08356838643278824,-0.5582580519015523,-0.1486965403955721,-0.0461293589547023,-0.0389690823423409,-0.3802604698804905,0.08141708854852728,0.11679876577870321,-0.7482511061940396,0.05725689423530842,0.11953162001266068,-0.12565500142146097,0.0019976649049169445,0.0026643717833230098,-0.03436749031755999,0.06115017560933316,0.012048192510492401,0.06287506406521735,-0.03684660863225121,-0.10439389615381206,-0.12268136346611895,0.06791414136161457,0.16022949245638088,-0.13107154662917736,-0.2172275900161395,-0.20000803972200476,1.1742674616360516,0.09460374110823237,1.523519895588501,-0.43891564318434517,-0.30483761413286997,1.7722923898361622,-0.7077862136303694,-0.5146684901022609,-0.43939961872866284,-0.5237775489289137,-0.4322118001971096,-0.13638278530470407,-0.033121710066370186,-0.19690806757365933,-0.485136857874267,-0.3774382794656222,-0.30731545628945894,-0.46551242234969636,-0.5127932503220035,-0.009408126297369245,-0.02515656974097584,-0.013886136943644049,-0.04140967500522877,0.02230961001550907,0.13976157950023463,-0.08416518378776032,0.046554243111999793,-0.10249226633120409,0.050201749575395097,0.06522091063315903,-0.06590993907504163,-0.11799046658094287,0.02439602934074892,-0.0702226000458652,0.04507548791442812,-0.11348806441746578,-0.002465667538182674,-0.01083031682917397,0.05022719621540805,0.0011922699811145545,-0.13594666940067282,-0.07486913121580023,0.024150994586237935,0.05864274485100123,-0.1445101911381558,0.008245306528822384,-0.036335926874862104,0.033846525805453165,-0.042461454755170235
0.0642085704396718,-0.1057877399693228,-0.33938282162385647,-0.05550571717852327,-0.14257238369619307,-0.24811053008402262,-0.21703191785814474,-0.2150595834105074,-0.06447500541575289,0.7846242188280494,-0.380004261012806,-0.5344648744833164,0.0005336033924999713,-0.029594884371984258,-0.10169379885373538,-0.04016362493844627,-0.12090994298544096,-0.20818785135731477,-0.1814611398381782,-0.12702732766958555,-0.2037972740191315,-0.25723231541878694,-0.14881996087709065,-0.3522082666276246,-0.2368033960902189,-0.6764473032665164,-0.6753942806181116,-0.21321753504121335,-0.006307470530420812,-0.175297100701077,-0.17071157300794415,-0.15771477673643447,-0.27556215005952167,-0.1973337530044696,-0.3150868219675906,1.1877977018848906,-0.4428696759794664,-0.2685370080823255,-0.17319111059772438,-0.05443607561394692,-0.07838084340132981,-0.2659953566094851,-0.5426672923354247,-0.0928161114005904,-0.30621608706660874,-1.6241691365793707,0.5612703145782327,2.1876279374190832,0.44201150307500425,-0.38621476718293557,-0.06939183373717268,-0.3236205697583934,-0.28370283417296377,-1.0925444685052967,-1.4119159268138899,1.2097606259884224,1.632831438480505,-0.07956258912099405,-0.902568952477926,-0.1752841158003975,0.5411277990972166,0.4098289943693377,0.7687906062649296,0.3544719637525782,1.360369128318851,-0.18899236941923606,0.13183139368173985,1.171623543237544,1.6778588957550071,-1.0356703137468382,0.21088640735045294,3.6973446804667334,-1.5530591362552806,-0.5306747229254977,-0.605657555503331,-0.17655399847498618,0.3285804531005219,-0.34104990369148036,-0.6325907569856479,1.8525260833449764,1.83904556663206,-0.3013705024025894,-0.2963122463774756,-0.01550571196793578,1.4457439709937066,0.040204279298394006,-0.006904390579603916,1.15386063841874,0.09211407055176277,-0.022357196454544506,-0.23309327592486667,-0.2867516620362817,-0.30025658209436296,-0.05823462012810157,-0.04937907675464522,-0.21873423052351063,-0.07951512662870147,-0.004884433878710202,-0.14249896939562265,0.032675199216617934,0.08293640610117917,-0.025258289072661946,-0.09153141278037105,-1.1039337365994781,-1.1811553412231452,-0.8116142894700785,-1.1352820817711,-0.16874141327223963,-0.7876357174871214,-0.5522430650750201,-0.9122804641012537,-0.8467861186070198,-0.2429044356289427,-0.2992750728138523,-0.10352412003644566,-0.08760782124064684,-0.11733584022457534,-0.05699733498540258,-0.22984153805321494,-0.12011667510160254,-0.2135809396733189,-0.08485817018960398,-0.059933964991623484,-0.13603827538680108,0.22828953329090407,0.11877612561297728,-0.10983863511859762,-0.164412859160802,-0.24733727504011518,-0.029909988177816586,0.016668325936706155,0.0035758382036495655,-0.06962530248038534,-0.1793649644782297,0.016705145855557123,0.09610862614883967,0.07919781912192116,-0.1486370314277946,-0.08499026459470786,-0.1427156256157881,-0.14538962193744281,-0.026732430101265057,0.02013408335947671,-0.1441815561690159,-0.17862751236380697,0.03415244982715842,-0.04260432394149966,-0.002748576468915008,-0.1385336466863559,-0.2818100808365131,0.09500808692354044,-0.16651512693354756,-0.010899221619281923,-0.054889261671171405
0.07602543221781378,0.06361969073918698,0.030998226999989394,0.1745603489502606,0.013098186549979924,0.2938019240735552,0.1338870886541456,0.005173599390778814,0.2928550844207404,0.27491386686536395,-0.04857759422425478,1.5789644324794732,1.1099989423648868,0.16924893923095638,0.1692823369773306,0.02889525500017922,0.15878413483415887,0.14850834940122865,0.12388073390598625,0.15828685360130354,0.20507411083918323,0.07894157964177137,0.11554075859878075,-0.0005834109879805434,0.0855039477084579,0.12223356069159692,-0.6085792721349195,0.08755917316584283,-0.09982042654216497,0.09529011890456071,0.05945950760931309,0.009739555610136133,-0.21418707703408346,0.2292763937643337,0.3662411187235026,0.37401797210292104,0.18162468485905178,0.19353696991492872,0.17282298219886497,-0.280047418350572,0.023087362908707103,-0.009581095351513006,0.03760276636054351,-0.09196986053449076,0.10943355330174963,1.4735955716567148,-0.018706743446412034,-1.095804490232607,0.25055622686279816,-1.2282694649478563,-0.17575937374896985,-0.28957312964051235,0.011228566347248357,0.03147671978097614,0.06750193309148025,-0.03164949202584266,-0.2146761537486243,2.085235115117946,2.2089759400420115,0.11950077621749296,1.1790438539076675,1.6625585293488025,-1.2727665315685357,0.38806864868318264,2.226252250439809,-0.0636349465636918,-0.006015675440276547,1.2238967385331923,0.22487435000698558,-1.7166664207004878,-1.866637041657061,1.3440808750200075,0.9303434768748835,-0.7927575081267886,-0.09565485852503952,1.4923784545413314,1.4838197898292491,-0.10779321794549228,0.4488378099357481,-0.4789362049279277,-0.8300108151033466,1.4234463159952953,0.18572722952576246,-0.0079764589252817,-0.6968984189255454,-0.07302113895119414,-0.14815378567204973,0.45102988130067134,-0.1433252721444692,0.011774962359630683,-0.18181146117409203,-0.016321540681446665,0.1317356011401726,0.06557428818661783,0.08051732907228139,0.05883682964555837,-0.0183088886921631,-0.02173299296937138,0.2080999425819214,-0.10544275963840773,0.07413945549517584,-0.053693887083911956,-0.1236672921574102,1.6841761470447802,2.3310101563427987,1.9127743581869094,1.47216026907059,-1.1989552026134946,-0.28402985032433065,-0.37579727857322004,-0.12312825546958188,-0.34288680900775526,-0.06139669634482531,0.12044615870390477,0.09494584304171992,-0.07675883100250964,0.07750011888253207,0.03181784494508747,0.04132983509226832,0.1732683370128376,0.24038433934190062,0.08385352028949605,0.06305268685776298,0.09868640670245324,0.14373300263075872,0.020380648501469617,-0.05061464170109369,0.051380772559774725,-0.0021036194997374907,0.0028563002393818203,-0.02105945515639034,-0.111023686319467,0.0806798111695694,0.0615565904450045,0.024872644662168,0.09569194873173219,0.052955382335092324,-0.009087140840585397,0.061657389213250764,0.05287303522313986,-0.07075188302505686,0.10657552868875564,0.03893452204343806,0.02767151153652152,0.17606603109718422,0.06186241515793878,0.23594917568843118,0.24449290359204537,0.15303872035057006,0.1050460567571593,0.1968898705090803,0.13283009043191132,0.1052338020377932,0.11931874016484194
-0.02465539876708803,-0.08911020492992178,-0.02600077372758472,-0.3872330960576761,-0.11017289220212681,-0.14030051539286303,-0.2661388020614026,-0.12084630608348618,-0.252634315648918,-0.3089037778528175,-0.14886565116474168,0.02590216034363487,1.732095729155581,-0.08615087023432356,-0.06704907252643771,-0.1722377386508403,-0.0733118787227078,-0.26979715404399063,0.08129983972064105,-0.1727896539192852,0.02386772056770619,-0.22039583561157156,-0.09703419773726633,-0.19469758490964806,-0.2162305124517938,0.34407746918685833,0.39238036365679013,0.023839475925766702,-0.1550474391560911,-0.30834676165453473,0.056608011007166247,-0.3372532738036502,-0.2119560936915211,-0.21685880562350718,-0.38614342467718127,-0.23858111374475732,0.006348624751984968,-0.18241842186260207,-0.10898391805481747,-0.489145608032572,-0.22900027626752784,-0.07474086035999068,-0.3237108407008446,-0.062476356503839064,-0.09424813019389595,0.5518771248902901,-0.083141911325164,-0.35264401161914904,-0.2003984905615556,-0.15422240439407747,-0.5340940228807943,-0.5142824158755642,0.10486869617071336,-0.33526106796936167,-0.2914988893061399,-0.2483907002632796,-0.07308921533211443,-1.6917027140182082,-1.5937275189962894,-0.27467998205086896,-0.5102544111310858,-0.7568923296859544,-0.19003373386815142,1.2369578722338865,-0.5945809701389011,-1.2684440855692023,-0.11445945639131148,-0.11567310785116014,-0.1472464040157039,2.3538889038130497,2.533502688201133,-4.158170725732857,-0.4959708559364959,1.1718323039839633,0.2121644616828688,-0.5240150431940787,-0.40798086313732845,-0.2455536559691909,0.26443419061430323,0.7279905880626095,0.7799748290035743,-0.6797716193981618,-0.03270469011990087,0.5503609922935015,1.3755051046405666,-0.27944346085565624,0.1783650164330078,-0.1606832781245908,0.042110216805062634,0.0015835450522298476,-0.5997202427703469,0.1323921966600603,0.17953761904074325,-0.050896582346269384,-1.2002794320194996,-0.4075993908603184,-0.11636399955141571,-0.37173475268747896,-0.4481820819717625,-0.2935444265114196,0.35512375309566013,0.29073283591153,0.5486369354641891,0.6592971124099091,0.03161532312566296,-1.1381488817177408,-1.1203543210617881,-0.29692719460940636,-0.36650074937934224,-0.3348430002714545,-0.1322291585154665,-0.1458168723395409,-0.1708875550402733,-0.16804475156307253,-0.10357919076846606,-0.1692930208333265,-0.061799735910653145,-0.1477577311341867,-0.04078377044768562,-0.14590853926342065,-0.14140704413695146,-0.1000395906163605,-0.3121041483449049,-0.08429310215609363,-0.09837986826080976,-0.009523445772060024,0.1751957621457782,-0.08023349559744644,0.011098315896834453,-0.2627903990326765,-0.06474615155507546,0.0054517142398095115,-0.05087808771520215,0.11899909332174083,0.02362170794667898,-0.16174328500069457,-0.2611044455706597,0.0305132234912014,-0.11008548189355372,0.005617197528629832,-0.16636372304020317,-0.12489134415380088,-0.32321901647133267,-0.2582408736656084,-0.2722930541218772,0.03793137291561697,-0.07459629478951164,-0.057049524701844115,0.057445651033824215,0.036988950781076814,-0.027134553057279565,-0.20542277167285664,-0.03946284793870238,0.012884260231683294
-0.04783166216062617,-0.04005153980827679,0.0976612607302418,-0.027393296578272643,-0.08118623653092834,0.04044101249615605,-0.16364439194404726,0.08802562077849192,0.03442015224532848,0.03443346822749243,-0.00962497343898259,0.17409194295885957,-2.206962237520655,-0.0007101918866057542,0.009046321982716378,0.06739668368253002,0.08780718594979409,0.0005900851699522189,0.21235522976574583,0.16184967592576385,-0.012561561117561008,-0.02190822521156768,0.03692212743652349,0.17986665347814612,-0.0007529803587168708,1.2349343593443505,0.5685406411301066,-0.023648930532574,-0.04374242087348144,0.19529334459118722,0.029169491834764198,0.05449166193050244,-0.12420927063012806,0.11068250587787723,0.2151078283050214,-0.009758451470277239,-0.0838135763177605,0.07734664866806691,0.019512048463962213,-0.04504605702212721,-0.07386119074686011,0.04642531888960609,0.055052813257561506,-0.009592857837832439,-0.02142267033539792,0.6712563064858469,-0.049579750207046205,0.07720614365414669,-0.012605555699762534,0.16053856121907556,0.00013404073349058732,0.31545118638818725,0.017430706420380696,-0.03623537169414127,0.03310269170094402,-0.05944195519714045,0.02394691425168612,-0.5423154645416598,-0.3567740656527331,0.03155743398275488,0.28535583085439564,0.3456411445846495,0.01880281804354401,0.05313234639967895,-0.019264591417044175,0.6915738662716181,0.17044701344253643,-0.11542366893092323,0.018897744975510333,-0.28234582083338494,-0.2543043275339991,1.297964347597511,0.5818348953938548,-1.324211121012974,2.100459913544629,-0.15306129926677542,0.095063493699852,-0.027268961406978615,-0.14584061653477123,0.3607355323368239,0.6882956262494451,0.11114162575155288,-0.16201062183915774,-0.9164060313743643,-0.8435350442363672,-0.09805085263609654,-0.10557171111925115,0.5085016814571106,0.058736233848460564,0.06012698041913575,1.1985308166973059,0.7431974823394444,0.3076366025459295,-0.11416188134020784,1.3902850838469127,3.346949760584195,-1.3621719931230771,0.5848473347609598,0.6102614538840473,0.4315039095379981,0.11417006031959585,0.1905849135123713,0.013829631151131491,-0.40935027847632793,-0.39922673792716223,0.027891304095342,-0.15109502199224542,-0.03875200364381001,0.07097981430823254,-0.0215113913149282,-0.16282842644870596,0.11057751550926707,0.01003665938653427,0.09316251872658174,0.013076462156303443,0.1275629220412304,0.030085363151967814,0.14059181609356644,0.0010601784605729742,-0.030486550120153975,0.09346449172289652,-0.012914928117995685,0.05707806564522854,-0.12274667725377394,-0.04164548374801934,-0.04323690663032957,0.1291785485437745,0.05848724514387507,0.03738736420305935,0.03966147176791404,-0.008460572880648106,0.1097287438483898,-0.021652909951373842,0.018041918369256307,-0.044254588291847585,0.0025241505800910834,-0.1830843869893691,-0.003611070700816656,-0.019586027851544317,-0.01673584794844563,-0.0638120214288536,-0.013478676137879673,-0.06770781685960911,-0.07348846206130541,0.07436462270012674,-0.14241774502994783,0.0021667112220057536,0.1456412214230191,0.027824907489020976,-0.05314317396644421,0.06941607039415702,-0.08327754112309707,0.04347101204668036,-0.0715975601505674
-1.4935298260082563,2.430827678395855,-1.0658962010917001,-0.9251533726266706,2.4358313547684265,-0.2334899537033414,1.7362943078863158,-0.8942390827440855,-0.34509657864576576,-0.17875534221546158,0.37970424960854715,0.2036517193514957,0.5526004625564058,1.921930343824322,1.785569779927559,0.5795218202036354,1.3230091809212494,-0.41787321941579486,0.9302356904754067,-0.4407039343230879,0.5054202423639232,1.5742763104476127,0.4239543476376296,0.6488998621153942,-0.04716076835389097,0.20116215459703904,0.16388418171078956,0.6425549386935382,0.15208788990574193,-1.9719784013747983,-0.14795762520387773,-0.29444757801947075,-0.16594307131677086,-0.2114395260498721,-0.17031601685542405,-0.11993738775902307,-0.5154293873215889,-0.2882165259526962,0.021739134153605684,-0.052907851363673916,-0.021716333569697748,-0.08211868628370186,0.0030825211106295276,0.08920872202733134,0.05137645567584582,0.04346511625615581,0.10239056654261919,0.09002030883900132,-0.020469578537065953,-0.17943247130308868,0.011001819985937652,-0.07149580445107119,-0.004067254973372101,0.08369402220348511,0.02541365023833567,0.0013837161943095818,-0.029511384795859335,-0.05617522059655074,-0.031449393820814915,-0.34868643868069316,0.074169032427694,-0.05871055515985499,0.05742681296966347,-0.17485311292552067,0.006963208815601051,0.005975008238352,0.013870379004484776,0.006770248731651566,-0.00933416060212374,-0.06330338838694308,-0.19642080536236367,-0.10889146369517448,0.1040163861693834,-0.013278671301878858,0.16696167567296843,0.3104449521898317,0.008548987772347966,-0.12629662488656182,-0.0230084001090332,-0.0037872268699804972,-0.02040969373106543,-0.04924968569461193,0.13651469232650137,0.16936023729691135,-0.017069823684461204,0.1071308613234789,0.008597584970582545,0.1001580816228534,0.07484785064865195,-0.0985834847028649,-0.0914482045904486,-0.14461841231611364,-0.05405126661644235,0.0464922708751876,-0.03724298202846001,0.03701120267788259,-0.1993366056681988,0.03172586177792717,-0.060244350665226605,0.0453292173085416,0.0009768716534528236,0.12854337190269874,-0.015361944586023187,-0.11251208562490567,0.06120619875560232,-0.07706201846966022,-0.13805140792493534,-0.030596319522960526,0.043152012990515326,-0.03353611152426952,-0.16157828743021185,0.014697548417534038,-0.22092925358850202,-0.00653378220034292,0.029660079621367876,0.055788975841112934,-0.41966135955856415,-0.6334435443415644,-0.2955600865152464,-0.09133906449251813,-0.18857790424364346,-0.21092907071789688,-0.40965661784783863,-0.0921179810006629,-0.0005739733787072547,0.13935473271343718,-0.028818471034352013,0.05347292041866726,-0.10248013504233032,-0.011464362578540402,-0.10103084462713706,0.16232752782211732,0.023778961552743356,-0.013025938283943777,-0.003917222511483076,-0.11797600237115836,0.07910996121159976,0.12999273911095893,-0.049205933874101035,-0.06631068851276974,-0.1620995237125022,0.07595003862388426,-0.06881355743047823,-0.09899337983493153,-0.2963504861293747,-0.04823225839447919,0.029584389658752343,0.018685940499965435,-0.13859085252414316,-0.3286456277313126,-0.20464382441899262,-0.2437517020331906,-0.020238166877412547,-0.13098288795307295
2.7405099798150556,-2.3205104976044564,2.4090911408782674,1.4097923804982933,-0.0648647008798485,0.7136369071205341,-1.379909552653457,2.080013977343217,2.130151194708725,0.360127108667336,-0.19535203915234886,-0.08977527510635165,0.3188908593080119,0.09770840579940246,-1.3705884773999348,-0.37405780345064504,-1.3470574558113153,0.48473255338675314,-1.3223660227287708,0.765217126882413,-0.44255257632630024,-1.3677781590370066,0.1110169758275217,-0.6796952996777742,0.08760554138063702,-0.12942302181023593,-0.024451134872998145,-0.9266678872187557,-0.0740382634585729,1.558422446473315,-0.4700281089287329,0.277242600796633,1.2697218809167026,-0.3860728232906781,0.8304564932112726,-0.49475488162905035,0.07240923868330139,-0.08067445313066546,-1.2169843055707106,-0.23783561465654718,-0.7676288841050588,-0.026110018588466045,0.07126581095973814,-0.038397473567455716,-0.037557064981802675,0.020669630506232058,0.04520656626843744,0.021604032829764735,0.03276555780219011,-0.01224256609546505,0.14108729775050577,0.15558515526469172,-0.01996228155403422,0.02821506202193824,0.07048375840927093,0.037623014772303474,0.0974260148285635,0.12247842481035694,0.0005347485821320929,0.08684480851743535,0.0031611578955575595,0.06732111227387161,0.264251842497443,0.045069866860291505,0.0033728708012800215,-0.03167888892430511,0.06218858004432579,0.06901857126335395,-0.08816010699124019,0.07714054798252215,-0.062380401735712916,0.060132327397221574,0.038986930037743645,0.016631911082399017,0.04751199020596917,-0.01745800686973689,0.09189151728869957,0.019441323748950398,0.03376207082409081,0.10363481131261439,-0.08788097735437725,0.04665831134677364,-0.2519649152981302,0.04565147024779267,0.054196677410949225,-0.049877719811511116,0.1164714248903763,-0.0787139691990645,0.08063285436275376,-0.23062597606120283,0.010688822998156737,-0.06465911713743411,0.009979156730367292,0.08833966778614792,0.021894857861681,0.12939190615921878,0.037341686680307545,-0.040470802772016666,0.04570989388854018,0.06078652743000386,0.18733945036487687,0.04638113900495373,0.10602204108025107,0.13423860691307196,-0.03348580494913547,0.02766082243369746,0.061902379177466944,0.029503124522150818,-0.01237535701624337,0.12352562037363807,0.0634227600584809,0.1622217448679107,0.12523059951267904,-0.07179010720798701,0.06790315323556742,0.1495011572963628,-0.05796184466437469,0.13222574644195703,0.002629152551634128,0.12690525040463466,-0.06454644955368019,-0.15014627308054124,-0.16071239147259714,0.07785520377491541,-0.1458054857092883,-0.018784867698532225,0.009049423307088215,0.005156005637947864,-0.08166252075421848,0.09024547413754831,0.014051661166269378,0.03788079485711172,0.11874509388400475,-0.15617894799554213,-0.03309323341461362,0.07210304368625461,0.09736063234146863,0.07943225554733728,-0.06659706782626067,0.24941788065624973,0.18609820332290056,0.018088430099602544,0.04557743019009861,-0.09272584373180849,-0.14043252301293793,-0.07522826587542389,-0.06994625959633025,-0.10608609336616263,0.06024356774349211,-0.18602488966129885,-0.4664950985914691,0.088953984503423,-0.03013932517683609,-0.028954242130952816
-0.9775440911753567,0.6375647453680658,0.2487901065651119,0.27666558349173165,0.03660221732873374,-0.8346656250214585,0.7266094801280529,0.8220271005089631,-0.6866236895051129,1.1477913794702224,0.6882604580669064,1.3496393076948097,-0.13823046482510823,0.3749756514805081,-0.2172014497024665,-0.0030741473162683728,0.6627447834737548,0.9178811071972484,-0.07210861017863136,-0.21670136038627957,-0.11410562903154305,-0.2656281922606121,-0.3586094904547637,-0.04414100391373629,0.05269928743447952,0.808547933651563,0.9026832966258138,-0.1097942104676747,-0.1111026118180068,0.15593663430692606,1.6989909315724394,0.751965076135135,-0.5070127949332132,1.2208793948472187,-0.35345945767578124,0.7153691515087227,0.46610335899187433,0.15752957473788026,0.5322164087595684,0.1739952217406303,1.9912667845720504,0.5799827655534033,-0.08782780743103177,0.3880640805251748,0.11007032309924714,0.23710105561921987,-0.006147700136129982,0.13852017078929027,0.173090244392988,0.11858259356927091,-0.31175835170521493,0.44743086852526714,0.2467493392632086,-0.5987598750228719,-0.4844349470008208,-0.22000594012825944,-0.10662293981548134,-0.1796134431898731,-0.3667277279109015,-0.08801687100732564,-0.1375551110671716,-0.23927276082309135,0.05699429036248203,-0.18523848182126534,-0.2579646221048884,0.04982653493685006,-0.11659837883250299,-0.0016328483032641483,-0.11144326005816049,-0.08887554669152446,-0.17455060628296729,-0.09015400692921935,0.06667606814088203,-0.02697013531282921,-0.038236662998976614,-0.03960112783922309,-0.18838385788594295,-0.19196678495605968,0.05463946326415726,-0.15371246513549988,-0.058180609523738845,-0.024999416217460813,-0.10095911870262209,-0.1761032816419963,-0.1222200795142088,0.06290580988885557,0.018149142449158058,0.1948742587021185,-0.19050205354276536,0.1135738798636355,-0.059725514582521004,0.00021584784537642248,-0.16314900629825646,0.02636198743316912,0.021610924406015013,-0.18365391133484738,-0.011322562561118526,-0.14878940454829645,-0.032963685322072986,0.04411380030019469,-0.08167562773814915,0.07364571428564147,-0.06105680460761991,0.0689787968777005,-0.047922937692843386,-0.031408111270660885,-0.15660589106972114,-0.23889783283053725,0.051058843289925604,-0.1437993670746461,-0.20124132612062676,0.0027576301038530265,-0.11661741650918966,-0.24268763483075803,-0.11335934132573663,-0.23996018118467166,-0.031213315162667638,0.0707118464033768,-0.2536507315035795,-0.09313241835070776,-0.02211810153874341,-0.2114815157549533,-0.1753417412147372,0.13981761154537237,-0.11445060428806218,-0.03600257153660443,-0.013036066513808106,0.00954392458077062,0.07817404504027463,0.041117297634298076,-0.02848938303106574,-0.1227554519737255,0.10585996388559037,0.007761522570454661,-0.060154125973656,0.08828306293788957,-0.17649450789689897,0.028010291198814114,-0.20855541995644258,-0.24258645995024344,-0.12357596500837169,0.04179304742044677,0.027430924235852396,-0.3871847375205927,-0.33851125967514956,0.058788890484474644,-0.1878863481101649,-0.2174139268179885,-0.05635499484166553,-0.19428202019718807,-0.08159549309562018,-0.18390605978945934,-0.10132444994330318,-0.06417141399154154
0.8261827998350632,0.8276284588035964,-0.10259849790545722,0.2297653523793463,-0.5268834133881228,0.9773643151892638,0.26241429481990786,-0.5003267275214397,-0.2963446628548746,-0.20855496208734461,-0.21435562301323083,-0.23224641823911849,-0.5176980205008446,-0.30353654949232395,-0.12563091145014577,-0.1971084505934621,0.27704033770968134,0.29195536048324106,-0.06950176508208003,-0.2554460343005211,-0.21088692069006962,-0.06308083784855648,-0.2434732979333113,-0.1497023544991329,-0.3397753999927104,0.1457597190845705,0.46682957128448455,-0.016436441257974957,0.036165766129656586,-0.584480836276285,-0.2439041982206605,1.1015733637969165,2.105585923585007,-0.6111852921189525,-0.4197437148308768,0.31116914921822686,0.41373447067431013,0.34980746989760514,0.7884234761856924,0.5857017421318406,-1.572360093984966,-0.5587228239827333,1.5359203357517919,-1.204526394634647,1.59021130994218,0.9666925183049074,0.4172450970383263,0.18189822141072984,1.044808839778016,0.9400336576491818,0.7931291458172739,-0.469418003448953,-0.04216365653961225,0.9150138102585086,0.23709646197692746,0.6572341857377294,0.16910944420118218,-0.6593120176968617,-0.3035344585182347,0.29413185213658605,0.1848620914091542,0.18302967824975722,0.3049830156916343,-1.628801559030376,-1.5572060870277507,0.6431462492693846,0.3425238352906736,-0.3442940017735898,-0.12750949528778638,-0.34423487947066794,-0.383673606447673,-0.2468831920880599,-0.39692087088003,-0.2647203564198785,-0.247158902114544,-0.321423496789379,-0.32611594563680746,-0.5099899222972435,-0.3384082997337865,-0.24166088444908168,-0.1278368550363132,-0.2236503760530834,0.007547211793197596,-0.0970139396402431,-0.34212474716636826,-0.12524816344327447,-0.0036415628664395413,-0.11688746045880576,-0.0018742869552064525,-0.11694314997931654,-0.15513318920643474,-0.20419698291891478,-0.11554318373712827,0.010903870302857525,0.008552169438121373,-0.3871053103736351,-0.08732722827828794,-0.09357274295037248,-0.18064015892362648,0.16754562607822296,-0.02429120410460836,0.00697113431250799,0.08542391859633933,-0.16798043894530984,-0.20599961085819266,-0.310422718860182,-0.11598276300071089,-0.2776549278112165,-0.20872215447026005,-0.07719538740334858,-0.18405820227578792,-0.2909562950903218,-0.26747571403029696,-0.245545312592645,-0.18047599826304514,-0.2659177614144664,-0.3312689670380176,-0.10044348441327969,-0.46337830786490836,-0.3342423824095023,-0.245264152951772,-0.16891907387210697,-0.17239263498206167,-0.04220171879272044,-0.07496349371013745,-0.05803029355904805,0.021771988133573644,-0.1735874199052115,0.035733001341545695,-0.09609741976756805,0.008502409747115445,-0.02690866284933462,0.12626266317917212,-0.13874926344906297,0.024552995971601464,0.04255853457593897,-0.008924154992020188,0.005623566485543236,-0.5396079700754056,-0.3120398927173765,-0.4647982231313241,-0.08415979595353822,-0.11978894416373437,-0.5946508907972436,-0.5170445988690212,-0.0924707850508966,-0.24741537888338921,-0.1335793238479921,-0.1960450871097545,-0.3092579955270929,-0.23011804243758824,-0.026212080553198965,-0.07534722660901258,-0.1324184399157555
-0.1714625631058328,-0.2864834877014493,-0.22451952528284905,-0.3635601751109712,-0.36776303475850514,-0.04695369952983865,-0.29752793044849457,-0.15188993753379512,-0.23104029456061034,-0.392009488633964,-0.29751894427214876,-0.2825270792427287,-1.0778866488571321,-0.30722062987453636,-0.2940777982780482,-0.0834842762392497,-0.3219114734733554,-0.3896261859706725,0.12252649231121931,-0.17233758731760537,-0.31962649777301777,-0.09353688906127568,-0.3801615803387968,-0.18636872547763952,-0.16676683311724508,-0.34535519606479936,-0.39450315014388676,-0.2121180551375158,0.17264252961222126,-0.4585483226500555,1.4228591818458625,0.3037636414797582,-1.39757467405467,1.9686421842241781,1.9875851643398272,1.9769357933926457,-0.17680989836249775,-0.28873140868984787,-0.4562233061875772,-0.37848889450225476,-0.6644868505947639,-0.3880401485969737,-1.2620927413219176,-0.3836230535900469,-1.0631377904296764,0.020366605322769238,-0.22078899129279317,0.07276980068384155,-0.2855060940099345,-1.5941960773198047,-0.43242423054073653,-0.12586606344556558,-0.02616246068399765,0.89634826461145,1.0265171599937997,0.7145850855624337,0.7451437804684219,2.735247377544606,1.4295254394896166,-0.5750532537835928,0.07838414028441967,-0.10117575311838115,-0.45425976801122536,-0.45788449261970116,0.894216765234905,-0.301890457063708,0.028108569495957268,0.49557343740070614,1.0553604292042968,1.147117700036857,-0.45477302243911205,0.46718682529965433,0.19244137595860936,-0.4542345717157495,0.02673355300865483,-0.9952328643047192,-1.0970416712308328,-1.2453595611479082,-0.7469415455054281,-1.14308515605718,-0.7897071737170992,-0.9376621499105542,-0.2062796089908298,-0.17082399159923048,-0.38707523696421703,-0.02893705474372329,0.010675938574263258,-0.42797016320111037,0.008865681598073988,-0.06979376312535741,-0.08199155297050603,0.00498524423464684,-0.18703067452628305,-0.008905661822738475,-0.15152619190605254,-0.0966265007026531,-0.2529749957838754,-0.2080921439322214,-0.16861540415687856,0.018284176463753462,0.01246069683636021,-0.17396435753955997,0.11959485858637557,-0.24869899833998388,-0.06991512235089074,-0.8166776663981127,-0.7462022171583637,-0.06237225666894674,-0.17366029645279663,-0.25897081158127583,-0.3759311279810085,-0.2577700825161548,-0.13170553454736925,-0.2084852934388727,-0.09685167163342084,-0.2995499109433017,0.005386274643867385,-0.12147574049693305,-0.2428873086239059,-0.2832217286614712,-0.038099553292014046,-0.24207687441335404,-0.15052602462516396,-0.14227474271415955,0.019386849465499092,0.013293567921037842,0.15842776757382837,-0.09494193364585975,-0.11533457443080276,-0.04774264576136867,-0.18532531686489978,-0.0021214336240291663,-0.09147102312513813,0.019972674982873313,-0.2173038280638901,-0.1289045643727972,0.14831918693603588,-0.03424603649066427,-1.423395213760915,-2.2380256365191613,-2.3777743967812888,-0.6461086503356259,-0.8180141653380918,-0.2996634106723122,-0.21029867490085702,-0.00712597690920384,-0.09006617733794137,-0.14734240580771737,-0.2246296400675602,-0.1313683261053967,-0.13988158837507064,-0.05292156954532305,-0.18308569069483288,-0.0753946351840601
-0.2223409777355264,-0.29598965215014833,-0.12019090062252115,-0.08885146378635074,0.028404295376874427,0.12438878226377185,-0.017391733514387067,0.09509155338873632,-0.09082808810099924,-0.15581802992307794,-0.11763262495289602,0.2168484140724918,1.1340947128768197,0.005449719224165564,0.033145058179647,0.020646109474463405,-0.16452246684196487,0.0596110435046574,0.022715610272737472,0.026707708511098074,-0.015267489078437632,0.05256706335539919,-0.028922303784740384,-0.040821265784137924,-0.17197025523342233,-0.25228863271738683,-1.0877852950752158,-0.056340394078641644,-0.11161373977799394,-0.2606548808290409,-0.07322840973979586,-1.3901435564399727,-0.332410739521235,-0.13107364920339848,1.4617435047025393,1.3480527481976876,0.10546893178944526,0.20821826426621848,-0.03982990890778549,0.8988481562564937,-0.13661307018280722,-0.2115301700788714,-0.14833604135891448,-0.09952575749730616,-0.14426905130278003,-2.3670969755818825,-0.19103322470035153,0.47336710399334614,-0.06272838098988379,0.6743217027513788,0.1948278145818315,-0.1443615436735334,0.0829233662594506,0.7857588555958905,1.5042303462260118,0.676594072404349,0.6057249398543815,-1.391718834456801,-0.21532296591632116,-0.645951343323181,1.2780398082416298,2.422737524420868,-0.31771740130403536,-0.42421715583095065,-3.3971429310056114,-0.1030063549646993,-0.007890798867331952,-0.6565245496525426,-1.3709608826587536,1.4255428917017998,2.4956866061838956,-0.16193507593026316,1.7238058053301766,-0.6047028390222555,0.3397055387315111,-0.4585635180027612,-0.6551991899961002,-0.8808226150564509,0.7093930312316119,-0.8403164042686808,3.1993291543359366,-1.1754988426710844,-0.07136123632223261,-0.03763439666240842,-0.3512246366879169,0.04843484043784234,-0.13625477158792476,-0.1981749669105002,0.04172065266099205,0.044502982031424776,-0.22439597504761546,0.08472726440248815,0.07396850122371848,-0.11635996688247817,0.12443759179667699,-0.08977070470057776,0.03073010979619365,0.06158840107922551,-0.050795508677401756,0.020072852457275473,-0.062122611046032256,0.0847877653811918,-0.14988034829614025,-1.1950877035687864,-1.4072245534899308,-0.30293757291026796,-0.23953262244054996,-0.129334445661243,-0.021811742654409442,-0.19764265953464838,-0.1986009917530199,0.13212024243305093,0.12088456709572036,-0.16372350629466872,0.03546281636487702,0.03225456316211545,-0.1349214622692588,-0.10307583512578364,-0.08150495765354776,0.040691107511925506,0.056788357741576596,0.03324880539242563,-0.03546374283498313,-0.05710572497434659,0.043793772715311714,-0.012367916404004243,-0.09198665726870661,-0.12796924434271534,0.11820578608455687,-0.20801162605712165,-0.0664505419415033,0.060313630282371494,0.04174299901236714,-0.14087036955846235,-0.04134249890039354,-0.08995407009420882,0.0071571297715372715,-0.16983815322118903,-0.8833708285380891,-0.85427319988425,-0.7173953209060677,-0.08343249592114725,-0.02928570587261978,-0.0766360964371411,-0.12168900318982269,-0.06570503263965526,0.02841753124789417,-0.04147926302838164,0.07823819271643187,-0.010572499001012396,0.06813463055173709,-0.009421827751851032,0.0056609803893694546,-0.01650611685464901
-0.016239244944957234,-0.1987309008698429,0.0022970772558886807,-0.02246989240731922,0.08447030758442654,-0.12436015330069018,-0.16982059894542564,-0.10031598255404105,-0.1058518788729835,-0.28561848821063573,-0.25909885062254595,-0.23352784251828723,1.7363329090420445,-0.11384530215784003,-0.17270778634138675,-0.24661280660229087,-0.15470393178347874,-0.16100499683921526,-0.21709647503868423,0.06893541845984684,-0.04323553736195208,-0.04148392760286573,-0.1788136320330379,-0.23069439349445495,-0.06017993445802345,-0.4227500214784948,-0.5579119150130674,-0.1120150386593491,0.06035375687675493,-0.32637175404924074,-0.08556390513260519,-0.2565614448014077,-0.3592039475609988,-0.1214989606998869,-2.277335878285132,-1.5426757426454898,-0.2519518513064303,-0.09037374924192704,0.032541548058406,-0.44839493666089203,-0.050472173848417366,-0.24143766633222458,-0.15414742444891127,-0.15749851295417427,-0.2952681811760691,3.9101391294625056,-0.021776573372728314,-0.018115871370225044,-0.06058338207870562,-0.2511029871155928,0.35484374526180384,-0.23650220597127805,0.08390152222060847,-0.9257221524827328,-1.323212654854634,-0.1410376615587814,-0.15697949118398918,1.1232558115732671,0.6550745601137309,-0.13888776310549963,-0.3548396334506502,-0.9312014974779891,-0.321459301051025,-0.6758444776125423,-0.5000687054971275,-0.3106166780656402,0.1418330916884525,-0.2308733580297505,-0.06002903153825508,-1.339236933534199,-1.360475030220331,0.07818739081739326,-0.13344017249558293,1.211389518909825,1.2605921066717531,-0.19929420809923576,-0.13882512310442474,-0.17995191618563372,0.5099286418063855,0.8990292502110877,-3.348583347145445,1.611791589422866,0.05079684909535141,-0.4365806519957569,-0.21293815124902082,-0.06387795113543526,-0.0660240098805086,-0.25275774904540377,-0.20752165722161559,0.06877998268043803,-0.516911027228088,-0.7269495074456526,-0.5254778561432017,-0.02432822680257713,-0.06684046510630057,-0.5787921226993707,-0.6457054800746351,-0.0700258741578836,-0.06084000701032469,-0.2552287165143532,0.1286224477288097,-0.026891899614483215,-0.0710677520026256,-0.4446868397676973,-0.5832240185033986,-0.38103541489192594,-0.4227657273358218,0.015922395693285612,-0.14892646338163523,-0.2939765327293766,-0.19474628507545505,-0.31849217169007293,-0.17330800236807395,-0.2939673326710673,-0.19039282877514419,-0.1809912040981037,-0.1395856052302498,-0.1872527296941838,-0.2237406028456858,-0.28818166502738546,-0.17473418805794128,-0.11854738639134134,-0.1412422798495967,-0.2702419651552481,-0.0912777762159598,0.15619847014285484,0.028415388599570063,-0.12387011075380043,-0.0077821349934377665,0.08378550405670232,-0.07412544293782496,-0.17430979409066802,0.1372548054348838,-0.01060987956730335,-0.13110411194332944,0.043820447732739104,0.06658269717265478,0.08587622890677506,-0.20346755751712384,-0.06844653962624107,-0.09658522355663632,-0.1233428166774613,-0.27438913885442034,-0.29516427890321373,-0.1769408316228161,0.14830239998640435,0.013694834450505901,0.10632134223862268,-0.0016678319226686666,-0.05829591996532078,-0.22624854673658823,-0.1422088785073872,-0.023636239274862116,-0.01967574055144573
-0.06748310312523287,-0.09608224039105828,0.05016998588783688,-0.09369682832160785,-0.05816465832292086,0.02589247369384029,-0.036489543225238126,0.08182030158797635,0.019232953320159885,0.11119797366424003,0.20714281404250126,-0.13614547053294537,-0.14145462683114612,0.003338132698649914,0.11133259803024859,-0.0861439541723397,0.09216397850322593,0.1083148480756132,-0.03774001362377685,0.08477948706428334,-0.13691553425292588,-0.031089203568543312,-0.0683775628789109,-0.001675104754715921,-0.10396631570344612,0.6232836987869841,1.740125649854458,-0.08539462667669073,0.09988696662657418,-0.16371965500163044,-0.12842793012179268,-0.17997198726328217,-0.07288647474550115,0.08082489860002955,-0.169436885722338,-0.06627416862600792,0.04867246241082087,-0.02366822379052832,-0.0801258805828709,1.915537486227162,-0.13065910726284927,-0.05344035510520884,0.13557352328760078,-0.08944777390274407,-0.16408111686520752,-0.49489168529008953,-0.08991294568245946,-0.08989278787747537,-0.1342497737121867,-0.1507785077511945,1.6141890104998033,0.5930081543883995,-0.02895286522018695,-0.2209721267001026,-0.12007520859792012,-0.12183602573718202,-0.017805449761043098,0.8177624993075099,0.15202581768425316,-0.05177129961675095,0.12445775902317043,-0.09729742349015937,0.12718015455550025,-0.11702036350408401,-0.004354823792476866,1.8185389034718609,0.01488281070588071,0.009165994734787205,0.020952502307858976,0.29713197149377796,0.5445261465500729,0.0697825586111975,0.2588588823179417,0.37611203502160634,0.23401377779381602,0.05070437283826467,-0.09276218263176515,-0.26257265619806336,0.38449418160400406,-0.2273768312250826,-0.14814506898918745,0.5634944858646562,0.26030565572366615,0.87335074470918,0.40144528876043406,0.08282713679072208,0.4426274896963043,-0.29480060971186295,0.2020225204830433,0.18484054703093372,0.051000999827237346,0.16426477389870395,0.1526132759830431,0.3373557739616227,-0.2681236334741589,-0.0405066276122235,-0.016402881983637273,-786363240488529e-19,0.08929550694697114,-0.11771856765238538,-0.25696115189641616,-0.30532046301698823,0.05959915977257795,-0.09498775137288346,0.020657429439519318,-0.10602683766510303,0.018644156243017573,0.005173821137545633,0.00685951378665565,-0.12146634766500279,-0.05499060944723763,-0.014041174287954792,0.0031522995498145,0.10655047025135837,-0.08918366723501572,0.14481909389765227,0.17894766619310956,-0.08114080459631566,0.05692599623201582,-0.08383977758435006,0.07482067014674505,0.12869914116311035,-0.0539896866881655,-0.0014404204667744418,-0.11238243566469121,0.12436664872940398,-0.06656577865453735,0.06881597792605515,0.07298466904277345,-0.05837839097009556,0.04867685981003172,0.07165008822713607,0.11038988913258725,-0.15290631999974302,0.012785413482019848,-0.12925802548058027,0.09254800263224512,-0.032602432043017306,0.02104875320283644,-0.0945366666024784,0.13708509868775262,0.023168797345120593,0.05607939133148407,-0.007700151253142794,0.08792860772011861,0.13528426658484194,-0.24554223973017503,0.05084403706952015,-0.1322651248369779,0.03619666073539127,-0.04750148317491439,0.05061522866500116,0.13279285348859107,-0.06355972410972499
-0.1908366934545898,-0.10997063525074988,-0.23252427061017067,-0.2794490162660153,-0.15862511562526824,-0.00363920990647398,-0.428764877979676,0.04416092937443037,-0.3009900003693524,-0.2419248721462728,-0.06480070050220754,-0.3774732286675595,-0.32052386523573323,-0.1931440783430227,-0.06963199904750293,-0.2515935139100968,-0.25462179125220724,-0.36218837938081255,-0.08345958615401677,-0.09594654792448443,-0.06118141012566963,-0.06799067882668111,-0.32852072900111945,0.05849649937365755,-0.17505696945702615,-0.6730300814075988,-0.311598399836047,-0.44874059598423977,-0.12046594599011108,-0.3669089499629166,-0.17714245836122475,-0.14774628791420286,-0.14554662513963815,-0.1994945232323746,-0.5555708827586299,-0.24559119219000386,-0.13990325436019957,-0.1869516170733836,-0.2249220832663182,-0.2476663878254818,-0.14294062156944834,-0.0836362421138126,-0.12764875535426431,-0.3296985222040539,-0.36356477798366343,-0.29709184240905007,-0.12749544292836737,-0.32322424296076485,-0.08140738972695262,-0.13828986186542142,-0.2934153036573432,-0.01802204107655455,-0.009939865578133103,-0.45524249858022375,-0.19682573711669535,-0.19023989948062547,-0.2535971877492473,0.04573963635894079,0.24671788190018426,-0.1366837262950423,-0.5189745818833759,-0.4806887494736873,-0.39343105198507367,-0.5121353957054358,-0.20549014946457209,-0.42840473926090605,-0.07155410412871842,-0.2538101781068403,-0.15195142038242046,0.11916994413396215,0.2788263827135104,-0.6244518025915027,-0.39678846005520635,1.8661745400833605,-1.6537289064166563,-0.09620715407736552,-0.2130427337301106,-0.3170242901408938,0.26755648919180336,-0.34299005649282843,-0.15767159069273198,-0.05450492270362897,0.02477866730291439,0.49310400773372964,-0.40302206481275116,0.07213832867410735,-0.07847338347521626,-0.2221167958251945,0.1952287161497108,-0.1389606515903058,0.1964787345703096,0.06221110252913045,0.8257565976085958,0.03692030007789471,-0.16245361502996505,-1.3629073929026763,3.0758451022661157,-0.009291278761880553,-0.05629829774728753,0.005474152829938799,0.06281748308990802,-0.06005157167200392,-0.20066059330606717,-0.20572381616773605,-0.0892958627137025,-0.3242698314528261,-0.015016775329099744,-0.26821539540017036,0.019412688786512332,-0.17033464412320895,-0.03419624852826123,-0.3722323133622755,-0.16790908898000637,-0.3681649438903622,-0.16055770400846237,-0.08852217546606049,-0.16849113672897637,0.013204554241954786,-0.24598176949024847,-0.11420787442933567,-0.24770720790152934,-0.1527117820466032,-0.0907739966222951,-0.21664611564367522,0.011417876691509787,-0.22398725259747912,-0.10541344057032823,-0.1751552119867616,-0.12136609414253605,-0.06189778596166858,0.015459641698818232,-0.0011977938717458029,0.011454875887040828,0.05640879960254201,-0.23860731785107556,-0.1644722215619425,0.034891519683180515,0.03325537590906216,-0.14574788643685296,-0.32694963405267474,-0.20578934407407432,-0.23111536371105906,-0.19359452070018832,-0.1837073029919818,-0.33049562015725675,0.05047833665560132,-0.09737109928181086,0.09180103391828173,-0.19601046288317125,-0.1416187268479067,-0.1884963685264285,0.11813239443003772,-0.32033649025709016,0.08967720639933809
1.9444295556303401,-0.5055551821044441,0.16222837261352466,-0.7234184821655997,-0.47034830629659563,1.175600369304344,1.031888051697901,-0.23191702817233767,-0.25637110508435323,-0.6366859271029052,-0.352252055078225,-0.4023058261182746,-0.22833195150581193,-0.5120246662212049,0.6994172010255214,0.20062050297403738,-0.6119211310365607,1.032294500638993,0.002565380519703771,-1.8406107170233497,-0.040804701593215635,0.08581205463216272,-1.9137946689617855,0.5156039237050803,1.192649223376533,0.02492565651598849,0.06446743514789907,0.08736635167472644,0.037366654963812994,3.218678681293301,-0.23779575637039527,-0.501604091956923,-0.3739037868611519,-0.3439073785722158,-0.28207863694082447,-0.32107551588917965,-0.14249528333260247,-0.2730360457252887,1.138479307153199,0.00646948336497078,-1.339173788616855,-0.27290686380079,-2.2765585848831242,-0.16592839645632998,-1.6041536847755296,0.0364709652666822,-0.04664229567485123,0.018907531362346564,-0.013494230293303641,0.01939201902343331,-0.07500875061169483,-0.13801672041510643,0.0735900085972679,-0.290007065205687,-0.15846925728463726,-0.02896877497049272,0.03057284824921095,-0.032712158580007575,-0.13848017922810746,0.025643882041755692,0.1319390961583378,-0.03481555069145802,-0.04360319552769039,-0.021213761553462666,-0.03015052363188676,0.14395855197160048,-0.02287311231748406,-0.031317518676054604,-0.13312285777900681,-0.02953990149317141,-0.19157962269100956,-0.04836257560193679,-0.083488733862441,-0.05689277637855249,0.03793624247067096,-0.031401645142413774,-0.14751012866567584,-0.006168529218957113,-0.018875005328181794,0.07857292677268593,0.09920285241839392,-0.05549785538667347,-0.09055666684425433,0.08593694410265322,-0.14046031120409602,-0.04503754544838232,0.08429889181591704,0.16901443223591694,0.038803188706079024,0.038093613441293986,0.01140367103324194,-0.1660946942454352,0.08710086720748059,-0.12356907497991827,0.006933472919706154,-0.004056621957545632,-0.04692474762785411,-0.1241952508235207,0.15774207507858645,0.10389689026561078,0.09913731546713082,-0.13262628054596862,0.1597908018756761,-0.11042272933655335,0.03914088205991111,0.06964339097844899,-0.08429689367226835,-0.12619456066052975,-0.05171752923602005,0.048216820720626566,0.1164845108408431,-0.18552626253576357,-0.13854959039048936,-0.06032137603686749,0.01196012837764688,0.027382664451153123,0.009681465021953928,-0.11117055972225863,-0.12618175214768024,0.09571684400920176,0.07157272458183912,-0.014178890994555705,0.06475310472607697,0.03603935701637654,0.06078300701323506,-0.007023633515616689,-0.012857199916228681,-0.02812384747730439,0.0012133748545707392,0.05697201081911883,-0.0017229835330488785,-0.1287757382726564,-0.0021845419229900584,0.08860899145495396,-0.02504952973491706,-0.041756767663038506,-0.09174302861824357,-0.041962063772742475,-0.009727814306280409,0.02153000135812096,0.06070755217615947,-0.2170949560544053,-0.060989379341069135,2.012655239954691,1.6963449336873668,0.1707906610946755,-0.1226060404499112,-0.02068750710297562,0.29334306802414606,0.28892897825278,0.7248006996670083,-1.1979805342227234,0.9246482711644576,0.7486125111532901
-1.7228635447283525,0.06964615362125945,-0.35444835871650626,1.5971576820272744,-0.34019018986077604,-1.0739266498505524,-1.6791526402173729,-0.10767418628050755,-0.24142157060705097,-0.22181902910889154,-0.26013720673234714,-0.3524952997744054,-0.2587782831383409,-0.29010306441831085,0.2535884307324484,0.5071822201156069,0.5157698651176293,-1.0253510726766395,-0.07287617146884794,2.883176199086557,0.033325493891991936,-0.04067743503973066,3.0548758922292554,0.39324478390025275,-0.8896351822169994,-0.16821853224229238,-0.01365898559352097,-0.19726848941476535,0.05421559136732188,-2.9136037422260825,-0.7585384757485505,-0.11633437258120548,-1.0370732031734813,-0.8157059533485516,-0.23214065646029683,-0.7780088259635833,-0.09845113109266877,-0.08587398966453998,-0.47844232759920463,-0.16799017925085735,1.898710910226201,0.005694296757067523,2.852185111697753,-0.3442255112438143,1.3548780132058926,-0.01478314795812573,-0.08594768218193048,-0.19196322842836802,-0.05278478999619087,0.11333709208683873,-0.3084915772786902,0.05200506579432431,-0.04524897773833938,0.26902338351910693,-0.6803454207592645,-0.12540273370392874,0.11542011517364256,-0.16252884817266863,-0.1236676060607616,-0.1096496307851101,-0.06712574882760668,-0.06914102817392616,-0.07320368848991408,-0.22057770680408173,-0.01651225734227887,-0.33036349569065687,0.02599461376187701,-0.04352178414195333,-0.0838626653815809,0.07579846204914241,-0.16035005490300142,-0.07874273000884405,-0.21480639519826186,0.011185650152853388,-0.11865524186066273,-0.05151130419726176,-0.15572292115119177,-0.14100791996612833,-0.15278178494350278,-0.05336256119207637,-0.01775011128104514,0.05798345063016594,-0.1862429764138859,-0.003245451994569406,-0.18522690695714616,0.07885678440458256,-0.017551579045485727,-0.04390851712396357,-0.0039120963226014155,-0.005697073054448822,-0.05299309611143907,-0.03938266302181954,-0.10162704444670952,-0.10604880383767258,-0.11202859778065243,-0.10060103685799748,-0.13237576886955216,-0.18309891516361074,0.07136744368660587,0.06862647569421533,-0.07812548084308893,0.013529748937517353,-0.06848857886183832,-0.0629216760637197,0.03154384530883623,-0.048107176899591195,-0.030968100803105015,-0.01171508155716378,0.022782983874369823,0.07645272246394476,-0.16690278678700132,-0.1181246368824158,-0.016200444668469965,-0.011726952745565056,0.08695343454285584,0.05922659067860555,-0.14833443279432182,0.05607098438214227,0.05301321465662683,-0.058891672724271614,-0.048435304455337606,-0.003525107632073666,-0.12748833569449783,0.164161178917503,-0.05584261901701266,0.04347484124253412,0.005601944788947707,0.017236477853128783,-0.09968023694629564,0.1269910977633977,-0.06831812651900925,-0.21954810175942877,0.06913473323312795,0.05644138186844557,-0.10606033194830373,-0.23368402088160448,-0.12716458291331814,0.07166747449603213,-0.03336681957346435,0.08426563694556402,-0.1821756295325304,-0.18495099846088908,-0.13047542416349162,-1.1743878420549243,-0.5869593055894707,0.06257556744104678,-0.2795221217800891,-0.020606727640054005,0.5716359687365018,1.008655414445464,1.3366656873068072,-0.01166390696549575,-0.2587448271152623,0.8297557551653647
0.05278863425002551,0.29924899142371797,0.10364551988021342,-0.8803990366097483,-0.0045450896457322,0.145650107543593,0.40033443895157633,0.11543670604471458,0.3043534903343144,0.02772464165125412,0.3450210587969529,-0.09339748697829856,0.27961224167115695,0.17455705590421097,0.10138369950672077,-0.019449603604332736,-1.296487124572576,2.1368081540838912,0.08801484226109052,0.5545092864827652,0.01899953049937274,0.06031730993532458,0.961137461570983,-0.006886745018612726,0.6610702839242201,-0.20914406148766712,-0.35065866724990047,0.24621151750202386,0.10686289451530846,-1.591221759796161,0.6225355380913279,1.7854946425618716,0.5297522251433647,0.4216690264492836,2.3135050706184255,1.9596794952059973,-0.10751642685617949,0.20227325104205432,1.1947638433695524,-1.8928783374681741,1.2415912471677246,0.37490952788292836,2.923134015218844,0.3275795087305533,3.230983997204894,-0.2609033755593754,-0.06983651276825431,-0.14442068218482343,-0.04409517760009538,0.03330094204899544,-1.860767314578307,0.2546748708154721,0.023031227795638345,0.04948324091218552,0.8390279336828561,0.12813931819846064,-0.04778098457921485,-0.3247890541522158,-0.2358420820078898,0.10219953319494404,0.04286130240597861,0.04507878198904724,0.16813559932853298,0.03476924321957322,0.08272971028316452,-0.02630190543531281,0.03526111420363424,0.3157879558133538,0.13569544555214796,0.23587119882857702,0.48134428483957575,0.37565283799430355,0.4773018821626768,0.2786066003855084,0.23014407460158673,0.21853915879531838,0.2148421018360161,-0.017996698634106988,0.1873759422620139,0.29423587885921487,0.3925765600053883,0.0758790257315324,0.08476304864885316,0.20473723919835135,0.13902699609189545,0.18389333365193897,0.11251731929943169,0.19304490457763443,-0.022219186458263172,0.04218337388691482,0.12313402481841411,0.07618988513724478,0.2027541610776355,-0.04799910830832903,0.03659539872406609,0.07784229625459314,0.14441675928031544,0.08431401040433824,0.05661041226571791,0.12302967560902345,0.21445297607651742,0.07187418745689762,0.1255733244986503,0.07542355396782179,0.08991838037197944,0.4237778158864927,0.19222085413043777,0.23373191541670216,0.11919864861419462,0.10662142260979802,0.2742393518526092,0.17821733131808123,0.3149053852472566,0.3905749948589687,0.33646514145989953,0.13410774669093678,0.12198761138945259,0.31708702288764384,0.3862984697974581,0.33537375484619053,0.42219840437396877,0.15989811152575212,0.2441800347487187,0.2143245604763846,0.12154522337558256,0.212952168604358,0.09773091346213458,0.08873996959122606,0.30388944820317276,0.17667278718118737,0.046086136337313115,0.1274407055768636,-0.12099944041356148,-0.0809141966177597,0.11330559271169255,-0.03011812593082138,-0.04863223395250507,0.011866504276845472,-0.1255373575874457,-0.07126044056140274,0.15559096198150388,0.13943490908888218,0.21952671816095037,-0.006178416730450613,0.27776343826380495,0.018915566932354896,1.7109617361087677,-0.0073896034826267006,0.4813763580070034,0.2621150377023195,-0.36414277154054725,1.9922264529470401,-0.08913307221440182,-1.2798887583906435
-0.14603973580052088,-0.20520579936635877,-0.005699852206890547,-0.043334911612972024,-0.1347950188353899,-0.18038440700599231,-0.3261970637155145,-0.0875666832665874,0.05266707391192152,-0.18466201268472998,-0.04093858842916264,-0.20442976673875454,-0.05702063660954713,-0.10440087983333886,-0.029553023090910267,-0.020229343004735383,1.4823459579507638,-2.3059118609116767,-0.02901510558826947,-0.24281787661486026,-0.12015377458558087,-0.03596318223593378,-0.7116473960924837,-0.07894851263972126,-0.200353641710839,-0.06921731082290573,-0.08987155729149775,-0.09447294517345549,0.11527497235908545,4.410224207480551,-0.2272935954201976,-1.4062543981250222,-0.18796063848852973,-0.20716547984984007,-1.6201254275259134,-0.9340236426462523,-0.08396746506976897,-0.06652883732702045,1.4259686348163283,1.2694621106910788,2.0755079531185365,0.7512198555806684,-3.3888817103990467,0.9902981050050872,-2.5709855038618574,-0.1169633331365228,-0.06645013907444583,-0.23557550107115535,-0.04811307233219755,-0.09102780904115232,0.5105812430465726,0.028465649967155882,0.00800519498207385,0.7345414852412514,0.34541594820167637,-0.5188262392750461,-0.11923725868236552,1.4570369215499386,1.3843264871945817,-0.19562614425776131,-0.27780809680213797,-0.24815429199114303,-0.15394913408612512,-0.24687294843662627,-0.3482903357473171,-0.1797124006240012,0.0673227195238949,-0.09491455031354273,0.03879379590826782,-0.3146118300237777,-0.26589247550407824,-0.06160496676103267,-0.23080030015562394,-0.1712649670445331,0.03700587735619139,-0.20527067664753015,-0.20708300080707195,1.5385885665664336,-0.031489895770063836,-0.03178677891972338,-0.15208410702305225,-0.19009480683684496,-0.0832691575195596,0.059317674250640696,-0.04859057143418816,-0.1397848670772233,-0.02197082229200804,-0.12432015659055626,-0.12752566853425842,0.06912418996612635,-0.15820969548351885,-0.005464904274329245,-0.05269633910604295,-0.04582203854556621,0.06603872323112805,-0.06586916658211428,-0.17879665652194576,0.023994833127526972,-0.029972037629420915,-0.024115462452261302,-0.08757442513446512,0.007405697822089254,-0.19042637352655614,-0.031022703081467536,-0.0778121859863617,-0.17432011561511015,-0.23093092209199345,-0.12869282321073852,-0.12744447130124448,-0.10951065870868072,0.028608808928504,0.003997951905606573,-0.1264433483622201,-0.16822224583332307,-0.14365723851411577,0.034325562076243335,-0.1519510571850527,-0.1493060573683858,-0.13279050994912797,-0.23149666576499206,-0.24361751391154515,-0.22879652927033123,0.011148895340869526,-0.14931744126711755,0.05348386905474749,-0.1888814163093252,-0.03863764768838653,0.017708920312025134,0.09672134065669591,0.06522586489038956,-0.08778798835039267,-0.0400182991282035,0.14594330118395074,0.06595624324288671,-0.1545363791295237,-0.03387632625657311,0.17662508641119662,-0.06153576965776867,2.1040386989843074,-1.9117127234131366,-1.7150308084008754,-0.732267632771465,-0.7721500531782266,0.7494207553223812,0.8393936366281425,0.014654139873034905,-0.059526548803915,1.002830922083478,-0.44954578075193047,-0.2521358493740344,-0.3225594875151749,-0.3894149166173144,-0.013339111879840939,-0.13514576577909065
-0.0066207516636589405,-0.01800600506217374,-0.010790717277116202,-0.07640738616612672,-0.18347145109625368,0.01521791120726954,0.15944423871486077,0.10064687820906157,-0.027470932738119642,0.11319007965146843,0.048644554637954335,-0.06848179530504545,0.08982560642831726,-0.22465365491609168,0.09552536547874214,0.0767120063693457,0.048426563307161045,-0.08005550964785185,0.053356501299056065,0.0905261251346778,0.1522551396998536,0.16514573898073417,0.31580232918269,0.022845689541325286,0.07099455610903133,0.003804921597979067,-0.35492922789758513,0.2430102753802866,-0.09202110780433369,2.805167938861136,-0.2574328246232932,3.4762163974561284,3.494581097925107,-0.18682809814226564,-2.2416564248867092,-1.6996393331220208,-0.017001076677354062,-0.09578832155158021,-0.32415841596800576,1.6042912527017075,-0.3580332906077466,1.5464655137591763,-1.0270519910051465,1.0253059018272157,-0.3429509534318293,-0.5852145578485076,0.042842751235946275,-0.21422505275501724,-0.08900511719457793,-0.3785900749402634,-1.157548081512434,0.18317878830041345,-0.13414920905140804,-6.309659423559646,2.859703220772978,-0.08196660210528259,-0.7412830260786064,-3.3094513756064003,2.8313102113731894,0.0185040171622904,-0.07636276808333957,-2.207291810459375,0.04605020189607841,3.649420580245353,0.9341591445638134,0.1607044679694005,-0.14886173221065876,0.10777600086524046,0.007484589107684001,-0.0642741453309038,-1.3931447282368306,0.3536874739459474,0.20937371156704512,0.23980029539245515,0.1053164493317858,-0.03845829260878706,0.15190418152763277,2.4068373540039616,0.0825445094779501,0.03599714897084727,0.12515798072048934,0.2528746491242001,-0.1060767428801808,-0.1169628545548468,0.006047045345798075,-0.09528038570843567,0.07639526314341989,0.2769722358473255,-0.021155525738416933,0.1303699726484243,0.06100844054967749,0.007486185867124896,0.2415023785899068,0.06268417975480041,0.01282009024064211,0.31872789375951427,-0.16691271944285063,0.20867661209799215,-0.14545680422335946,0.07128656154963971,-0.04865817037955706,-0.02363933492857172,-0.04421705440620418,0.15137089435722365,0.1558505081954465,0.03377350571930155,0.17410076957858625,0.13521069370758812,0.05291882421625052,0.05543005739904957,0.3010417576822564,0.09244512840500642,0.24344089157657528,0.2584925012462854,0.1162328051996199,0.07026477860803776,0.0918412652042172,0.09972817963175841,-0.0219545629316383,0.1456068583058203,0.1377923236959295,0.07838012220194276,0.19687892862577377,0.14303593464529382,0.17213295182538124,0.09379226928546205,0.022101889378554705,0.12351884866261187,0.09674602821387965,-0.0707808001086236,0.06385193471748597,-0.0039000118462306126,0.10208184189357432,0.10311856776220585,0.09326850369725634,-0.13707050301936838,0.06761425951600751,-0.060816695600134626,1.2230513184882306,5.199983459437028,3.3644066693964243,-0.7730635437570768,-1.2694373497757472,0.7446566793815538,0.3207508448228752,0.3121862940859918,-0.05602589516546612,-0.03720519073507328,0.07513477008057204,0.06485513330880918,0.14695131662077235,0.06918993242151894,0.11057683618949854,0.10175444457365651
0.021182197545101825,-0.1861375044536177,-0.16430035855282854,-0.11643729018607993,-0.07482442479604948,-0.17641500471090082,-0.32321562116559427,-0.017865825429661683,-0.08141792288303983,-0.3291960860438415,-0.1813509742152921,-0.3711301508091112,-0.5542622518194658,-0.06511866021986164,-0.0826109974379051,0.02577616301039989,0.143855913767916,-0.1574362152144987,-0.11687931458664685,-0.3266093603671591,-0.027447810081065314,-0.10408340279539197,-0.014979351923855402,-0.11931307643170135,0.013873771632353746,-0.20587084758731827,-0.28434646790057816,-0.01921592988983653,-0.1202483786754574,0.4983570714938577,-0.15009417303863626,-1.3220030401604483,-1.330236876283699,-0.24339848626922467,3.9957917068760227,2.782792980093398,-0.09130567387756984,-0.29617272968182984,-0.6615499465847933,0.5032592692280463,-0.8018686072811624,0.2398643896729539,0.48170083344219006,1.587365282222858,1.4741392506533775,-0.5967022621182465,-0.2546070763570436,1.0343910921339576,-0.37373085864668304,1.695703431451165,1.5594321332813128,0.04169241967256693,-0.03183235527204288,-2.653824384567769,-4.429085769396235,-0.8014373709519812,1.9379580180359628,-0.9645932648221771,2.2941335173797675,-0.6124835936246072,-1.2189629009601768,1.7545239921104319,-0.5053373559714333,-0.9973101946110023,2.2589272725144314,-9307694513707002e-20,-0.022485057431050528,-0.879848166519974,-0.5874026995646074,-0.35212108245211654,0.7248773041188631,-0.2712327946654296,-0.5191284682898141,-0.20173978759652872,-0.23579173760718725,-0.6374637874157401,-0.7315696327052353,1.0789311937983939,-0.14813849866004938,-0.6045192571678641,-0.4662894489497692,-0.25344964461903985,-0.2420748297760013,-0.05009804375497334,-0.20924570310395132,-0.07090254774341742,0.08808615372380826,-0.05830341944973673,0.017574723103977327,-0.00956955955074759,-0.17701807098610903,-0.06220405225326414,-0.1163862592928865,0.04557055808776478,-0.11235166225866536,-0.08790417007848426,-0.04963253620813739,0.03931652866476544,0.013024299957192193,-0.11099438514748983,-0.09538356518010216,-0.038738893551138284,0.09982367814270057,-0.13033727587864521,-0.2562553803710479,-0.10976830085165735,-0.6432392919956729,-0.4972691171541031,-0.23841953501108198,-0.14511216189973666,-0.2618548762409682,0.0030900787247214,-0.3161140691596379,0.11425997028306457,-0.16869633737751377,-0.06488448438682237,-0.2044683748815075,0.07356973209626651,-0.4577141136499419,-0.08475738328240028,-0.18185660212229066,-0.2987703874787811,-0.08597739815524215,-0.16421988023489306,-0.06872294557186226,0.03867689090329584,0.09720442044713407,-0.2465096423345711,0.07696106433163215,-0.024107566155531668,-0.16245307810800252,0.023800461675016676,-0.10698326330453439,0.17545323127380458,0.024984357763783962,-0.024190043573745323,-0.012786346063522318,-0.09883118849219552,1.3560499053968622,-2.0174390776187447,2.496875173922167,0.44046604221364205,1.069670134328575,-0.3431377989875707,-0.19117128031740172,-0.06462823438298862,-0.06386479099812781,-0.1803795382130532,-0.00794904620788133,-0.23814755790512632,-0.12533514761923703,-0.03658534570408078,-0.188031919169088,-0.10138583251628097
