0.06708710681785499,0.15786193149474226,-1.0694161208738031,-1.1442275751828617,0.29633815900462235,-1.0121945560829357,0.2808669509469495,0.23720144912938732,0.17726054646544298,0.1753819278588784,-1.050902000953836,0.7791776377065065,1.6050939535686208,3.3638045778335086,0.3724553979560701,0.5983894062232041,0.5687216752569217,1.7528397655847625,1.865613069456661,0.048616293713054724,0.2429265407433822,0.6240248885749434,-0.5572826446913585,1.1629703747265918,0.28962056240747136,1.116646407114199,-1.7160926707744184,1.261677399899346,-0.1389932499756095,0.45679116685931515,-0.18060078206007826,-0.3480149349702903,-3.0565946487161355,0.1814085347972373,-1.095494566923802,-0.7748172125035053,-0.7798940784898202,-1.1725471047238647,-1.1685134569942985,-0.7861111748670503,-0.18081303392211864,-0.29883477929422203,-0.245778874254593,-0.03177526091030996,0.2135920260918554,-0.018563103189643434,-0.15692489753746378,0.05459160728270513,-0.2798132740437008,-0.15079264082324526,-0.04429179038667041,0.04907716812244535,0.02237774376287118,0.06957428406697405,0.3027352528650606,-0.0413079745090014,0.06907447911288918,-0.12136621917920475,-0.04243035430508044,-0.025169830989542424,-0.24179930763618018,0.9149118428110624,-0.2987631887738302,1.0084771681118423,-0.17059080858450731,1.1095533308625583,-0.12247707917566442,-0.023641855668852088,-0.2180944821925543,-0.12799226618916246,0.0024665432369461353,0.007898029918526438,-0.12892563275140734,-0.08917670480836258,-0.01060701770221271,-0.11140327319697838,0.0029135014787055554,0.023929411667085305,0.06875395919173011,-0.051506239997006785,-0.10003229413778866,-0.14008328186297525,0.04317699895609785,-0.02464680460903143,0.040307627408666565,-0.20926685554361116,0.11851715472084073,0.10327912992717404,0.014179471513152775,0.04714102746003962,0.020083037715352185,0.0031349599548101655,0.16338075945592884,0.21295760952320558,-0.20469146816385111,-0.19264306040298185,-0.08800574364884531,0.05357905753153455,0.006582329004455599,-0.1228082338874235,-0.14199398025236679,0.20204053857809157,0.17657432997343156,-0.10990641505345672,0.07721971948804307,0.011329640427391686,-0.04239411780205154,0.12147772586847004,0.03550234607353454,0.2231271448340855,-0.004292151512269935,0.04510801485536964,-0.11891645227659976,-0.03113339094672039,-0.08310274971175083,0.05592585060765558,-0.11957383093321863,-0.033782396825377946,-0.12145951730657979,0.13052868526070596,-0.18952047436250222,0.06381008154957196,-0.0807685225985424,0.06760176627803309,-0.0023966968061411797,0.047750871580066176,-0.013345043258363285,0.007486505868470453,-0.0651234756895779,0.13096723614649977,0.11380114218109097,-0.026274305393671534,-0.047024533815051096,0.10147480299700476,0.0047312401961953935,0.11045866213283687,-0.052324078906911785,0.059438336485416424,0.015954182313910933,0.0486941413488627,-0.04971536861286688,-0.1956905043511471,0.0064266734836792,0.04993034073113459,-0.021458600712271837,0.13228906526941397,0.07440694795366322,0.3576078275372869,0.37092847460402084,0.20862373185022332,0.2880662007455514,0.23259684617496276,0.3181572495581855,0.05952821301186692,0.0707036487510378,0.08299992614671851,0.11732437735111942,0.0218243168174029,0.09327226652108414,0.010857127492640894,-0.20417428779969318
-0.16016618579523886,-0.11638447263650856,-0.4538430335207648,-1.6377053343063255,-0.36911563906586203,-2.0801391175705284,-0.034107135407681045,-0.5625926419814329,-0.23962546722433467,-0.3525965024443457,-0.48305261475055367,1.5263652985508376,0.17817531775715986,-3.5695465940269466,-1.576863543035679,0.21346753071996188,-0.7847689820492656,-0.3883802710506378,3.1969851113337726,-0.08264912441490693,-0.36471120556610953,1.4799815101707765,2.440655294603874,0.8162788222798623,0.7506023779073059,-0.3039155041288088,1.2874556833316402,-1.6077726586000645,0.5967447899780842,-0.02538342398249999,0.10125408081681789,1.0739243758912294,0.027745580567361382,-0.4145230405568735,2.3172295407930363,0.22668523341508287,2.6405563840048196,0.10410679450680774,0.1557997265387319,-1.4686227396293576,-0.7841279969886763,-0.8126472192324511,-0.9511779007777227,-0.8141797142007328,-0.7853685634209335,-0.5611542022394259,-0.45208554268157536,-0.46397867885767763,-0.33538351294275254,-0.5143300551484736,-0.3249415577602418,-0.06262827118350345,-0.35573127818303174,-0.2963235112207048,-0.290055288222227,-0.07620640069894687,-0.2529414482605994,-0.2785669632513829,-0.5364400945808396,-0.31499040010769375,-1.3486382163213795,-0.2526611597208745,-1.175687783165324,-0.2379245974120583,-0.4624879243500536,-0.2306339269393239,-0.21047691331296567,-0.10816688599316539,-0.2790416316936903,-0.20129859019418134,-0.1124018746188168,-0.42751802219858465,-0.30292109816013696,-0.46457575994645645,-0.36419976316188535,-0.24090261779016323,-0.4040577282094767,-0.3702862053017058,-0.21369819696690412,-0.16072268779586796,-0.3925370405523267,-0.3805130391895539,-0.006587270243405981,-0.13006549624275293,-0.2745255079748712,0.0179267298244952,0.10029064051777857,-0.005827182490140145,-0.01818663056544404,0.07905142575850663,0.04981881960405253,-0.13670456755145605,-0.008484442700488107,0.04918533401912765,-0.205123018739161,-0.14365311048024976,-0.26793026949323523,-0.32986007529122335,-0.15280822740991595,-0.23754699537735988,-0.22026774859951276,-0.01805450135465964,-0.15735554201636887,-0.25299725049784416,-0.07404570449105607,-0.3744260194814066,-0.1825513965001872,-0.37003928805366215,-0.33495887644347666,-0.016646690269754617,-0.14712685273383216,-0.0714576711949731,-0.440667181101277,-0.11152859278800571,-0.07020099370389225,-0.2649409869803509,-0.22674859478120182,-0.34502449992461753,-0.09061921156162696,-0.20950501762007506,-0.10987684133129497,-0.08574298077537533,-0.10854257399414947,0.10693782447828062,-0.5930094179685126,-0.5412202303559486,-0.09318690144756081,-0.15504166612384837,-0.22233764082823765,-0.272156270584844,-0.18813868102188924,-0.23482953661947845,0.1127229086279211,0.0035678505908056275,-0.02644980995708428,-0.04836360175171869,-0.10593128793131366,-0.36073975587232,-0.7401436025940824,-0.36544384016841946,-0.18280581152527425,-0.018249353389027733,0.03170534303042129,-0.09023323635582292,-0.14706861595880605,0.04507521179014911,-0.039234086557086684,-0.16180527421833124,0.018623877450326703,-0.11521168844153269,0.21638224129168526,-0.006338635689998433,-0.004604084149043732,-0.20973965297020414,-0.11390282409840845,-0.16699683851215347,-0.15290692083239493,0.0003359023638205553,-0.041066055663134045,0.07751378814519781,0.1271284644161767
0.0027798604437461938,0.19795750819093372,-1.379098845011043,3.5842174667946933,0.11241169399146467,4.824479063817332,0.09844176678677258,0.2674289107625522,-0.041705139260567514,-0.016094712812586447,-1.0198004805412804,-1.7124086649047978,-1.2866326693941106,0.8767295878772223,-1.717729486981396,-0.11462094197041754,1.604850119150562,0.5148695012679964,-5.062243210599174,2.6710452825580715,-0.07120491856670175,1.8225697409040205,-0.9953753152575923,0.06627317414660715,-0.3964966458243331,-0.4046533467285092,0.06524694884158942,0.3244255059861996,3.643558838650948,3.1565331792658315,0.9264507931842278,-1.0578905584401326,1.1361013943840923,0.12254586065947672,1.2490373954637208,1.3583637687807455,-1.0065733268426484,-0.14674578505073324,-0.399769618170983,2.9382097285659783,0.6058007739334836,0.22182560885582314,-0.20407377771075916,-0.6941499376520311,-0.17199622797379255,-0.4809854285791844,0.1292256327535434,-0.07348004517893104,0.2258257100339906,0.1242524418695368,0.1131917624848131,0.0032845427292842165,0.1471518697406686,-0.02150586363906093,-0.11084612751193858,0.17424188915055044,0.21227890692968238,0.12580255894202,0.025095265273913973,-0.01918739442672847,0.10877935133854001,-0.0013882962855837587,-0.08177491807790531,0.14317904493284858,0.1351805451774269,-0.03537730621716687,-0.19236371091902682,0.10012172994045675,0.06470674729984897,0.0657358771180143,0.25168324452776697,0.04046487885802712,0.31224078478158,0.14963548283894593,0.132029987204385,0.11472139440939472,0.03580042804016082,0.1876498742300004,0.19807437953015683,0.20104551104075513,0.2652880902873034,0.05981544523427705,0.028810646432774624,0.19157995277910297,0.1712728200337626,0.09451741813540827,0.0034046888806682435,0.11986931984935671,0.037445948344414434,0.04651389722390681,0.12342432255226798,-0.0570368340931617,0.10246777928487859,0.05826253575879998,0.14303717484309048,0.19949686647726952,0.026358921503908662,0.1686134048159511,0.053959575499836654,-0.017768163493069825,-0.12106080335367395,0.10438818813287144,0.11509925219705815,0.23704903699636773,0.18220447817388258,0.21569990740095193,0.0804764038086934,0.26736606154802106,0.3006618831357335,0.04017373576870982,0.16598336518762638,0.09387501689262996,0.10783824633114658,0.07709792505051953,0.1954981639664371,0.3096404623967147,0.09642627630973777,0.24202116045332595,0.2862427764808408,0.10212631733701687,0.03826680782785244,0.00804792873114805,0.028328855029356895,0.03630132856792589,-0.07966710821469901,0.1048611467846115,0.03730424450325283,0.22990859163907987,0.13833781653747612,0.0899331334371812,0.24514044117040915,0.03203252800767024,0.23115666160446247,0.09530508118517078,0.13060199846825404,0.06484206724247082,0.03653943961292945,-0.08351296483476128,0.023505943307303254,0.2194580437429795,-0.036469345491755345,0.04565829980891296,0.08060720366815945,0.13838048465529068,0.014340804674468513,-0.053847690081630234,0.09663411847316061,0.0730082597751632,-0.06551782922836114,0.19455249082274598,0.08405629455651038,0.08397677157764002,-0.08356768192393683,-0.14979030464482687,-0.08409039074320515,-0.06478685360853788,0.04281180843330639,0.1795835918558768,0.0543175705433162,-0.024115436488872606,0.12772031507505782
-0.7396493416090125,-1.4928712175052312,2.0668393391985598,-4.439194544701498,-0.1975186078086918,4.313492841321396,-0.06787231413053894,-0.044225367893475885,-0.7649982336522035,-0.6741865128874156,1.712556072759496,3.824651188427578,-2.6590095677550813,2.183056108942714,4.869872098685379,0.056626380485604644,-0.6647248281317785,-0.20561572566084602,-2.1173998223210626,-3.8505196977307454,1.358804139501457,0.2503603068038647,-0.12743710839348166,-0.930295019960178,-0.17521066452704911,-0.15381349618040624,-0.3453783776904985,-0.22438300565350627,-1.925666456974116,2.1733847704791702,-0.8769969796417657,1.9184452832482322,2.1728375460229357,-0.06186394765289573,-2.1435410725714297,-0.30642057969177455,-1.6566341555310582,-0.11337286756103566,-0.5119539456947959,-2.40907217616038,-0.20499516714127894,0.34900592463882474,2.398228077061556,-0.6294226324690867,-0.20676311312912055,0.23426991270846037,-1.6541041884266046,-1.9811172933379257,-0.27515232246576715,-1.3934725849453464,-0.8856802230482386,-0.197055558651843,-0.25388546143210317,-0.0650791653131426,-0.15359122755930577,0.12577629524786368,-0.12861427568321268,0.023469247917282568,-0.1025804418110335,-0.13975235258617238,-0.4036156436952128,0.011666892563250217,-0.3292326433231214,-0.14805811419369183,-0.20264758366964578,-0.15874191667999016,-0.2764562723250936,0.05728918105600767,-0.18688814547702892,-0.059936404896572884,-0.16285383379508955,-0.2602063299051565,-0.3006063919904459,0.11131409532014859,0.04603780780195366,-0.1798043257479161,-0.16943986008162337,-0.05014265052514954,-0.12119026565144772,-0.03295531965531676,-0.10940178325549942,-0.11131774692785931,0.13769124423366727,-0.19163303185241937,0.07498624752422939,0.0455067374583534,-0.06285121715249704,0.08271545869174131,0.04196368245922517,0.03275711039201706,-0.0010427712150690176,0.08753769303513398,-0.16423242033938418,-0.035901125971375784,-0.06954523157502691,-0.1464858431291528,0.15883469105250872,-0.24683394904371606,-0.36211427994620365,-0.10098565279412741,-0.06196159190213072,-0.0523740774694819,0.07372481356791123,-0.19574050126422637,0.029379389784964637,-0.2523501401756146,-0.15382115365570323,-0.07624147954767097,-0.0623505011050775,-0.04616792679394016,-0.1485943098844698,-0.015295667182816863,-0.13680984819243788,0.1002356259909946,0.1079581554946505,0.14129012048746603,-0.15151011705844616,0.06988370601461157,-0.18871542516851392,-0.01675580872565158,-0.010489279792504155,0.042140030465928874,-0.05403875209637992,0.06359846654988116,-0.014084747464542403,-0.12559179079969537,-0.11725114930370374,0.07708296423239265,0.09526021918499057,-0.12523257032255883,-0.16998190811114303,-0.0558094734057416,0.005555906084013099,-0.21576963019285686,0.07461511489768101,0.033361547284910524,-0.07749326907702882,-0.02434820638070316,-0.25301270329999237,-0.06039913475467667,0.09596120184798125,-0.09495244110878591,0.10886944575989327,-0.12742014645563357,-0.025273690767544012,-0.045448791372022256,-0.10963458022636491,0.011287437663311101,0.01794724601059219,-0.20955943314568112,-0.0414898889756859,-0.08660858768285515,-0.00662563357631539,-0.21855610763677083,0.0262782424239404,-0.008954765679208138,0.14325257654253587,0.05743667508757739,-0.043386462440797795,0.017419697839896317,0.031923337132372345
0.7749138918137745,2.753183196447052,-0.7727817808324164,5.301521905318768,-1.7669281881582855,-5.588511511221833,-0.13495410770632318,0.6070132423499576,-0.11839352367209133,-0.2924533900954344,-0.01872984955871431,-2.409803082593432,3.0102416666772887,-0.39883288378981924,-0.9238367778930769,1.0874856508641877,1.4686033736245945,-0.6396246225414517,2.415871455096711,2.1051409377155155,0.3349046628451635,-0.18782795303220137,-0.5946663139946107,-0.9354023828370135,-0.3696306865342149,-0.39060253487130425,-0.7156716690272571,-0.799546779373827,-1.426649833867768,-1.8764332045003649,-0.9108762045397452,-2.1365024570113382,-1.7342290240075526,-0.0456312035819251,-2.1347735210712067,-0.7119097613234119,-0.7220091617767137,0.2632389593245233,0.869689401403817,-0.8329468025335205,-0.44625959521863284,-0.05989614166501598,0.8653317741160936,1.8249020976442358,3.09967539785389,0.40523101651644233,-1.1301550724276135,1.530593446110857,0.22885721744621249,-0.9660528526454367,-0.6235291311354726,1.0242781185451113,0.15725827051983202,0.10678163346078086,0.8449815096443978,0.6418191323214254,-0.2797426576320638,0.8607641789173262,-0.34651479193572887,-0.23068373472110418,-1.9297320962331452,-0.3172503107212978,-2.072888933500023,-0.11832880450330431,-0.09566087962552391,-0.3326010380637895,-0.2184038907584946,-0.004633420153202988,-1.2108336154942652,-0.0006628931887493005,-0.30561134860804157,0.5267135873827793,0.6086562498398367,-0.18618355376675452,-0.2514116201600171,-0.22237459930635564,-0.20727649502947448,-0.18413798078877777,-0.26912589551475957,-0.050280461138459,-0.2036714581979521,-0.3841476893512866,-0.24248073346297855,-0.2743382684786886,-0.10750915756286611,0.14844878864074837,0.02142045129919106,-0.11825055733383083,-0.06942449207449465,0.04524031800451764,-0.0494485839159258,-0.025365427821141772,-0.06799181836941011,-0.019995314994768296,-0.08909428638335258,-0.0358574227883145,-0.08913447684313242,-0.2333217176605659,-0.0019325384781445779,0.055057366522657865,-0.10952003280523512,-0.23658848325789983,0.04943787305238435,-0.24404013320813403,0.03245419381900503,0.031533136016178215,-0.2750542550642343,-0.22939294579646932,0.008959583491461368,0.03947579443243623,0.12931721430657758,-0.16190627392258555,-0.18606441022849637,-0.045768725264351405,-0.09940032507519098,-0.15783683489697836,-0.16151804502917974,-0.03563381091415277,-0.0842715442556261,-0.27390741155437875,-0.10256825370570458,0.010440299316727917,-0.07649830277943293,0.15557578186801727,-0.2780564947062284,-0.37093782808297227,-0.014112424094649004,0.035245233546184446,-0.2398622742717827,0.14936940895273185,-0.14865513803835562,-0.1644061238671557,-0.06561454198484115,-0.06629850950712643,0.01577713024604715,-0.040854606353212836,-0.0921982981228239,-0.36955434242153384,-0.25309470315372073,-0.0160198842901078,-0.06434000795019958,-0.10140937190578458,-0.09462630132810766,-0.03197314508136116,-0.11513552618490197,878661713981744e-19,-0.1301415247752478,-0.031175919037470343,-0.01270213003110448,0.017229688384688788,-0.014740706370679044,0.03285587459540835,-0.04329591035622776,-0.04703799522620711,-0.052292980835123105,-0.0012842433415362685,0.07991672968620707,0.017609807917126248,-0.0058721440169749025,-0.12322745478364741,-0.0485856233176526
1.01656759997754,-0.08420762060475291,1.4347046072345035,0.3878008299114994,1.1561035822739407,1.0245489528552825,0.7311266733040933,2.8520321586910096,1.146657970530912,0.3002954764781811,1.951928272965635,0.9958279759616872,1.2949598838902896,-0.11889337246075435,-0.07032069830792093,-0.13009720283390966,-0.13692566438806344,-0.20954818626974103,2.4178809288823926,-0.053860538205598385,-0.20389229524416533,-0.2871649630010477,0.11944204402036585,0.11230499168894416,-0.22881781303497145,0.09367671948310062,0.41516587109217673,-0.4713533896274489,2.61992024448383,-1.301755334121077,0.11697110309420669,0.1428187957866896,0.31160087021253113,-0.11978129945879575,-3.4394904043490806,0.09724155452830294,0.060791974449392716,-0.22678665563291564,-0.15192594636365808,-0.525327567742913,-0.08782116877548247,-0.06824410185253024,1.1197487472179228,-1.467770991837578,-0.5163649199521751,-0.6312375016019702,1.6259619385118098,-0.8285354982429942,1.3561887169030182,1.6200473002399711,1.201520269770121,0.6195880468564592,0.42486501853789116,0.26587168941679606,1.3222943516803245,4.288659437782738,0.6152812129032106,1.1734166762449514,-0.6300644685457748,-0.9127345767913583,0.2304456830911605,0.12853076901616384,0.19057889734282815,0.2130825970569904,0.05890141046300567,0.2083286199660557,0.16066830747795982,0.2828967895590335,0.18394860489528198,-0.050313754690323245,-0.03261963380752503,-1.2657134785406028,-1.3710884989102698,-0.15223350254764484,-0.1530258047196063,0.0008736198542188715,0.1591580712974542,-0.1306598303893276,-0.3157383766653831,0.0001511864211925271,-0.03431108522771041,0.24425106891812573,0.10851365237776056,0.17285005656876848,0.15035132155525238,0.15616032066308835,-0.015095997846114132,0.09388467275109509,0.0712210238861036,-0.1509066266106347,0.033677075914213,0.02550583101281196,0.06864855591422771,-0.027554439197307302,0.3402198392544134,0.024378228140941916,0.13486083234522145,0.14058402707674583,0.3190950967667715,0.14971315573433006,0.08232076236067756,0.2532743513134603,0.2504370313595137,0.35993213148427705,0.1460724919000314,0.14138809890608048,0.3079518640809823,0.20649975699460865,0.12999413656020645,0.2151999997577,-0.08186336740554674,0.1519677977449537,-0.041255254071568284,0.059637028616021937,-0.04763120238188341,0.22751729095105439,0.24260336453463607,0.25096904058710623,0.1123708299600862,0.17346346774349206,-0.020544684367164088,0.1445240802508668,0.07570742907377309,0.09265590962118292,0.06488409192159483,0.00937662789585528,0.27683054505923604,0.12621174380813877,0.09182415777683665,0.1617361943490069,0.17141337382498736,-0.18085974346809924,0.12530952580373855,0.1412868913409557,0.2956422181470942,0.11582586854719838,0.23791666361265737,0.1533864142473043,0.19407718675262542,0.1935557367559593,-0.028973685524409855,0.14604481250424275,-0.10388235224843874,0.11984306899342446,-0.05183993541529892,-0.027487453056194464,0.18030985496302127,0.10996359982546787,-0.022885640749006713,-0.11327362533633041,-0.03916614111839797,0.03600120646505411,0.10838843546439825,0.11222958068868048,-0.1784905184681981,0.09195493757406488,0.1838746825480186,-0.1655137262213798,-0.022408062909765502,0.08987480809266275,-0.06128209033976601
0.17281950109729774,-3.9090540927548765,0.7223080622110044,-1.1512173347964425,1.5968613924546853,0.2932173590575851,-0.5803846839918183,0.8043981256090149,2.665199479083006,-1.26593515531333,1.212443657530251,-1.7565215389558104,-0.16643375897456927,-0.13743485723836363,-0.14536972458522165,0.0439564147252967,-0.21181335111482785,-0.036457323410955186,-0.33061850188556485,0.12109885223144258,-0.2917612775307421,-0.2992818273465669,-0.06301260490875366,-0.05873856572878102,-0.1928018510522312,-1.3529391241213118,-0.29299708706994565,-0.3804047482640933,-0.025276401245338163,-0.11366150206766339,-0.11392825252116227,-0.184530537987165,-0.04439624170479674,-0.10509274130926345,2.3520336311682954,-0.18989675346920346,0.08436918744962618,-0.18320517329573244,-0.09526108610434796,-0.5572182299042392,-0.13310165590316136,-0.06969873541722978,-0.9480421725736154,0.10157239394549669,-0.8747401623888102,-0.2816005323005027,0.302365484233347,1.9337921974915822,1.4847263765034258,-0.2897642321824174,-0.6187761874393519,2.1890563176834084,-0.022913509742696788,-0.9675781073621762,-0.14172621906580446,-0.7512774639967406,-0.473795750101101,2.51208334919015,0.9155935563552047,-0.28805343276131506,-0.21295456756658673,-0.0930679405948304,-0.20531682735975454,-0.11009654471489821,-0.0825419314267755,-0.07697615628887061,0.09004317483420926,-0.12301456416025591,-0.0667826870266501,-0.007171672439437945,-0.016715840773528497,-0.5667610706617401,-0.8347743114642435,-0.11509742870608049,-0.09154099138168695,-0.5916952372932531,-0.43614723539316197,-3.0834568606622557,-2.9543903525037907,-0.13868539791094237,-0.2193436446559645,-0.07189590074702425,0.010739119145022308,0.01068321254234456,0.11800585473329363,0.11010043887810421,-0.06487118289716272,0.12045204960451307,-0.08615213872510781,-0.0005089344235331039,-0.022655189255891675,-0.05598299334646559,-0.005077083640705269,0.1311505784373877,0.10902307408591455,-0.13209621872171232,0.030424792529805487,-0.2374377740989137,-0.12926381290999583,-0.06959540064573898,-0.11554021432580142,0.005740850707949997,-0.17439865783413672,-0.2725210943969297,-0.018289543664597476,-0.10331262646393503,-0.13479970430528349,-0.016387499586642394,-0.08382837429387842,-0.1671330331938866,-0.03934790891322628,-0.25053049702674113,-0.17758531942573244,-0.12756080906606035,-0.25121533532031887,-0.046242568471977316,-0.10321280340867273,-0.04863952679178283,-0.21272011139333635,-0.07767322506321475,0.1494707064390212,-0.05288131893091053,0.020507116162060936,-0.038752423626529094,-0.06891776173510418,-0.12782837551805898,-0.07253022491240739,-0.12541575843020422,-0.25965323730400924,0.07771775258009093,-0.12641650622709777,-0.06018001490210036,-0.12033402539262444,-0.08381562429313272,0.06401357646635107,0.009784046177435292,-0.09547144378202024,-0.05971027437137256,-0.30509129116876804,-0.05853539515464237,0.12071020931442657,-0.00495010385212086,-0.1573749060854183,-0.17388006844947676,-0.1261255155628763,0.12105980693376106,-0.16433956978248268,0.005349662061216371,0.06826800144880096,-0.0455212066799413,-0.05336929617542744,-0.08899114579712292,0.09697496707107821,0.051270242005453374,0.016776214399305878,-0.24264193336044393,-0.14420274742563804,0.0012253406605147287,0.03423320689675976,0.03814431948314828,-0.16310556098582288
1.6224451937925537,4.504185405216554,-0.2973738402533281,1.0665798112029445,0.6074980450973058,-0.10910902462271922,-0.09774628500617992,-1.0276813660787005,-0.353223476653597,4.276100485355573,-1.1942538524108903,0.5145739821309306,-0.30481835542792685,-0.005365952281473323,-0.024825657926739172,-0.017753570593581756,-0.013741176783946847,0.04873054599312602,-0.4255889184151556,-0.12029688909912396,-0.1448908231331083,0.03409322854015391,-0.12370681628240965,0.006043771703701604,0.22659574558311907,1.090085295529164,0.03563567400792624,1.2367164556666674,0.04199017155488304,0.015247579314367292,0.0762813399068089,-0.0880253955060522,0.11287506405853419,-0.1871763234217853,2.2117543775638158,-0.057726897352017345,0.3475744931046433,-0.036221113788745964,0.07589823099728692,-0.47326152818270395,0.04899936022056803,0.039856055156504366,-0.053277494530509874,0.13963353647207005,-1.296782765849075,0.07317079849091739,-1.2586577145333988,-2.3626067978330867,-2.6621263643279813,-0.05858743879277999,-0.043237598194414945,-0.1952868170641124,-0.7648112104091924,0.9530905563538523,-1.224656784513898,-0.9420678376976188,-0.10582269587652388,0.9081374755679457,0.5288250341062949,1.8620368483429446,-0.02102340473160003,-0.0919963824698252,-0.12020027160406563,0.0791446539058146,0.12224013658871755,0.13317618159471162,-0.1241466146268497,0.11508432549724391,0.1151406358011593,0.024606175894462463,0.00019792596276450622,-2.4828427923746683,-2.4480205761871443,-0.07247880572904704,-0.2680407337465219,-0.041053990451499614,-0.04654567115697458,-1.371721139816358,-1.5393155199634958,-0.5627117560164722,-0.3220174502075854,-0.22596886017532283,-0.10577184880670557,-0.3089363256461282,-0.036972432009984485,-0.014219979842563743,0.13691305772867574,0.1181753424745316,0.029252076369658826,0.03329416363426479,0.03722004172070884,0.1390478164753887,-0.1456321987528975,0.0198800460934735,0.1976273632706211,0.11622924298305923,-0.03252077051264618,0.06160736580568,0.10968044221745446,-0.12333579425643051,-0.09802124108807882,0.17085753789605637,0.14142310392599422,0.09272888436865642,-0.07593725125200326,0.08413654858725915,0.10007737945536371,0.0514212960878764,0.03250111082087813,0.08549351107253479,0.13035170222435644,-0.0043354406032342285,0.1198237796604131,-0.025445002800953978,0.10443505472550282,0.08852352547353383,0.22409908450075514,-0.003585594625453134,0.028401194092155236,-0.02625098812567709,0.010574712407271262,0.08900340658317725,0.06413088857062403,-0.01295432503365263,0.11711834677239188,-0.07589835360080674,0.024865012358232446,-0.006392451989755201,0.052015213998364576,0.19711231644400773,-0.050321222975291555,0.12443318233287799,0.1270613057674058,0.1885098019812895,0.12002432263140152,0.019694420054476577,-0.05362609020072023,0.11629671170595887,-0.06555461730230645,-0.05182587228532901,0.03623992999785879,-0.04445078743798501,0.020476913792831015,0.04487963272997601,0.0707727255687876,0.11822377597357613,-0.05887867469345184,-0.14149468641269136,0.12086127356407675,0.02111508525082951,-0.09766734582431275,-0.029928977332221756,-0.021128626640877196,-0.042288996736590395,-0.07784124514661837,-0.03288025563978604,0.04846979435420086,0.01417264894119911,-0.008444935869393922,0.1256407377786793,-0.060557929290653525
1.0563082063033027,0.8186513984791264,0.8034757201611115,0.8530557574345036,1.6917405338971616,-0.4804158380812314,-0.13444875150541746,-1.50920672452702,0.9320266841654347,0.41056442064821047,0.008976458678602403,0.56153760464963,-0.7309895082648639,0.6239924495770127,0.28378242177782936,-0.08316456643070369,2.324681683324483,-0.0717838603280392,-0.12362792453344564,0.06866854027131658,0.38472737055155193,-0.029644333970293677,-0.07212685958651735,0.07623487153043364,0.08856527157669371,-0.05468048128723186,1.3638156984235998,-1.84383926633178,-1.0969225099138187,-0.5657328458973266,0.7690801338213893,-1.0524129013289973,-1.675450845685217,-0.05125205402711773,-0.9108909060215465,0.6800910466488774,0.1893549140871949,1.263590981733762,0.8849286632626218,-0.22583169031437947,-0.2798788852565338,0.35731234404267354,-0.37081231644946344,-0.5188533539924095,0.06648114785935996,-0.4030979728944707,0.5172753762766314,0.6583189439830865,0.7153032907096484,-0.07430587413024362,-0.14318943585441019,1.3886743441826348,-0.2930907140324091,-0.30345444666110083,-1.4474679002117288,-0.1899615773184261,-0.006071434766092765,0.01194311216270907,-0.06328092029403701,0.0424233898237543,3.1217220367914638,0.5208478532517264,3.024202613259464,0.4654852326786158,0.5844460589720916,-0.5060577097393552,0.3234839592308893,-0.04617482136580219,-0.1045158860550209,-0.20246623999565425,-0.12712620851558934,-0.010606902410897274,-0.2377378972315993,-0.10018005987796179,0.23716199637619698,-0.09666961255046112,0.13530524217642925,-0.15941923906445918,-0.0046839456858476,-0.042812906889518866,-0.23681511415680281,-0.06486633933249895,-0.07518743234296234,0.08061809825262073,0.21315310180580113,-0.008836111716485292,0.0929583968111522,-0.02717295788620369,-0.09602454921555931,-0.09361708385037448,0.0006940522915620669,-0.04623905155984635,-0.04169740172709151,0.09480391545060998,-1.5749731075757896,-0.14558254381316862,-0.12479211024466422,-0.19357827833344382,-0.2302363113482946,-0.012879167441542513,-0.24211558355606352,-0.010608049350758852,-0.1668593820465248,-0.21048716853708846,-0.025097935892893893,0.10636162952048757,-0.12849639282826789,-0.09491166717223001,-0.12311796705025718,0.09431526086044896,-0.05244236650688375,-0.008172469706798715,-0.04178954359790927,-0.08726024086601271,-0.056252570018145376,-0.13145679772382202,-0.039377539172603934,0.005937049603830031,-0.05188500817371057,0.0028036544566526996,0.014601925439910117,0.13416010230944536,-0.1763357702754455,0.21415524152599452,-0.12316916490408472,-0.12047503127106969,-0.08212481042986595,-0.04812288798259781,-0.08965036512250216,-0.14850752188656252,0.1525562858467499,0.13367654706067458,0.12490374184597607,-0.1815620178687395,-0.04499999607221045,-0.05475603408397921,-0.16110285199303043,-0.0089812267050167,0.023299380873464826,0.13456191263743603,-0.1035002968574141,-0.07167394106109501,0.00563847044918522,-0.12583847845004784,-0.1420702691219154,-0.033912772752016915,-0.11059535670972674,0.0022308589594954697,-0.18480758930761434,0.008203532056459146,0.009411594403836177,-0.2663822249244163,-0.041539173233133164,0.07369698181222287,-0.11713135327257927,0.058895136776297145,-0.11082306169613002,0.06256830976703204,0.07197432342867535,0.10185877663459753,0.0985157796462609
-0.15008883853339697,-0.03917886798863392,-0.10011294685312028,-1.0611180025234321,-0.12323599067777888,-0.2473475354258278,0.04679033737284154,0.8163384070396177,0.03089856642502431,0.14446613885307671,-0.09448736068014063,-1.0144056096442253,0.5610735403203903,-0.15996843065148894,0.45743368461106937,0.5673202129789411,-2.119887975340006,-0.2533774552746804,2.5828903005176884,0.7821884015502232,0.40813902926241064,-2.002886513725933,0.0024497406354858837,0.8312452529299887,-0.1790995616127089,-0.07560803925607117,-0.7571140131815791,2.1777284682043048,-0.4312130184193078,-0.528499291783161,-0.3163064696348219,0.7820919026710094,1.8650494257955248,-0.09640763977114321,1.6043066288855814,1.7860210399465195,1.5450213785475864,-1.158168045715975,-0.5118090094228013,0.7452995230944394,1.1226794352446272,0.34830194873789233,0.7868329739184174,0.029744870046865084,0.2019084067332439,-0.4662063957061408,-0.4346277427719839,-0.2465146407843336,0.691352838952662,-0.26751342601414235,-0.150948105169256,-0.13229046417854065,-0.04806475297945465,-0.09584150880811107,1.3333038244365467,-0.00249270761371283,-0.15923817683506256,-0.20529119309284677,-0.1287030633393079,0.06659749657561721,-0.28600701578467985,-0.27771087599865674,-0.3597467124921144,-0.13649431198619252,0.0389759188330499,0.1483429921002133,0.5008051668498077,0.05907359911424156,-0.13521879575285195,0.05304534191755232,-0.09922540948703529,-0.10446516430344148,-0.24180899156922586,0.02197148589746079,0.015301196639553717,0.040748540410339706,-0.03175297511540446,-0.2454730272435201,-0.13017393198819902,-0.061356395137655326,-0.028933943384408536,-0.25738964985082874,0.01159174593259586,0.0030038495322973766,-0.14361719470424159,-0.12448293489185391,-0.10791576928078658,-0.04697921235665444,0.10663040244396048,0.04484931808109565,0.16883000393000736,-0.0786608201624798,0.0063330873345741456,-0.10056716081285864,1.3661839216502025,-0.15658639363978208,-0.18781505201774729,0.05103150856724998,-0.1375751620231169,-0.021154799277095224,-0.02526510694181291,-0.024774442303131115,0.1932797107862826,0.03949287965837298,-0.11436075787163617,-0.059614681154828264,0.01704596955340826,-0.030185543068222,-0.20699054577624176,0.054450715605777085,-0.07151536514014546,0.07951725629700236,-0.19849604523082715,0.12343657468904373,-0.12069592309681658,-0.04564414108925445,-0.12848913733642806,0.01536338358217471,-0.1053986313822382,-0.15879906295805837,-0.07169322957797129,0.01952606484569122,-0.04414048314510807,0.0871554639397862,-0.05846972426859147,0.17110536557949627,-0.008303638492145946,0.12805995629642586,-0.08212800157494786,0.12138009202558797,-0.10554984401204551,-0.13901458687970433,0.0016497571820192512,-0.10224566881520866,-0.08815616286055897,0.04907772300276877,-0.05793511158770186,0.12637301380266186,0.012103717975891375,-0.12152625606491906,0.13110241606521464,-0.0010149587973257203,-0.09637243304456462,0.005055057096166077,0.008423362132366004,0.004995217176072299,-0.12330064880674567,0.03864800791919318,0.04256627272052286,0.13094654640547393,0.01703686675737452,-0.08285367201853815,0.06616662877431227,0.07038193938894206,-0.007868942922722773,-0.1288524380361683,-0.19206559826724232,-0.025501322386842065,-0.05887339398181557,-0.1242565782133258,0.12759898660277869
-0.08027338022087126,0.07620116142977378,1.4251643441508077,0.8591920373461238,0.011538271439320165,-0.5947590879327732,0.05468767993946863,0.01216664430182041,-0.09239170046717096,0.07824120468422435,1.270069540180811,1.3131612915617124,1.4947390652715373,-0.8459386658564102,0.42092222830044657,-0.26428395834650403,-0.722038400714448,0.1125791225740443,-1.1453713014656246,0.5374597197146251,-0.40275754538933156,-0.18774966803904622,0.1529800568029888,-0.13219904142634856,-0.17647838486586287,-0.013279197255885887,1.0349668526149183,1.1118075341271973,-0.07823287757177465,-0.17527905520635215,0.9677379372812461,1.5251187941785445,0.80663745040555,0.08680028390715426,0.9315063676668809,0.2757965570117257,0.8638526956332275,-0.028225768920965483,-0.09148440099856671,-0.4619071664756428,0.5234463594445298,0.8988355441798924,0.3152642758443882,0.8288024990698623,0.834746740848142,1.0193444880438092,-0.7575864225592136,0.6050815930372645,-0.22576007931445935,1.127107812890547,0.8898014005779484,-0.005519552376883627,0.13314157273474495,0.06973388359101676,1.4412028805938417,0.15619771925523204,0.07751677220326382,0.022274319022681434,0.06756219446607648,-0.034863969525179464,1.4114789382782342,-0.7556306351123849,1.3498291663514943,-0.6351753720270497,-0.4971682320197465,-0.8138290826438856,-0.024915498259172473,1.099230804700105,-0.4149123088407488,0.05013744245814534,0.33811434156954817,-0.08483335835957727,0.03482471314190338,-0.16507822092819074,-0.06094009271548671,0.04117100527211588,0.07307759444812109,-0.0009867588005201366,-0.012487293751288209,0.0520755639022402,0.06361232826113555,-0.0893275587138668,0.19118974017730733,0.18475443663878457,-0.03419595957550081,-0.09212925113019646,-0.11626775747206335,0.013605081931170592,-0.02400962208860767,0.016013382049780114,-0.06502220137851376,-0.10332303728411353,-0.09085191462879091,0.0685323206441659,-0.1325404676472915,0.011551998950991366,0.07839691410442358,0.1424079508285588,-0.03614760913903369,-0.05451431610018279,0.15815506427395376,0.09965685377869939,-0.3459848418174096,-0.13405576754668155,-0.02014272872067341,-0.15837738397855172,-0.3741830784560593,-0.041935111861089856,-0.04393110971493277,-0.08716898184039011,-0.2614368211227082,-0.18665754541923796,-0.36782126910996515,-0.018563431271774736,-0.08158194430236518,-0.017819279090057788,0.13345392492621727,-0.06954939061416515,-0.1464696600229934,0.147233640858516,0.06074699544252932,0.10301870519222546,-0.09754663464447653,-0.03102783660615335,-0.0195137626547147,0.08239594793284483,0.1810364060800788,-0.033074409145201177,-0.024303685423912834,0.18379955886743812,-0.03768050119692702,0.06716689828483222,-0.14821035651277623,0.1258394857957276,0.10212270967740195,-0.09543122702711236,-0.02459445422430819,0.09043099055392421,-0.052026317057649325,0.05812785278619658,-0.09021997047623316,-0.06513300101470895,0.053816849617578016,0.10192494929885976,-0.17153514510236104,0.06074891387571426,-0.20957998805223554,0.08067196156179861,0.005570605323337783,-0.04474679934611154,0.09468085291658308,0.12963173373145018,0.09137539843682217,-0.05886794476193623,-0.04312906923010867,0.1373093370301546,0.00829684979144728,-0.14651163639639636,0.26106658418612894,-0.05426120391068364,-0.057059435942677206
-0.7873287043667145,-0.22701371432741355,0.018041791244734408,-1.6251937918554358,-0.7535946944281832,2.145874470481621,-1.504386175453824,0.6680029822919189,0.4919168435058552,-1.104250645752923,-0.3600097350645574,-0.9653698983820945,-0.7756381285149831,-0.27391289591785084,-0.7911072301798339,-0.5945873568744621,-0.30520013725220274,-0.04395557179110111,-1.007089085483205,-0.6709949929445841,-0.7599788634394741,-0.6689710671408163,-0.040204863607721436,-0.06152255066277726,-0.1788627960149418,0.017740939003031947,-1.3408951224925958,-0.9978892496451398,0.413611736666726,0.19772860239854667,-0.375682532851701,0.5015111320123489,0.41534837329646257,-0.07490791740580176,-0.06380634989301015,-1.0141291299840265,-0.3360832254220004,0.6084991393321295,1.2702212010096228,1.729775290923874,1.3709820487886697,1.182681158866511,0.9841159594591349,0.738705050313233,-1.7518872150817186,1.3194550561092748,1.5423014180352506,1.832913964640348,-0.5442643046132193,-0.1744443488796184,3.5671652105632785,-0.7859788464930935,-0.40562407604332945,-0.34850563456486383,0.270572329386222,-0.3404535685075107,0.8229772632563357,-0.2665520807122984,-0.692063421652434,-0.7410199588497768,-0.6061831007734483,-0.38847077926996765,-0.5394004866912262,-0.37392778265644666,-0.115690328814046,-0.19218365674269003,0.15306717620120858,-0.9203523115389333,1.3325998707002904,-0.3891277961435553,-0.7136249499239093,-0.14438233231872633,-0.2997901975269034,-0.323995428158219,-0.2984636098143228,-1.0319943333365778,-0.9638488487422922,-0.3133588677316724,-0.396037682554713,-0.30739764536467407,-0.046062407077555004,-0.18439980513420032,-0.1848248807201136,-0.24735757183128845,0.0015862348740754474,-0.06646691827844972,0.0292176639768899,0.017574739695143976,0.02662424243269747,0.13361485776460796,0.01049886668772717,-0.0629340085041632,-0.08683610790803653,0.05658816290543571,-0.24437791014362592,-0.1777793708920815,-0.1506778365797701,-0.2342689460666203,-0.019512982926125112,-0.019237472083547827,-0.12596805368445357,-0.05128745742638841,-0.39895152791914745,-0.30939863721964384,-0.26369919831436545,-0.2528464499724773,-0.2857211489023966,-0.18852395937714328,-0.3517770375978179,-0.03357372371876239,-0.060740973106388645,-0.1460317126379365,0.06170812749139659,0.005250701526822336,-0.009547515235835132,-0.15441360378999702,-0.2920471726940792,-0.3440938713818248,-0.1288644569603681,-0.20540836783198993,0.1181848038336362,0.19940035147472593,0.015675437162707223,-0.14077986436247328,-0.07321240954561943,-0.07930671394278713,-0.09445734220323239,-0.38936089831289644,-0.21325128019740058,-0.07299181244555827,-0.01735014724611778,-0.010932658561899412,-0.19548634342046933,-0.04725517060286066,-0.09330227385220967,-0.06389643795519767,-0.1863967636554085,-0.13136327498978398,-0.23674645640293648,-0.2942018552279762,-0.006394376229611906,-0.10441698462542581,-0.045324711475456095,-0.027849382502619827,-0.1371768257846425,0.04688571640623864,0.0718856669412088,-0.11322878215483041,0.12525564017745697,-0.03171337925742612,-0.09495056788582174,0.021100175638376448,-0.0406682299780396,-0.20591328990108335,0.09655170585808974,0.07241610518955831,0.1445970039299125,-0.03739864469954369,0.04041870501926202,-0.09900071726517172,0.024420657446514792
1.024396496129756,-0.2981810627359373,-0.23928906893651608,0.07134667695040303,-1.037805720151935,0.17107936850000158,3.1026589121559436,0.1536183723099802,0.15713789894982214,-0.019047625868391895,-0.3312223788019906,-0.3463482771550184,-0.7108684116694441,-0.1472910206652237,-0.19946047142696288,-0.27538418264379794,-0.3101874170885119,0.11332072280875555,-0.8820711208494739,-0.18389407445066264,-0.16227560538068644,-0.1315687834874112,-0.10523947594758014,0.0014823014963138796,0.22263357665792619,-0.4044646130041002,-0.134710476837328,-0.30514465671475394,-0.44059009635986,-0.518469891398655,0.005152663832157525,-0.2845732274630884,0.6255453309027962,-0.38527407141720327,-1.3199345883944589,-0.037288684032651856,-0.16841255514222098,1.4287804840750198,0.5459526675058292,0.13421278658660074,-1.2271325563770399,-1.3148485554911118,1.191367145004263,1.9649689536777732,1.6297584748483396,0.40737480388268427,1.2413408341627472,0.18518085697873113,1.7499293015249477,3.0178085796024186,-1.7985691629703282,-0.5499249675397179,1.2243413592796828,-0.45896270010050105,-1.702211841600526,-1.0457439501525179,0.6530723982632768,-0.9772985542574176,0.7606537287966434,0.764861923685394,-0.26949690646187147,0.042930768490641195,-0.29892468344181444,-0.3665263144797923,-0.04134626799490166,-0.20562585285212326,-0.0029976369594426748,-0.1758824719075631,-0.08072181384988208,-1.4398012799987507,-1.3055716086326292,-0.7908171989563592,0.2293677060943455,-1.0887684775915276,0.16265608379781354,1.7078058247485834,1.6195342614421693,0.5375546799339586,0.5236078256365759,-0.3071827686835977,-0.4448829765402987,-0.46197596907361876,-0.07795245671441274,-0.08402709759879202,-0.3099677084114908,-0.0060095492405865,-0.058190079301733096,-0.15034521767234546,-0.109604784750161,0.12792373920622943,0.0739857538432734,-0.09675058868203243,0.05774438379719129,-0.11201391569895897,-0.31472090849738704,-0.18964787105247757,-0.14196285742126022,-0.05190943117348257,-0.03468385209591504,-0.17067192329980163,-0.2429577717356945,-0.3584042474777967,-0.036586913192580395,-0.20692253344882772,-0.16355922772933848,-0.40775211545589696,-0.3232112180140512,-0.12072540642196024,-0.27980186717042843,-0.0735191078134764,-0.06123038592948123,-0.18093872060442714,-0.04724756893771232,0.04130452779607194,0.17172072581751308,-0.25621022309359537,-1.7698074151108787,-1.6596849593465512,-0.8327845934580003,-0.6686634020083728,-0.3096951027257372,0.09936721215880655,-0.07426259957860828,-0.0222397789020183,-0.013938173987997333,-0.10760381915402484,-0.189378348181589,-0.19625917650172964,-0.2542093995064762,0.05895730911416672,0.03211297784000502,-0.07342202203978726,0.03899110396211982,-0.13779082528167727,-0.09282746144426086,0.10578992608878852,-0.1300605822207261,-0.09054029923211794,-0.12128237999512861,-0.07962917901177957,0.0860533386588993,-0.12124625441600231,0.08294883769129009,-0.09209116425792246,-0.09833321357554632,-0.042637832251944084,-0.04140933447223479,0.013890105031886155,-0.008884270880601368,0.042093175572718314,-0.057789952947754804,-0.03383703563817198,-0.08943845220388358,-0.1344085386026377,-0.08374404592709712,-0.036143525958333,-0.004222292911290083,0.03357676800991298,-0.04277225011609088,0.05086685024320154,-0.13623831483126306
0.5020410085828023,-0.06358643406951185,-0.6191922386347308,0.256658302162489,1.4503485541898513,1.4080524580766294,1.9263322519492465,-6.5192462305711745,-1.5849234035610342,0.8263605436785169,-1.2567245500643882,0.025217388344140414,0.19315888515969434,0.21301069123497304,0.22508064924101445,0.17852214961234847,0.24196563869753085,-0.028154260702281803,0.1852835889319148,0.1540579580216167,0.02943608801808749,-0.11085256875240704,0.00587852618176812,0.22512318262529107,-0.39804519144760486,0.9299630142617022,0.16117206682199475,-0.09354036253728797,0.04986941814595725,0.04855877555607548,0.07873090782909592,0.15385641114768922,0.17366607063075276,-0.09719948530863874,0.528527372405149,0.010599421564461593,0.03942334939314508,0.046883013623603524,0.09470263807020053,1.9355807860350787,0.16426396747942962,-0.21581824562586768,-3.6922258908401053,0.12352035143837967,1.5443717133532968,0.17888427525955286,0.8875125214786329,0.2201682287591921,-5.367660790724432,-0.5753453849836324,0.975408565406814,0.13681870713911115,0.860579265618299,1.6464266166165538,0.24381118619770117,1.1757603639957013,2.8049426537879705,-0.4572185145945149,2.7750888194480594,3.2014282156530562,0.040413139868734876,0.08244304937742586,0.2525321173875646,0.07588010553354468,0.0531866082670288,0.19457791007871095,-0.02510561887978007,0.1556097765230709,0.03987019190403387,0.22358375242223316,-0.090985528324777,3.8373068755841206,-0.40874921180116713,0.9274520752381635,-0.4970422750758766,0.08726027121474972,-0.1575685998840611,0.36601224353361933,3.421022103039955,-0.4838274401004366,-0.6258988412819553,-0.06729540867596775,-0.11985074766154491,0.04106270075168618,-0.0036568234922722707,-0.10884768747386747,-0.028378082316926373,0.029089250778610087,-0.025456264849258517,0.08122771797746375,0.1283175449321125,-0.019130534842957167,0.012294291235286494,0.12836498766876075,0.13385630882136607,0.1387388294933223,0.12797613396308474,-0.0672248034039193,-0.09757770765074275,0.12224710860089837,0.05017370847189972,0.2322331737763835,0.2290364475589146,0.08556338935935444,0.10302699923882981,0.2087069634589283,0.18141978427878078,0.17861525180528434,-0.017894344617459368,0.1709706191677252,0.06571977085725085,0.027928932481674988,0.15839585895045305,0.17017695652808945,-0.08293146413575496,0.16062818670906748,0.05471337106236303,-0.02353857157740232,-0.04481683971436729,0.06431293125730721,0.08630144283660802,-0.011134628203043648,-0.06104578396970735,-0.007614015411242271,0.09280669762588656,-0.021966766233543156,0.008944839091430111,0.02331993934025749,0.04950363257008834,0.17240795239646645,0.0596364494301729,0.09944882238746093,0.11960818468999347,-0.0612635932549823,0.1928077296249671,0.06847024520599697,0.14771002237007586,0.029286810261072105,0.32674153038387604,0.24834489663001746,0.07399805688485185,0.0533073309812351,-0.08424405306647784,0.11188611025371573,0.18291292196475617,0.019678666418344887,0.05418477404621429,-0.018972387983538327,0.11656992481658533,-0.16038999521358338,-0.03743981691791641,-0.05664164413889341,0.001415134828452893,0.1425760149843098,0.17001190633139093,0.054172315545884975,0.027498119242650255,-0.050674151181797966,-0.015926637187686773,-0.03739845252098211,-0.16066952249915456
-0.4925935566761281,0.21879820251238197,0.15537559684651248,-0.42188258194889494,0.3326028702901443,-1.934763402586502,-0.7976851113612796,3.437361174895137,1.164483418038386,-0.16943597385315382,0.6449916369300083,-0.5017034510328782,0.19970276204770238,-0.1217626206674935,-0.08163028463768979,-0.17280220966784438,0.0576651650901253,0.04942057100687732,-0.0585326481147737,-0.043655371787651207,-0.017278802868414236,0.15908965517867293,-0.0772511095073954,0.08847126505586946,0.5080709542398409,-0.03970956030811654,1.3119536275793262,-0.34938977945043387,0.005935176206839887,-0.08541202808660779,-0.1631314064952716,-0.2681634701691139,0.08457224620068043,-0.22374344673347327,0.11387798588869846,0.05922766893781573,-0.028357656657572988,-0.15438779982676817,-0.18218901832481163,-0.41877847834412546,0.01433255512898008,0.04253033792517974,-0.5817061933649994,-0.02023255957399713,-1.4407923087159586,0.1827174547324373,1.7987392631347878,1.9132797776769397,4.4768007100551985,-1.332556360509026,-1.0762853617919101,-0.4523888389577266,-3.0693922759572794,1.3870342865705865,-0.12762294642487282,0.13966067303440743,-1.3946637830298396,1.0482679660037404,0.6711352376922917,-0.39293195993603847,-0.020636095958770664,-0.05039343534605459,-0.082809294920738,0.04449433547247912,-0.01201034861507399,0.01737616028301444,-0.03220351082668362,0.06480050458719445,-0.013294794696933605,-0.13202291430989507,-0.153563949152464,0.5961930275845584,1.6156276284492461,-1.040580240732701,-1.313449947958316,-0.5478829664889214,-0.5760698008388095,2.822489286982582,0.16460911591598848,-0.6036305022595359,-0.0204810205874321,-0.41420075581754484,-0.7772224898033064,-0.21325034569940451,-0.20712519463841322,-0.06709610760401455,0.0068605452392708115,-0.03662795796941971,-0.020884030740836862,-0.027870022102218707,0.016979969981542192,-0.10449226870157412,-0.06702357997591697,0.1331429033611631,-0.07569220069006256,0.03053396630141859,-0.24892082827343376,0.2109086850127839,0.1659479413758595,0.17103968921060766,-0.054872100090662845,-0.13939507033217646,0.04416410762783403,-0.02177332202558665,-0.04654002832569674,-0.005257762652879861,-0.16356517612506016,-0.08092281049335685,0.12129758176708681,0.07299306570621207,-0.05635633003677132,-0.07002944890838415,0.05379633036395939,-0.09761285388637761,-0.04662239607888049,-0.09218675596347566,-0.7899022540698847,-0.9533480358290036,-0.02573540370863951,-0.22226584979191852,0.09069860836351322,-0.07257634128048686,-0.11050162226129569,-0.06245046254245544,-0.010259835236932788,-0.09330719218228925,-0.07688026939609591,0.018737297097028625,-0.1316504236403583,-0.11365512057514297,0.02480647046862147,-0.14323225639355222,-0.021445086681899424,-0.11133934368620718,0.11719096668956941,0.12170233296973003,0.18662948007963517,-0.007235312605859803,-0.18547675558106924,0.0071036203472978265,-0.0512709992931424,0.09918816879792482,0.09357501211591489,-0.01835824841262813,-0.09973072312155512,0.005538074063458329,-0.04017010921743191,0.07985930401188895,0.07163965307709304,0.07488469092656536,-0.055146317824606925,-0.004444591058356684,0.09140897051700919,-0.1228498748155009,0.0958985876702178,-0.11444180719518315,0.01454136949383611,0.03226851471665511,0.12787367742297268,-0.07891853486756792,-0.033512873175152606
-0.8736882021057347,-0.40852005644934397,-0.24864035748551458,-0.2196925352890601,-0.7463852626209302,-0.2257721977709269,-0.20471074597671104,1.970730275083389,-0.8844026267749093,-0.4952613521615089,-0.21299141739783575,-0.2788759751496863,-0.2988499390460555,-0.24365986024671374,-0.2746316560371188,-0.24198564330013086,0.05596707897982304,-0.023336503100760648,-0.3901473481612864,-0.02753291443847484,-0.19239440933952281,-0.17261120982364953,0.14464314820875682,-0.1958399336014943,-0.13754983228468526,-0.11219541898903246,-0.2303850516350297,0.7446505614071157,-0.15214209623343583,-0.118381358527442,0.025921022656160687,-0.025018192331291177,-0.15924895786565468,-0.4838983784646775,-1.246421455326035,-0.057962725121385866,-0.18475615343646787,0.11933927222631635,-0.14166477931947677,1.18608042139194,-0.05206166508699268,-0.07323699294070513,-0.21400624881036143,-0.17143147347004264,-0.31113837351342194,-0.22958878860287066,-0.6497606940256723,-0.19165912410491523,0.6950797295596045,-0.4332221677752022,-0.33171468489812433,-0.8602141092472021,3.6026994309260076,-0.4153653523329797,0.16683141184485345,1.395808041490904,-0.013423282108860327,-0.6981209468861226,-0.010218621547669867,0.265426307116548,-0.003279759356855758,-0.3148726668959335,-0.12576456691221494,-0.023945234627213426,-0.2166664433666481,-0.058709483365758645,0.0024336501239389853,-0.007529131528249131,-0.21210522541910307,-0.2500374011860872,-0.10012930049630929,-1.4804930522779862,1.2756449960958494,-0.5697802769233319,-0.5211647125047416,-0.1839734295393976,0.02160454914195406,-1.0257414934188656,-0.5123003994843742,0.7459698004545661,-0.14731895831657008,-0.6052323868931273,1.1963064913538324,0.7490974942529065,0.8158525640907729,0.11848303626336978,0.20013436110692662,0.2823969960383149,0.37315671676133244,0.21404846969955615,0.037926304319104376,0.8562085082329498,0.062227211802854704,0.0711999559449052,-0.08175985447079007,-0.1758822044000444,-0.05030509395314575,-0.09042586226657023,0.03842032289406436,-0.1409401793531615,-0.18009245437137172,-0.12964360083676021,-0.2217269980573467,-0.04141344777754745,-0.08628676602170046,-0.10527024812895536,-0.11298835187909524,-0.09769716701125777,-0.15646579891978613,-0.04199597031507367,-0.1456043917061521,-0.06703173243967536,-0.19959578611918471,0.2662678673786829,0.2531782309112849,-0.05800915934053697,-0.20322515506632846,-0.19042167399832097,0.08758321457761174,-0.04714350545673569,-0.32985498483995584,-0.051843364755635654,0.19063757617346652,0.49517411411202955,-0.0006302899321896932,-0.1323534529528831,-0.07532573206336535,-0.0030968209107304807,-0.09437999637242661,-0.17319566001639752,-0.13405264023114055,-0.04824611662293547,0.11171163436855816,-0.07884776634852,-0.07641890432293551,-0.13172630059242393,0.012179169658209126,-0.06649971022657153,-0.06431038124637625,-0.13969557908565683,0.038431964007277095,-0.07386225131288389,0.07551985382851864,-0.0194222800954089,0.09222811236048953,-0.21057345469552163,0.01237747629006736,0.10813067058370991,0.05481686510673463,0.0344752050155908,-0.040106015658541716,-0.12412237534213208,-0.056706561297576875,0.13753933384818715,-0.06761469553143126,0.2168315252908927,-0.07665075639572783,0.0035246703313153703,-0.05312585938505824,0.2306800055937638,0.13040016346818242
-0.21058194782668976,-0.1882002151817591,0.01155511835307303,-0.1307689768932839,-0.1356727349996816,0.03740604527320662,-0.13979348667218647,-0.4423605336716549,-0.23565045480394486,-0.1222765193028299,-0.19105312927232898,-0.2431130502984819,-0.1563308289365102,-0.17045679634969377,-0.35106832208865435,-0.16562558307069697,-0.0029029361104545284,-0.08904899539963058,-0.24638875931668783,-0.30638658605622454,-0.3274676502976839,-0.38686116576139007,-0.24107403530853078,0.372850918921863,-0.11950561390712867,-0.1897668506367791,-1.0709860074914832,0.5629154111767061,-0.3318957476017913,0.04608388085830136,0.1989948279952977,0.05885042785276276,0.18566176295367134,0.5667617578472008,0.1411864227593322,1.4513434105113927,-0.5345783066371992,0.3028033325478658,0.20572975551287315,1.0512179943252868,-0.3821334174638167,-0.16920867583355684,-0.09941785968482969,0.09408983176734131,-0.06807823624779857,-0.15654376660185298,-0.17082168636737372,-0.12807311051277087,-0.35491841535815993,-0.8513766259324829,-0.5602982388426223,0.02540987971407521,-0.2472943394867946,-0.35406841050189425,-0.029920995766671607,0.04908911010425978,0.13189895523409895,-0.21577202494590655,-0.08611183747744612,-0.3525289543428863,0.5892446309251628,0.5747813893049002,0.2440334129486794,0.6012644371599506,1.2302338253043847,-0.37596918152290604,0.45246290742740286,-0.08180504675165455,0.07453660602197848,0.36149536841112273,-0.5027383290178746,-0.5012767615079498,-0.33472755172041313,-0.20529354230466626,0.040466556398520724,-0.04964212707829617,-0.015592463462010347,-0.2790315399091961,-0.1824781271663043,0.8760291146482972,1.0533156776932096,0.9410597709304548,-0.036453498001727216,-0.16847912566217868,1.3488468178250486,0.15878738561516928,-0.1221339947833444,-0.055850632072991166,-0.019982824709922915,0.09152368768217203,0.18067205100193784,-0.21350540391147135,-0.03470897285106028,0.06550655881513165,1.0675242394351623,0.9606603036028944,1.0561566613470015,0.9211052557879602,1.1364572638777513,0.2406821351070577,1.2069426467918978,0.278252680673211,-0.7258222315740411,-1.022751051365038,-0.14082271130656548,0.2469085076643718,-0.4772594859919073,0.1580374432993539,-0.10994314388143206,-0.04034679339694605,-0.010046102890396397,-0.12444150802792392,0.04215168424247998,0.046292423268576084,-0.06917392796564886,0.0476060389364447,-0.5014905147868836,-0.15618631453603077,0.15587309072962124,-0.25722564134837184,-0.09701441615372475,-0.20289499597412844,-0.09422033451860859,-0.010573824029538235,-0.1420092024749526,-0.13302700654244481,-0.9833697092375658,-0.9594618788310392,-0.7280183732690167,-0.8062755003574429,-0.3500300029762399,-0.15298264352558646,-0.355423111656664,0.05029917743880967,0.04299216702032245,-0.057571023446162425,-0.005953858115082731,-0.07365064572207264,-0.08155573565928229,-1.9189188022302515,1.0639229230417746,0.7087833805392839,0.11892429405967028,0.002361943923064283,-0.024786502043415534,0.14298309835343126,-0.2791739804069021,-0.03474384567938876,0.014612938104888932,0.0005051463398826505,-0.20027119348663863,0.051966017743682695,-0.11393296139104236,-0.17402266763099122,0.2672666488141884,0.024587206879749406,0.017118177118361364,-0.10992989793914824,0.002989315329394368,0.11861090599442072,-0.12851406300434287
-0.14000419762308805,-0.030241996050615158,0.138360681592324,-0.2938805416456867,-0.12091921555366572,-0.081220747983727,-0.16444709258164508,-0.047753612141105774,-0.1310206517102614,0.09029447128948882,-0.14752842415391706,-0.3482431031738652,-0.07053541513312596,-0.13331071717724874,-0.13679990799085845,0.06522495074073795,-0.09437753499167643,-0.03237217204392645,-0.04990695754457936,-0.1830871019802071,-0.23239966513685353,-0.1836208164140379,-0.0019398530858405903,-0.07193628663378691,-0.2170424836803228,-0.1640004362900948,0.806318634476399,-0.1680198525935169,-0.13238447738895998,-0.154500788563385,-0.03060138216071556,0.024309944363064943,-0.10198342142697125,-0.07874001074544888,1.484842349109358,-2.0550875651731375,-0.07018200669112651,0.7572454859934232,0.7396997981253849,0.03262750785582685,-1.657841800837819,-0.8848019732269046,-0.08482145408292523,-0.0461297824943849,-0.3216869981452548,-0.03122036589802779,-0.15287420366900245,-0.2606562445964192,-0.037085630801728504,-0.9107641276271966,0.6386584928883008,-0.0003701108403267096,0.13622486513470103,-0.15387933012211244,-0.19547083570051163,-0.2910197790891574,-0.2551280755197814,-0.21199042669940849,0.026407110268824526,-0.19984378811475986,-5.380117244526289,0.4517210955763651,0.959320037610215,-0.48157620521683253,0.8934610763234846,0.4345889483224832,0.05509831841730341,0.2183948692538625,0.38398134623159086,0.8373632006917335,0.5607808061103513,-1.5314702868306036,-0.1464367526129302,-0.2151919501186924,-0.04508930901364632,-0.18489939463312086,-0.17371078591885344,-1.4889047766519947,-0.13056361862747862,0.0428966231441343,-0.27891632413905826,-0.1805139611203306,-0.08642952538210676,-0.05635595998466993,0.05710899730526934,-0.0581059836314358,-0.1104738869138763,0.026411861003838962,-0.0025750651782120468,0.16459541264919358,-0.11504613875616387,-0.037309824875960844,0.08171572795284433,-0.05624282711976731,0.8470830480541217,-0.278276157788877,0.5190422284320689,-0.313488313700105,0.23447739824936,0.03143381271371755,0.3707304299294285,-0.04945156072747309,1.2547608698561978,1.66496335349447,0.7266161783917844,-0.17240675920421342,-0.11367863165021617,-0.44908153238688053,-0.12810084140896702,0.05734645619856768,0.0348464908976434,-0.12133449849530718,-0.17203646846664633,0.06104705853790725,0.048281018437513167,-0.12864509245367134,0.08726860332743287,-0.1780554479996005,-0.011794747758502956,-0.08684720866443117,-0.07930058862842242,-0.06691776422370152,-0.012906233483706932,0.0024904314914035094,-0.051443920732127925,-0.11210773349098307,-0.321388938941886,-0.21273649170272688,-0.34015555359665517,-0.5541334188857622,0.029540568258753588,-0.13726698517368655,-0.13480753660270764,-0.17712556819803266,-0.11410916807193601,-0.02130199142813558,-0.03930232033688452,-0.10294948098888383,-0.1301111330806039,1.1046594745684448,-0.06451158647587193,-0.06808286745495204,-0.012599831686424362,-0.0016047519059489439,-0.05620351795863431,0.09810397655003791,0.005026433196322751,0.00828120096394148,-0.1991396843804006,0.03811102159703355,0.13167320692017087,-0.006987828739779073,-0.08839909406881535,-0.19276683078100446,0.12362193950193734,-0.1741168604837121,0.12829896453904896,-0.0024093591241850236,-0.062175982377976266,0.05225723503867584,0.04362275314233191
-0.1326750944773517,0.05022012860058345,0.045579017140763005,-0.048632956556867724,0.1913838504692085,0.004762798050223939,0.08056019602431239,-0.11048318257025756,0.1059708152948898,0.032929399830062454,-0.037377142604017276,-0.1494162374034429,-0.2780905530258596,0.10797545625895542,-0.002575521541550399,0.2234942106905181,-0.044553495420956,0.07696601754910287,-0.03308225482637456,0.05001521091895055,0.05540602809519407,-0.010190133041299955,-0.027041796376830983,-0.18766990480066548,0.5091286878041918,-0.15588729512427366,0.6979910990341203,0.5096809345094767,-0.2202242652333165,-0.0825679728412673,0.009712030759431733,0.1932831797226331,0.44144078746204657,0.04210847223037607,-1.1293586032472551,-0.20030004850707797,-0.08268353550977194,0.5008366245124204,0.7062129474293992,0.46175116236654773,1.589631976277654,0.6258911614023847,0.37181856209315955,-0.5660834412127004,0.3813769852807746,-0.22695839214319644,-0.18783690899713687,-0.27714605323189623,0.015320267904075936,1.1292987255091484,0.9116015784594133,-0.03902699595682214,-0.1675429047976964,0.14850022941774452,1.4010140389120236,0.01601697869256804,-0.06780384727633013,-0.01987676465387887,-0.02237497983313813,-0.019148914818316206,3.8739270205756786,0.10712114586275122,-0.5953077055587265,0.5758439997726226,-0.4476597196924306,0.10282847192830373,0.2105171614214715,1.430821313502881,1.5115034035283266,-0.8874628794097064,0.8408366130086039,0.553323400315194,0.02237643438080963,-0.11587533505588171,-0.007199233286705112,-0.601638544902143,0.6954794218135616,-0.1785348318281406,-0.09360722813575735,0.11953721527964052,0.1332957841275802,0.047979258674073516,-0.19586709193836052,0.2125642420344811,-0.09225347224863874,-0.1039979795926634,-0.13037740379407017,0.00585516624421763,-0.07591460091482541,0.09100766347724498,-0.12936783540194713,0.018065888818893594,-0.1065388156610891,-0.041008887988572724,0.42047492753954274,-0.13305439136518865,-0.527457259499603,-0.12496466216450161,-0.09518148215252173,1.2304741417431566,-0.2729261143163718,1.1142425999384729,0.3040805646478653,0.476505507473767,0.16236885993708985,1.1766150361783632,0.20426038220018036,0.4966028677824094,0.45201002919231703,-0.12086929912306735,-0.011774161131739524,0.5725463759258687,0.463577222233123,0.42493809602793015,0.19815885739013403,-0.5526798011467613,-0.39176227378756945,-0.2813370612448445,-0.02442607097982029,0.004107592131938644,0.10551204142512434,-0.06644255872161035,0.06137469023687412,0.009201970835387742,-0.046294340622589046,0.052264444784277636,0.02687716201238075,-0.17149486558036486,-0.17666713558761482,0.0027675418920786827,-0.05644978844485337,-0.06795652962629774,-0.14393805136086274,-0.03299168390891785,-0.18469373608232711,-0.032661159707941444,-0.11354979413666254,-0.2054549727860315,-0.10528157772298098,0.2856582626997468,-0.2525584864682674,0.04738559368465706,-0.021682540526747267,0.13696711418814703,-0.02322939020492096,0.021183887780808233,0.09375121516105618,-0.07255054659369531,0.0021572449878557594,0.13359919727838848,0.15071865926208933,0.1793972752540666,-0.11054547888894135,0.10694485125025212,-0.03715174639306814,-0.0049414298141063915,-0.10608726416286499,-0.11292901840111966,0.07411592252233622,0.012254750394739179,-0.12441295740565321
-0.27483544784026365,-0.33568840293188884,0.7055065635306117,-0.4947835950579931,-0.17716152589743325,-0.5642572910455271,-0.0966717449005691,0.3053233132576309,-0.2729379104034887,-0.269270663983918,0.6289630529256997,-0.20211270707327614,-0.23682851770916263,-0.19734040057719313,-0.4420879133690706,-0.14982137281247038,-0.16396907089596766,-0.11836318692801158,-0.429576080576028,-0.1849537120269675,-0.11000102505517781,-0.17836502826574038,-0.04329782616995571,-0.054241665170466705,-0.7173207424585091,0.2661962033653858,0.04059121873655758,0.22259535046624562,-0.31339738977421466,-0.21071753770805546,-0.1850639967760953,-0.3035667763965203,-0.2786044243989846,-0.1340090390454029,-0.5040495552784761,-0.4162397992444781,-0.1877819841303077,-0.42637236178040977,-0.4387856657367404,0.20387255337935545,0.2718107057130651,0.44062072275102016,1.6995686188887087,0.7372614194134759,0.9086366421430916,-0.0976194965488479,-0.05503340875282099,0.3198095869521327,0.4834907873041822,-0.1598027220593439,0.1021623306106403,-0.2563178911354285,-0.4234304789203954,-0.4107824497263916,-1.1690270137344263,-0.2634050825994721,-0.6203436386690431,-0.13122345666533203,-0.4863859513988318,-0.31875594983774297,0.7498895315098787,-0.753063002118705,0.17361929183597283,-0.5774949109845433,0.5212360945386778,0.7748964790197798,0.024172154156650787,0.018397784156354666,0.6103818826734018,1.910692562747175,1.4432692442925523,0.40923069548647206,0.7874618629204446,1.2692510002671862,0.9959847096039042,0.271475019041907,0.0026160112280515513,0.7292687359548121,-0.10032088433410076,-0.003940652528991826,-0.0012366748662746194,-0.2940991253023398,0.07239915533811749,-0.15111892711631278,-0.1007003851448395,0.18842801288887956,0.855427055172601,-0.1673917345845702,-0.01454817222376639,-0.08628776229334284,0.05526376191256329,-0.012262489576001092,0.05397881511803965,-0.1306594583690785,-0.5316622159258684,-0.06464090636427997,0.7786010061614022,-0.2660624987964022,-0.10234444474215819,-0.031493592216592314,-0.12320504265061426,-0.1390845988586509,0.30146535671110153,0.3653985900885056,-0.5247614241702372,-0.8707844557239666,1.1288082744942813,0.004005584246097107,1.0010942328138979,0.24511242291806923,0.46254730966696656,-0.19596660120960727,0.002269340644610065,-0.45055377134022156,-0.011092444953878046,1.6572422192545333,0.41294917214597776,0.21036922609229264,-0.9693380240309248,-0.8053434907181654,-0.29646175142669484,-0.015027509811097047,0.02800116021508463,-0.03127518247190376,-0.1702862392379961,-0.050068211954066535,-0.3973391345547684,-0.230308026854349,-0.10105221665749371,-0.08006600691705448,-0.10995744873806589,-0.11723751822245958,-0.013361653490491222,-0.07090472028574761,-0.136768055782477,0.04604480698424839,-0.3125244809985548,-0.1479570440235116,-0.2537796413411269,-0.0854960696506807,-0.3691565847939448,-0.11612613482213377,-0.041350516572856405,-0.020555818163972357,-0.0646916359372242,-0.10006322185684088,-0.058656914705306595,0.233274112989008,-0.1775980773300034,-0.12227250143386961,-0.06936893980636606,0.08822537256611389,0.06586647709449205,-0.029070164910799563,-0.07346833678935455,0.04512598890960706,-0.017324312100843606,-0.09986191557996456,0.05439652027409583,-0.020970118178062512,-0.11580621798304716
-0.3915465911978907,-0.3072541491735897,1.473896079330645,-0.1217461034651844,-0.26082594406521376,0.10499181202178971,0.5386441017095251,0.5814228577860407,-0.42125948414601533,-0.3755047265200972,-2.26899204609263,-0.051342415473240956,-0.11510872937801474,-0.069499919084908,0.02742022420078722,-0.17450197053976713,0.033306503754836805,-0.07488778354622656,0.10784938654913466,0.15598219959969203,-0.14002224694490886,-0.15850427172153123,0.02877375865087961,0.10378357382484363,-0.010991069330382531,-0.03287180638645661,-0.1814201698070319,-0.7041506167116915,0.08896652208348449,0.07244119990409705,-0.12387706876015205,-0.09959895417679608,-0.04964235243234843,-0.6267761609457255,-1.0522512833677489,-0.07844843712388225,0.005135608941998163,-1.3161087655897301,-1.1485046040048608,-0.6134355728684387,0.028645676874762247,-0.050797202566212445,0.149320385002843,0.42575628076971506,-0.8054742891523939,0.7278246883965716,0.07117299123920853,0.5851305088883766,0.599863609912173,1.332329482629582,1.448732134675551,-0.3071976636205915,-0.4786400240255105,0.3332723688304483,0.4013590549732456,-0.013633675823474706,0.5013650995380083,-0.17062274520721807,-0.9910171788729166,-0.9617186387472401,0.24673034382654507,-0.11743460546587581,0.2035708663775517,-0.09699069664853352,-0.18805272188738995,-0.09050514966877045,-0.11211218594531826,-0.08765427738969635,-1.0425090484180641,0.8526981302478692,0.3439690088028219,1.749527319146301,1.553924773557139,0.7300921210780528,-0.5961849015479734,1.2406451260395353,2.2120435909588037,1.9975127520199836,3.104674871445286,1.2360709295398613,-0.6210195125990772,-0.8556915850573417,0.05714521607142128,-0.06797137069325138,-0.014601933634911047,-0.06414766945672014,-0.12580663961193128,0.18357755179596152,0.114673964382329,0.0917824557399693,0.07599074925331525,0.0535795037891492,-0.16141090990485255,-0.012246838931115592,0.011482202901127102,0.005582891399053279,-0.0656828273671752,-0.05737170029867712,0.001884461376937881,-0.053908804806356715,-0.020712034987688494,0.03260066702066034,-0.05003046933146311,-0.1651849132740948,-0.13301449172330074,0.42325944936684395,0.27662347879199684,0.27076344871284486,0.31969151493598713,0.09294796600917066,0.06839597739357448,1.0535069604528005,1.148236552092489,0.6549367038912022,-0.09869288786576351,-1.8572848132663131,0.9317966901499684,0.22847472073981806,-0.15352698912365023,-0.08305748749203273,-1.2146979852737334,0.03334988963990613,-0.05661293515455162,-0.2255444195067501,-0.1266231721981899,-0.0070917231974283795,-0.22459402512870866,-0.12055878470826278,-0.024009235724212204,-0.03886591861202689,-0.05353284543591792,0.11712519426224041,0.13269254627500826,-0.017965075599193164,0.021661514075860724,0.0782375432642688,-1.8457955991828259,-0.12497042185182848,0.033755367151560814,-0.20265744503726899,0.05573083504823268,-0.15917723945963683,0.0496116959527606,-0.16165938616828424,-0.1711438354507941,-0.18096190744102028,0.025125711051035025,0.12017361864148006,0.03186744092328054,0.06616750254540184,-0.19137478336194377,-0.044754029747636155,-0.014546555453738588,-0.0661253244545887,-0.07158989050627707,0.07510173633190205,-0.0869997557132807,-0.08905075584351295,-0.12774830127427783,0.09839023857855007,-0.1109110514548391
-0.5207442801909757,-0.4814428854962398,-2.4227840578916333,-0.11156848911102638,-0.2865019370487942,-0.6855851968589316,-0.4589088351122274,1.3502713741698624,-0.7390152638460261,-0.2857247865112424,1.3509947825899606,-0.04891084541206733,-0.14251103901928683,-0.18340286023707708,0.08588536454073144,-0.30334955093804106,-0.1275315953988811,-0.1324252048167629,-0.10984357107286526,-0.15574919450285002,-0.2140039505129726,-0.054398728647587304,-0.10686570586161052,-0.0667141322867143,-0.17369099470002483,-0.37213301609686233,-0.6150784969783043,-0.6693804981838472,-0.17021668243603183,-0.12057809468900568,-0.13827133652709833,0.6278007303689067,0.3749362727869171,-0.7637286215288149,-0.33968124580484127,0.034356251310093185,-0.15051722760449507,0.992911299005563,0.962396708790285,-3.6142012173048492,-0.2588597802274131,-0.2750698462368655,-0.6482276395007458,0.005066205187478015,0.5479802857484688,-0.09174556848893235,0.39733656149463376,-1.6234000442516714,0.3068114380297373,4.775356266006016,0.20084710103992728,-0.46008904611474083,2.4703736251273556,1.4010575469583526,-0.010686786579395926,-2.0794922442941757,0.1626327543649432,-1.8397799277859859,0.18519641530016054,0.5913609200921898,-0.2972919338086462,-0.25641281134368027,-0.22682432729737723,-0.23712686873599448,-0.18601262494007204,-0.18661685798129254,-0.09447330732947604,-0.28877336083998006,-0.35079388243190596,-0.055307068202369684,0.3825649903714343,-4.070612173766316,-0.4360702438762086,0.16179368645184053,1.5164991231617861,1.1104187815324698,-0.9177667650975504,2.0022073456115135,0.7169309182257572,2.0115751718339636,1.6915842502591405,0.385484135084932,-0.6252383306312033,-0.3722516129785847,-0.5574928979890145,0.01025709048555289,-0.1556037344397153,-0.11292130750107007,-0.02923763314379592,-0.07267498041777228,0.0747593473375489,-0.2282020743738027,-0.06617172057865668,-0.012538044416403786,-0.24362387669570915,-0.3029996603864659,-0.23651967702050133,0.0029004921017505717,-0.06902577586431582,-0.1663275843280585,-0.17687597626091675,-0.26322027150957594,-0.450515019476644,-0.2180985649395145,-0.34934030437199376,-0.3840690202493401,-1.3396588819277724,-0.3475228849875018,-1.5628228518241205,-0.016600612327270305,0.04554475551033055,-0.2991108233775129,-0.5794120629101248,-0.17158268416044634,-0.03393892550799352,-0.3080685188674655,1.2716700593016848,1.943508021131411,-1.2443323444932133,-0.4000095615508196,-0.5600981587876762,-0.06884501254740329,-0.2032669999356183,-0.19639870732788292,-0.1149440905217961,0.007817107136689365,-0.15878803300357092,-0.3109360154482074,-0.04459092064029517,-0.3100066808092627,-0.02922130957623753,-0.10151675564486018,0.07131764799784931,-0.11837595963568531,-0.06192571808317574,-0.028500560779980654,-0.9375404139480089,-0.29939721397459296,0.014396840393687682,-0.5352429000666898,-0.02803192819347358,-0.024308579837254114,0.12385027318010647,0.06304000490031132,0.018267189012140257,-0.1787712901825566,-0.011226009757599006,-0.17194900759080203,-0.18441995271005202,-0.067857364370253,-0.006963649067376664,0.007663835887739463,0.03050753612858052,-0.032995339200633696,0.021480880019271568,0.010667975969032163,-0.026543702544689393,0.028876886716088655,-0.02788478584781634,0.0894208567705065,-0.24225907015436923
-1.0545050262568592,-0.7294742107674276,0.046903602040835914,-0.019756719964202446,-1.0687688810060914,-0.6921760660153436,-0.0702769196430856,1.6139376969407797,-0.5287659818167407,-0.5688386541845347,-0.14879235894277934,0.032363152915896996,-0.09377476728534292,-0.0061008351043683835,-0.04243397042486471,-0.028176512748827442,-0.04896632527084127,0.0011599275895338304,0.15221233892749125,-0.008947285816900458,0.1088245153780506,0.03471335910692442,0.06893094711458334,-0.07976513225026777,-0.15575943724840166,1.0255691232212647,-0.5755576911450573,0.5186935456334719,0.09352257312958195,0.031236511958343552,0.13366741823966793,-0.688431743810159,-0.6776291699660517,0.4348274836172526,-0.7190227555339621,-0.08706645041945978,-0.02106430614941987,0.005071157611348665,0.11893626667321386,3.3404121174716646,-0.07777801966694908,0.006675847125801412,-0.3361247495231122,0.13403234371077574,-0.5010439717768026,-0.1336291952074067,-0.517718427222268,-0.4611213306502818,2.0325725437139552,-3.432193238774895,-0.4463125378487413,-0.851160765519848,-0.4649801719510809,-0.9782365630936776,0.01212271238448255,-1.0596503710444083,-0.19701565382528502,-0.8668671642432754,0.14643597049553633,0.6711988872427167,-0.029017976021246266,-0.0076468118786402585,-0.12952511725180296,-0.1436928632620909,-0.12552321763970323,-0.06821042446750301,0.05628237656603891,-0.07534957040629228,-0.06831725078358548,0.033527446707227154,-0.02001175183514957,2.5291504888020593,1.3729163893212797,0.2797161703061184,1.1146260504820982,-0.06752538840868358,-0.09359884749856522,-1.7478957390592487,2.158714980968463,0.6823109956013255,-1.0735406972327959,1.4110477698028563,-0.21053321015671633,-0.14209324250769276,-0.4899735433628271,-0.147344575824027,-0.0040199089700454875,0.10881833017777984,0.14432884139782406,0.030252755437134668,0.03614418458024982,-0.23961699376902756,-0.06229849941452724,-0.04678478570404977,0.01928489282019073,-0.08520884768816271,0.09553310670328835,0.2195235691757172,0.0510874021165228,0.10180640147031314,-0.07798940676808362,0.04548794010199168,-0.034083657495734256,-0.024722354056712036,0.1389515459415889,0.05345071546415472,-0.09523510406949046,0.13405616325882216,0.004664901114096624,0.0901073917706737,-0.10024432175624415,-0.1616861491816611,-0.05160620477507264,-0.20071590622913446,-0.07876087875343814,-0.05658840695190796,-0.15591717800726734,-0.23559185440613176,-0.00038003749106983964,0.07082785797359198,-0.1777675903720748,-0.10021444366553248,0.0035027741030985585,-0.09671451127219576,-0.11508303303687227,-0.17607952231160187,-0.09404707098172362,-0.0699307006742046,-0.03508357586850954,0.01198594005584441,0.02498549119301547,0.08045510225700166,0.019860164564977738,0.0050669581189313195,0.0863547086050319,-0.005081277859350353,-0.05172562947317603,0.0038885705924083572,-0.0724470750540427,-0.09632183195333167,0.16655602945895592,-0.02368167375306205,-0.056949830436625104,-0.0008141804646011116,-0.06429714310063346,0.016118016274830733,0.16432516048577334,-0.18752065669638399,0.09403087022047929,-0.01796796179161597,0.00909565463891087,0.061459522018289185,0.03449223086901645,0.09584424665457221,0.0074604882099370586,-0.12773044901969613,0.052443470405727416,-0.11363737163616765,-0.009409451818964592,-0.015144270673487645,-0.013279110658824663
-0.022216040055742955,-0.059858842071965956,-0.27344974933575095,-0.11599206311637884,-0.13508760595969116,-0.02298390795549216,-0.014703947779069214,-0.7639058257730559,-0.1998222425781995,-0.03448627124134355,-0.2019372488001026,-0.08316878833986224,-0.215026232022159,0.04256417531727908,-0.12639845133906255,-0.2555990829107974,-0.1511772451500542,-0.009215428186864908,-0.24921059028147902,0.11082949833007498,-0.04321181693846346,-0.07192268262986248,0.052909523735595806,0.060765092480951195,0.6217833644911358,0.3425783795548527,1.0026164634067405,0.7318966056262929,-0.17972482332523596,0.015250177922159209,-0.02463399123346849,0.07159764888635263,-0.06332672660729942,2.681920214043498,1.282829420598847,-0.0667841585864696,-0.13961927148590036,-0.16391457565137432,0.007911197255395748,1.083941908580289,-0.15865612012031313,-0.17436981530651213,-0.306726416025289,-0.09692696740557001,-0.026745043688871827,-0.07767251070114686,-0.26134911212869616,-0.15806459328516065,-0.2658995824548578,-0.3707088283018714,-0.3449160220056035,-0.14075898735482806,-1.0514870749247738,-0.4967162844106169,0.05446438648045218,-0.13123195126629014,-0.08524452364614375,-0.31445671736725045,-1.689844728871259,-2.8563775110451317,0.049797365478928594,-0.26287066239059087,-0.12084921476577808,0.0826785643199683,-0.06276067125761732,-0.09585790704086124,-0.2471748454610166,-0.13914361295453878,0.1512425378806497,-0.008879952430486868,-0.15200697800257848,2.89648814698048,-0.5522681370713782,1.1185230623366953,1.46111767954268,-0.06462873540095332,-0.08153703776780813,2.6293051563733676,-0.5283267401388335,-0.5566289011707317,2.3297724276603464,0.036477581299346556,0.19007284219120474,0.2694763612204812,-0.5290593546570554,0.11348025668063641,0.1381996393076525,-0.014975655319530844,-0.049816521037644945,-0.15226175226866442,-0.009109989188041822,0.21465199779809063,-0.02921610400364194,-0.0030875322807460306,-0.06166584956136168,-0.18520537534922846,-0.15386742095075057,-0.14960082543009728,-0.06828735201059495,-0.07819744066232474,0.009422924858894222,-0.007875515705413099,-0.11415861428311137,-0.04334431507550291,-0.04279598979474546,-0.10276520423324553,-0.10354885965131047,-0.07829695259569727,0.009089628849923247,0.30995982280296297,-0.28892677813292716,-0.1081231951342039,-0.15900527018510321,-0.14055442778573884,0.07506719798909667,-0.2547552377285649,0.0010139556835220235,-0.17219441260438523,-0.03446688849204092,-0.08561056858132209,-0.05774064599217267,0.10226859943236871,1.2514340660824543,-0.7625072179208209,-0.19689362108266958,-0.12426785459242581,0.007358983250877244,0.03318789542002342,-0.14585917646068908,-0.01471227135444279,-0.0236820910305365,-0.20519534393411895,-0.17138064502169192,0.022133847780478912,-0.037375913188578476,-0.04304977916887134,-0.09859112279847276,-0.08206393592866823,0.08152843678033511,0.0002785634333068889,-0.14202815828837623,-0.007235976651475776,0.10904888102493618,-0.03355396651090648,0.16196195720281184,-0.013550678871143508,-0.10452407746670218,-0.08874191505993483,0.04631227987984454,-0.049074686964230806,-0.025153344860396828,-0.005756946495819321,-0.11933641477568525,-0.10541674951544003,0.0262265696457285,0.12038310570169604,0.02355417032800878,0.1183886526229469,-0.049665485629462804,-0.0022033036788629556,0.031640633678456355
-0.28250135860978826,-0.13174930394675066,-0.3261517148465297,-0.4238278715902715,-0.37417375492040134,-0.2607920294612611,-0.23919612584977729,-0.7999094923592708,-0.5058463106113865,-0.3020806855249038,-0.4531018645646876,-0.3144014544869426,-0.31550264173883186,-0.39077487093052304,-0.4154576164244718,-0.4280346197067518,-0.404080169152518,-0.1796379010192572,-0.3638994731500098,-0.32939521540397587,-0.23059745103638166,-0.2694880762853569,-0.10681115182504698,-0.19729934830982013,-0.985534727921804,-0.9750167839248362,-0.06759681959974964,-0.41234788574882775,-0.24125204067407482,-0.19331076276930256,-0.23754082362685786,0.04390127088810454,-0.08329325284383593,0.29645159972974866,3.3664570026351175,-0.1512740120131099,-0.36073382494296724,-0.2764523343796169,-0.24249878118502832,-0.693744946646362,-0.14202222516747814,-0.22339620681652292,-0.44322962620893364,-0.17111416590597536,-0.3493008254316319,-0.18137650023516821,-0.33613505071483774,-0.3620742521417916,-0.7567275005015731,-0.32175837739414315,-0.5369320368549633,-0.2916726117683655,-0.6775957354932505,-0.5585719911557399,-0.008386615993068149,-0.11927703916764015,-0.29611163743295477,-0.34208823493200236,-0.48696069702791517,-0.42272956888967794,-0.19877681542680553,0.0952968315875235,-0.13141484613660617,0.1494971584321304,0.028895532427115702,0.2900181562052759,0.026297103812706304,-0.18328579718767168,-0.14914485396882315,-0.17567865382694497,-0.3009316590555819,0.4782885805035119,0.11160305951171424,-0.371870704525352,-0.4654256024751638,-0.2885414321991854,-0.1666435827637315,0.07457944673006178,0.4710848398122404,-0.2790741158390413,-0.3829268908737898,1.9111900577690422,-0.035712531437363984,-0.0832499111458837,-0.629469692803109,-0.11199172923004601,-0.02788409783525072,-0.017333804600890772,-0.13605371408420489,-0.04367116335949748,-0.0427601806087693,0.1006172604356977,-0.07162898968103942,0.030262556191086577,-0.01410534079448717,-0.14053661290779323,0.10975095390291822,-0.3129578971744121,-0.21693320237474475,-0.3817270137805216,-0.13951713846623198,-0.4636534313889645,-0.11586481096441653,0.04136778151939964,-0.2552688407940947,-0.38698576004596225,-0.18222301256264717,-0.011216692807892491,-0.4017858009893692,-0.1345732966743954,0.40126989760848525,-0.3187431415697891,-0.2832182177931418,0.030120631164947426,-0.07496720459298853,-0.33078931154494945,-0.26394453975462434,-0.2291118950410925,-0.25774228346138645,-0.3114882707792875,-0.13452205883608084,-0.03178972752640209,-1.0032971703224227,1.284679681724604,-0.13607812810862308,2.6779439768461777,-0.06658974918815123,-0.131657232627741,-0.24583542922325927,-0.2749254072776442,-0.05910628979719072,-0.24792551757958478,-0.19731187270813733,0.03884949327948034,-0.20104292262919457,-0.022638165232147952,-0.05825923283857023,-0.37945022768204983,-0.42941186729931247,0.061023560299458275,-0.0822699116786808,-0.185388510712784,-0.07821113932069775,0.10263654269622391,0.06632416362511219,0.12325412650761336,-0.052143684825123146,-0.0454369339307856,-0.05635514940311362,0.044059497416996954,-0.042893533436783586,0.04762748177256352,0.16079138300373283,-0.18350478413738638,-0.038566934757220055,-0.030377945054031644,-0.043612408989999484,-0.13684887133845863,-0.007609694654470452,-0.15129186401550007,-0.016082185028709103
-0.1510257198841732,-0.1342305014504904,-0.16244299882973748,-0.25423683984821055,-0.2793301746993495,-0.2226763112654632,0.03006410436429535,-0.3547828768783999,-0.14748877375882627,-0.25733725259326473,-0.25229068492659873,-0.35986621147559683,-0.23548364915891623,-0.267536143711388,-0.2334151391033605,-0.2951195578916779,-0.07372322450776812,-0.04390958463607707,-0.04858551960360604,-0.26241951802063934,-0.21292970764516916,-0.30157640322036583,0.011915612179667,-0.21017034418120004,-0.10304425242805923,-0.09083940324905963,-0.08826654196414745,-0.24358789952071452,-0.2152049758690906,-0.16931531736470923,-0.15182094819935624,0.2544183134925699,0.2557419226203178,-0.1410890932854669,-0.10316109650977973,-0.3080351098873719,-0.05509869672758953,0.08638974724079557,-0.23659510609239182,-1.119187968440954,-0.08555817197131535,-0.06955351731403898,-0.1826930217275758,-0.25876638776344424,-0.1572826936282696,0.00861586012177033,-0.28587231120942697,-0.2769720438806573,-0.3197693397983545,0.7130152893070125,-0.6106750373369773,0.027553224635281263,-0.15110818771790452,-0.418357726504121,-0.17352191641293355,0.012193970386056581,-0.1351450326180955,-0.2238388014974362,-0.26620783099922285,-0.20628883380011684,-0.578991953226366,-1.1704782983215563,-0.8035136523558958,-0.8916027483186594,0.31946700943961065,0.402150689125085,-0.05083187136865045,-0.04226134945527072,-0.2912265104673802,-0.37512187426400867,-0.7585779073238846,1.4119879766383987,-0.47373786335520185,-0.3445771125906172,-0.3030250674600266,-0.22154981404535204,-0.00836517631132321,0.9632078864757176,-0.18954471819780103,-0.08180035272337263,-0.24580423905951357,-0.20598084626360066,-0.1435357857992191,-0.09649281239341079,0.16029001716564056,-0.012563723942406877,0.06376493664440219,0.21695537090083658,0.004193348151292394,0.008814040410263263,-0.06828519788211708,-0.09980954108483124,-0.020718506706305522,0.11473110139608854,0.6836869569326114,-4.946785280792447,0.612433196139904,-2.237704461174252,2.981809273028625,-0.052097445301980204,0.4458931577512106,-0.45764193067057624,-0.5108259509372356,-0.7637925406577531,1.6427031958853227,-0.4653370133418344,0.053237606544736485,-0.5699697189904082,-0.7748922915901614,-0.17364119669952544,-0.012805403770158683,-0.4600158273589995,-0.499105440098223,0.033031466499935,0.05029380389806865,-0.32714517145099997,0.16080781888286516,-0.5703770235711262,-0.1693882097883594,0.015474006941820712,-0.0176032367279134,0.038693189702375765,0.027753101261986133,-0.2341972205708765,1.868671579500526,-0.8909697163777288,1.6755236945905445,-0.056694624909466314,3.624560939649068,2.644645880885249,-2.482928997562874,1.284679275780513,-1.4380474340634979,-0.33251663661715275,-0.46528109892228225,-0.1358500416672552,-0.07117111616488543,-0.24642666475263558,-0.20619466913247453,3.6910669054325647,-0.12235933489355089,-0.10066072179280897,0.008462286960317804,-0.02920621380392197,-0.19727619968084445,-0.13779620076690346,-0.13602299201933407,-0.18366063494818632,0.09711769863838891,-0.02031378187250229,0.059543485873908474,0.012259331689002164,0.11465379119678648,-0.019310006670872456,-0.09445581626364,-0.07230839640235896,0.14294228031157702,0.04540179683783035,-0.09761342334535171,0.09310584886629952,0.007435537812580047
0.14520926211632307,0.14623861958337506,-0.01307452872148402,-0.03338618408965013,-0.08437802889337277,0.09544209761780947,-0.006560281104163994,0.2094418677911674,0.1055401478406949,-0.08058794842012446,0.018005538467564367,0.13729481858882375,0.05591212716551574,-0.09087875424569414,-0.05904848464873779,0.1575702558116539,0.04641234207775006,0.11691580346356159,0.07897484353892308,0.12477839259004574,-0.04595814107462869,-0.017623135004290802,0.15491770083537612,-0.19890243319841167,0.022578740096246292,-0.03929655555730481,-0.14935677121221097,-0.22691815860618686,0.05534341324428445,-0.04994376505750295,-0.16440949381149159,-0.4817718579208662,-0.495082695408923,0.08771345652345944,0.8214497926107076,0.15464855630098026,-0.24685693466447073,-0.4579101106999768,-0.2755185832988695,0.04788933809173634,0.0429796197031043,-0.017298440006256553,-0.012391095333880074,-0.04619405009064099,-0.08447228986633427,-0.14282534052655096,0.1943228932287174,0.02850893819402874,0.1054963331118494,-0.11410095077239651,-0.031548396713953604,0.3011610639046253,0.10818472826823312,0.008616927260872289,-0.029112919100472392,0.06411443101167255,-0.15823428251341168,-0.029168088565255077,-0.11905302309649578,-0.0183395919992796,1.9120839178623599,1.5672213140975262,0.423815980201017,1.57023465754203,-1.0305892035791195,-1.0956776634199448,-0.14999771929767416,-1.074884889132664,-1.38083335736392,0.08152238266285804,-0.05978910397015992,-0.0176259834166367,0.23305749679563795,0.1331512588898292,0.13358741514447983,0.01891683183466129,-0.18408362253958577,0.2873333927213818,-0.006527403278831854,-0.1273163747323002,0.019329734459964623,0.1324295897520152,0.03353136633341348,-0.071733578062773,0.07969849725087018,-0.15631843528158057,-0.09991704112187087,-0.11761470439203006,0.07989377841256666,0.09162076192368414,-0.044905230589212496,0.052238266754232085,0.014863033714806744,-0.01886614489846622,-2.074299290178057,4.098606963738518,0.09229198213224754,1.6334608782935245,-1.1772719941604877,-2.3383049932354694,0.48143954640863323,1.6917505383456128,-0.2502410532069868,-0.568934728958876,-2.771881325934825,2.3668622233409984,1.2219142032846035,0.4217230747850438,-1.2263397964917024,-0.09949654695794964,0.04536349229786314,-0.14542868322858304,0.039247186911396406,0.11225027960319113,-0.031897288605779825,-2.2584418576126457,-1.599708938352661,-1.4829506825127574,0.0356743720941117,0.07615751020177507,0.08217139498062637,0.16606108085858434,-0.12849578630982336,0.00955376607659243,0.07383711667651999,-0.08211747283872697,0.36567146207233353,0.6936752212518011,0.8883349459235883,2.2422148709063414,-0.1020235364925193,0.3994510336410066,1.4486047049965152,0.08650502091214458,-0.41888360428363325,0.11570914026089107,-0.0436974794951286,0.16896734763452523,-0.07938174416561675,-0.6248693391028748,-0.037776977142547845,-0.027380310100258758,0.009756198286915157,0.1451714695496014,0.005287545662433974,0.15203935738646426,0.1313419708985165,0.09489725906967707,0.11242581779668297,0.1567069723896273,0.07174478446796498,0.06797758158717948,-0.13380971279451032,0.013287037131208239,-0.054545905929858,-0.14738413925468094,-0.08935491167473567,-0.003920637611678007,-0.008027519528277412,0.06704355358881157,0.13258767862646048
0.1844219786723016,0.10567192798226996,0.10618078603622752,0.07489178097746904,0.2576396805391131,-0.002006656720364916,0.1522889123357387,0.2169092377265353,0.0457527016928163,0.0980140025774891,0.2714093211649823,0.10722807002156245,0.2245190218278744,-0.05078474950596034,0.2542413463712663,0.10567206188973059,0.19407223822887976,0.0800671812166096,0.3323702605351881,0.023779283158315175,0.2404470610711778,0.03298633224747056,0.11148274146925388,0.08218444615778801,0.1496327356016724,-0.006610655369397568,0.03472706754429145,0.1389773546538104,0.10607709009507667,-0.033382495081972066,0.013007609544375983,0.20356375847713334,-0.04836816709349687,0.23428212593125572,-1.1032517150263228,-0.015284108461894328,-0.039644869131309685,0.16043857866037445,0.06581666164597108,0.19813195832932565,0.21043535377364542,0.21571769248902972,0.28815683459553865,-0.06363026533451664,-0.0019716148175856828,0.0660059512890278,0.07633382653952232,0.29012302182387417,0.07001818816951338,-0.4313985747555954,-0.12116759874805812,0.06047069601510479,0.07965565720502514,0.21014398022882355,0.034539417235016794,0.13593139472864058,0.060903194833188526,0.03641995076061567,0.05439853190760751,0.14192364174990224,0.2888715128414263,-0.05413493440329083,0.9163919415547227,-0.043820858406733075,0.0560621510839831,-0.021403463154038585,0.007262145024368895,2.742575982388683,-1.4166052543074354,-0.01074658641569387,-2.0895224981467497,0.11078375327707105,0.2689889737653728,0.023740379211863907,0.017124264370664402,0.03607281418844793,-0.08738299397634024,0.0905414695253129,0.10529459943967899,0.3572581486093734,0.20093171949416222,0.012119620835015872,0.0018712588920623417,0.0863015449545853,0.03463267066601246,0.10811240675341653,-0.10939073502708471,0.08309464647330483,0.12103817569705838,-0.1953699142055125,-0.05745946053061391,0.08916458536575823,0.0400781930571108,0.006823072150391779,1.5295725843121657,3.406069371063217,-0.4588737604834502,1.1951292807567053,-1.7455408104222718,2.6274334219284015,-1.0662357992202245,-0.6536741611833355,2.0591812073743574,0.3016146414222158,-2.4704468845790193,-0.6877204956285569,-2.065542153172315,0.9904150045092016,0.018537694193387258,0.00033528214166427564,-0.037185068236610164,1.6694697485929486,0.9428289892986702,0.09722258938395945,0.0032214753342753306,6.49977321877187,0.3560607787355135,-1.2662070677510537,-0.04947328365916784,-0.023362181063567713,0.054316700080923014,0.06103014377928889,0.02063422631074164,-0.04810276590948488,-0.09002231420964558,0.06064551949498564,-1.2200063765428257,0.24689384246147242,-0.5123359115896662,-0.923728695846132,2.7169809833722227,-0.6461358843835269,-0.5116155252454302,0.8304437215450463,1.592636399727182,1.5376620820074414,0.010320715131874651,-0.008805582748448356,0.10930718376124808,-0.6473274407601037,-0.2221985480823965,0.12632375310494479,0.007229909554354951,-0.005606577309997588,0.17365903450567197,-0.23834362217044475,0.10069355603348017,0.11893870326121198,0.00491745969272914,-0.09850936682955991,0.19047181580354866,-0.024213263152523045,-0.20687345167226262,0.07356791208811725,-0.13871126608674544,0.14472238329812256,0.047319066132578635,0.16742513922264315,-0.04942802980144416,0.01458572901141367,0.04467354079072488
0.21194335219003457,-0.06072556182867953,-0.03332099721190417,0.035467966254320506,-0.21775239070564995,-0.0743464535309913,-0.5268540037858763,-0.3961819012817982,-0.055733446565471245,0.06914761226358045,0.06171289184816263,0.13115970203209032,-0.14153426981074618,0.05582642500087183,-0.03369835955770316,0.04085856617248887,0.015282174561205775,-0.06250554679465098,-0.007683094943128641,0.04058852546627768,0.08880891610126326,0.07781101471457605,0.06512778843654944,-0.0637540437114165,0.12981364160006156,0.14616846807524395,-0.1697499693475519,-0.09994576750975233,-0.0030585360007838363,0.0010140753876153891,-0.05899786588864094,-0.13331625271804612,-0.04459098525358921,-0.04446223799418125,-0.10840121583043136,0.04822227910944835,0.05004161134813624,-0.16650914683937518,-0.06422810587553426,-0.17682797980785941,-0.021029279128193662,-0.1722752961990712,-0.19275361714952963,-0.19763120044212562,-0.06330306022974753,-0.41078206050921934,-0.4650216304471292,-0.2342402773549748,-0.48310744496897984,1.1701425173434872,0.6440326019390205,0.053376576491953744,-0.07660442689556449,-0.03936194526550179,-0.10948358921917734,0.1234589552180902,-0.4590331019915832,0.05330711177129496,0.008733391320823203,-0.042565359448192314,-0.7532739868391201,-0.09660265666229886,-0.5678938976495664,-0.04573944573103696,-0.20167204113156437,0.04678958640551551,-0.08206090424629055,-1.4464812167631214,2.446385382386239,-1.6899979990785392,1.355765571375534,0.4540165102089275,0.7538231417415412,0.33188917539439305,0.3096753925131577,-0.4530241732262264,-0.5879167498444763,-0.039166353683684485,-0.04927497497540178,0.0017236746303588974,-0.018451489920029318,-0.05494331773650611,0.0839376090772238,0.006132987231202135,0.10213695854578911,0.14448151900626938,0.11635290324138779,-0.042733113898662994,0.023278482529121788,0.15757688908085887,0.20707802401581943,-0.04174231132347207,-0.06886593942529615,0.11677932117791383,-0.005723180074443906,-1.0614673754861037,-0.05468772049155413,0.4805809124008315,0.04783568222575341,-0.12419200337020342,-0.03643055469968093,-0.12253231676071728,-0.619412130391251,1.3149243055693616,1.8231594842924619,2.217433743918189,-0.852121883307027,0.7909403355942215,2.037625373442422,0.01506043964058777,0.06456723321786743,-0.7229818917558247,-0.07138005798747415,0.049790955693201744,-0.03884761292714267,-2.3948270572545773,1.7099022408590137,3.1794738022591815,-0.6540560004777315,-1.37179309966253,0.26467293149078536,0.009331219081994527,0.20745227031051242,0.0074164092514061785,-0.054755401711310554,0.16791638379580862,-0.08849648109213215,1.2112789731557574,-2.0503662654772894,-1.9125680445001152,0.8655378853845906,-0.12589577497882992,1.5448181088701693,-0.1467969222022394,0.79418189052412,-0.6703096111295435,0.41416976368581715,-0.3065604108607189,-0.13126588637597475,1.07498708086421,-0.038221937594057974,0.09976419383472182,0.12312143030449613,0.006805724813646842,-0.12742807041125662,-0.20078734644620327,0.5089946771798959,0.1871730574474804,-0.07462360821402575,-0.09678355726677954,0.09475380159872261,0.08718369784941186,0.042201426184756356,0.08272373844323262,0.04782392913160377,-0.03238638540097223,-0.09897264089384841,-0.008579609412461843,0.20017546075982579,-0.07715510427495706,-0.1407875050346049
0.11656706597281506,0.3433256144557495,0.0873034728150782,0.19408462770046267,0.24451674570607693,0.04606566775204463,-0.06009609841475884,-1.5527200390057192,0.13514476062801675,0.2354181435083236,0.18598961981747164,0.1479684927231867,0.3099486428932404,0.029264348766494617,0.22897975610647914,0.13297528991564112,0.14510511864730483,0.07082500828526703,0.14504627128468414,0.20453992749403435,0.1081138273098042,0.01817033398345051,0.1517311842788169,0.22138845799285986,0.09604069041607632,0.10395628490193437,-0.1127840466498704,0.19202989258644426,0.0425328281513653,0.19434783731042268,0.03246622436436169,0.13131187550785908,0.1572300709131921,0.20027874685829206,0.22446120885881723,0.21515659319635483,0.09577811387283647,0.21529296050520094,-0.08220878299091702,0.01508091203954502,0.23898724170947377,0.11723459084605925,-0.11629525464040276,-0.12869317246622733,-0.43546598721994834,-0.20137446585019025,0.5845026328752952,0.7594620950069026,-1.345106904781087,-4.988946719032906,-4.636176649015382,-0.04994412363501146,0.11188888121283515,0.09438027581295456,-0.17388727098190707,0.10162710844520056,-0.10890790468718607,0.18235387307778333,0.07710999906057682,0.07057190620061861,-0.24763461798810416,0.0530534109795014,-0.1473643710793032,-0.20762644968164057,0.15174437545829667,0.1868216371234704,0.14978730830384393,-0.15738518660614542,-0.16150835216920487,2.756255976288153,1.5085871704284242,-2.599342965487841,-0.229802015346611,-1.0312899852973496,-0.8349553940353609,1.1474698765201001,-0.45812792276584374,-0.0033118746674893505,-1.327694031097773,0.07591638653253964,0.07574197833553298,0.12998528666100265,-0.02285544686354034,0.1588666513010965,0.16240386372672064,0.07961408921015127,0.007393182310244951,0.1866402025289758,-0.06056697611059301,0.2132634679100767,-0.18347916544602988,0.21967634746199732,0.12599481612427355,0.11846770940328279,0.0007833536183234753,-0.5147911086060207,-0.09510708767108311,-0.124131938974805,0.003802704211908013,-0.028669995147428847,-0.24599155150874302,-0.10631145211406287,0.037348091729945875,0.02881006573563518,0.8259603722441669,-0.4706304487618513,0.8607439821222042,0.9674585787282342,0.7710096743221798,0.029663381872499762,-0.04622517426101133,0.6606476948445085,2.087239768364867,-0.0074561024210060105,-0.08622805291246162,2.0015386382017355,1.1321300871174103,-0.3004728394877183,3.2196201850256636,3.5358953773483366,2.6332134576819937,0.006997030753795992,-0.01964517150329668,0.1028162487103733,-0.09213729476924575,0.050858854087496894,2.3137041269580996,0.8447406055407611,-0.15929771541321963,-0.05090819372948701,-0.21532335707669983,0.14064364489633555,0.030732711671537207,0.1048250790722392,-0.8033323209126039,-0.015682689940656514,1.0676152481143615,0.0317580030828768,1.4144896252314767,-1.338749126697085,0.0076891608453665055,0.1991582459284932,0.09849139697421991,-0.01324997959431904,-0.032354044812617354,0.9948608579613137,-0.09849728072938928,0.06650545090350575,0.20752406318250727,0.027919034382262273,-0.04354053906439518,0.03572788511779513,-0.05046898600989889,-0.10103381360667534,-0.19402283646958848,0.035783947102723174,-0.0392963002763401,0.05073994315706513,-0.010503226027519403,0.014467776934792615,0.0036342556826330927
