2.166309129303767,2.302705576626707,0.03223667698716005,-0.23456284897182703,3.233885404435012,0.3908583720746944,3.448290391045019,2.648253161260698,1.730042487397154,2.4034243821681205,0.21661550633543028,4.240650814624718,2.830608447826126,5.797617486131883,1.9593249954456173,1.373499927177279,0.6881363252620243,1.4994600274629812,3.9650928792969435,1.153253517010552,-0.597570146478841,0.5062875399519433,0.26080940244355805,1.9812107223911963,0.6466233230560426,0.7037198997055342,-0.073480690382344,1.4736586047283964,-0.0037250697342061613,2.3757052224010473,0.38673715287403465,0.8536115981306138,-1.3158693468558218,0.7403762442008041,-1.4168101559407658,-1.3173925150424954,-1.4866270080108852,-2.1780692457562427,-2.047695868988727,-0.5020276294107203,-0.6389772020102742,-1.4059764373109194,-0.24238094542498484,-0.27517298924601485,-0.17054974723988076,-0.4138755326332514,0.4148263696063322,0.2719568566805188,0.21148401829843672,0.6730840237221892,0.7461748193144976,0.06121033635390449,0.07208405149065794,0.13683161938487623,-0.022028688335205073,0.1287816710626754,0.04090614249958774,0.34082627450676334,0.2615293891419399,0.3472718400255326,0.5525966266066397,0.39336341013250625,0.2409772262928363,0.21927673630354233,0.3587721910604556,-0.005074918171619056,0.37022333383118916,0.44398106363899564,0.29540551774841123,0.5504955933623605,0.5570066608571457,0.5396430711228923,0.3520253887408508,0.514634854360512,0.3182678073438621,0.17296890519643357,0.45242098163850025,0.4082561754879001,0.3087086713565857,0.4901929890780798,0.48660980546579824,0.028307804887076057,0.2476138692244757,0.18031695810483442,0.062210646532774264,0.3417010625918321,0.15475528573103656,0.14466778586974402,0.19367582044074697,0.07266680124486864,0.24882037485413883,0.053602758548053346,0.09757842661046662,0.34242080106082495,0.3238865573964557,0.17424157582467872,0.3796919687690249,0.37847170313360967,0.5124964748858495,0.2733348848086127,0.38892234352935756,0.4664537750758221,0.5068805390507645,-0.010917925264957426,0.33836539125823456,0.6281768237412931,0.35975391744741186,0.561102820631155,0.147271800217903,0.14295657862222488,0.30119953222792895,0.3197381955370173,-0.049243763718474234,0.0017527756046176587,0.46353195614823284,0.598553586577268,0.6621249841080287,0.2842663832059685,0.4485128134238009,0.47148616701867724,0.09819265397061148,0.1779752230928583,0.17008223575229028,0.06626367447746172,0.2858032727443598,0.332331271166918,0.464036941492858,0.049471950463677715,0.3957649294004819,0.31787394424140003,0.3379544533980105,0.33167549241989286,0.29524057497604883,0.37587490174367333,0.17949174714754706,0.3008083859629635,0.29413578846073324,0.1979988187461053,0.4860152825793443,0.15803494559402934,0.23146737524503566,0.07192125421858024,0.08045423142066344,0.03800870270964159,-0.020267240491047334,0.003792305873243804,0.5419913382932812,0.6743315531893195,0.3637603243047292,0.23254258573279604,0.33890093704243485,0.18293190229738776,0.21791410037112646,0.17228767535873832,0.5081248535803781,0.24003746714683918,0.4133399234915507,0.394721562784941,0.402559621083795,0.1387366651810264,0.09833418630223177,0.22979732794306032,0.08607215775694299
-0.7264190900271834,-0.3874337010971152,-3.4718055834281505,-0.1963076722052766,-0.49907615922314164,-3.8267903813636486,-0.5913757079920892,-0.87414113052841,-1.03197873989466,-0.5992024845210175,-3.3488487297542484,1.4340467684638059,-0.09968506351223513,-8.52120146485073,0.13966438947526585,0.4381370264957109,-3.2120655323092078,-0.059861957223452895,4.13911171918341,-2.1786401472086703,0.05246593803098805,4.257378214110727,1.741274282706187,1.4722135025642389,0.862239887887208,0.10927162656774635,0.2018146309570754,-1.4323240700035036,1.7223894425434716,0.050885039259047096,0.17871964030626955,0.1299176240051037,-0.5094653562794519,-0.8271003538193435,-0.8802578108092584,1.6345894496677689,1.6417494998964246,-2.525018349016457,1.3218468026734935,1.1905197635064704,-1.6736469217740602,-1.8256193835261094,-0.7327180197289394,-3.6888963318521357,-0.48725499266552036,-0.24310550075854986,-1.01616735646329,-0.9725296563774493,-0.8164254151671175,-0.8815301913312575,-0.8278604639046276,-0.5760672430925374,-1.153376641210352,-0.6623718491848892,-0.5306116185192189,-0.5112649161047348,-0.5860600507097867,-0.8403309597344607,-0.4304663092338588,-2.3931290532552274,-0.41416049727904786,-2.4248325160710067,-0.39421269971344625,-0.2021185354134114,-0.08835178448149178,-0.09814059714249153,-0.12077434640887247,-0.05368860195496076,-0.28287295807946855,-0.07915579454967979,-0.7009833268564535,-1.1174907398573688,-0.6715844498482461,-0.5959215456315149,-0.6777914400475109,-0.6391860398186398,-0.8061325809712001,-0.7744915713232772,-0.759649791845637,-0.8099953163361269,-0.640226615609258,-0.056856883258941414,0.032931367061618325,-0.7339246209092796,-0.1347548190407001,0.07555954983043377,-0.1374739281676603,-0.05656986250605967,0.048296040331158585,0.03643960720104462,-0.1890928570645506,-0.054715717988788895,-0.002684061885344,-0.1778720510413886,-0.27071325050056744,-0.06234370481893877,-0.1975805742194234,-0.582208719671158,-0.23771745042590148,-0.548191287993937,-0.15645185645650053,-0.2445672252735918,-0.2259346341673423,-0.36945570253518356,-0.365700169918961,-0.32650059652245483,-0.6173382508753152,-0.35602499414114047,-0.03439301571919719,-0.0927378084222495,-0.4626480524793808,-0.20551970501145905,-0.028145431431307273,-0.015641689103605326,-0.1874605941832436,-0.7453638203697485,-0.9005541744440075,-0.147446055451835,-0.15415981360099554,-0.6132654181666555,-0.14353854868067414,-0.0072074311150372205,-0.1443008398391004,-1.06441529702024,-0.547250744984607,-0.4497716622119432,-0.24345134835996143,-0.051196063378333025,-0.11660841249628012,-0.14519897207511687,-0.08304669590655064,-0.23602910228150412,-0.08126991000018499,-0.023743207080300033,-0.10406210384726555,-0.4348534232871251,-1.5599990183237202,-1.5808216826334462,-0.1278352359287026,-0.08812834835432817,-0.020700087757643593,0.07875178824986098,-0.004554071890755983,-0.1436739777923666,-0.06990113123033244,-0.031166067539961765,-0.2637460877030656,-0.11574186988516988,-0.262903319860647,-0.15130484169920178,0.08429601125445749,0.09286381171946632,0.01404901968700273,-0.10085631940537419,-0.02773393084577393,0.031221668596037998,0.027405613899074425,0.017900207889270887,0.008071825164609981,-0.03617226326983101,-0.048865284096435084,-0.17519612101724102,-0.04372998930284943
-0.2655369829620287,-0.35494198330663135,0.23866147825140918,7.122763938069687,0.032955973900690966,1.5605228262573612,-0.18655978423738329,-0.1534946068886683,-0.2487683312162263,-0.23606457377072484,-2.429299239295865,-1.668062981379549,-2.192264813299685,1.5380585650321161,-6.014268569053135,0.043019262378429714,2.2539346059264123,0.7039654808961772,-8.14449898000147,3.203986027012453,1.563436903631032,4.4796859406849405,-0.46059189113550775,0.5158968212544629,-0.36064823106797733,-0.3032346919255804,-0.8218243692122645,-0.05035002696037988,2.021732084361166,1.1739646569359343,-0.4103915423009195,-1.439978576150304,0.967858296671616,0.06180919941671792,2.829639122717599,0.4511842580931572,0.03094787450532188,0.358574929210487,-1.498147967222152,1.8202793947812321,0.8259728313824417,0.8802202977777357,-0.43844187435740994,-0.8019589532458209,-0.4405169805157089,-0.46012188607284676,-0.28607183747093745,-0.5296028906775933,-0.11710800800690743,-0.25479864198784774,0.18783980146628224,-0.13397069297035474,-0.0978462246720121,-0.15208976337192534,-0.4854997976121373,0.053591391309723346,-0.12969294867332531,-0.13293660198752924,0.11869165939249172,-1.2263311994150579,-0.8920919044002356,-1.0913646806057538,-0.5994391923083007,0.05798240477029322,-0.1579431075882741,-0.2500812049395996,0.03429215034522511,-0.11312900300044254,0.15508292257473114,0.08107455354138059,-0.11269530646230871,-0.06241464984806533,-0.03282736785219461,-0.07910043851960254,-0.1159549808486187,0.10531696618916575,-0.07270394188758797,-0.15979185884390246,-0.05576661830443585,0.03652666598175246,-0.007718455673547037,-0.06724295515927457,-0.21552100142758382,0.017711816063217194,-0.17391622790559919,-0.043001989534522125,0.028170368556495445,0.039109614555433936,0.0015080110465632219,-0.022502012569908973,0.18963556976113885,-0.08035431125223963,0.16311422419773722,-0.06266686089203793,0.05548214107180768,-0.10651208393693706,-0.08372855628481804,-0.13905572100922783,-0.05241736048663851,-0.04894307873046896,0.05024845375582011,0.08049896360540051,-0.2688784861673103,-0.06885753442791552,0.21242572462895734,0.007429215681983597,-0.021123641612173713,0.10940590795535295,-0.06252978444735467,0.007195359697577902,-0.1511939600990823,-0.23224172683946467,0.023895541778161025,0.11056637896249395,-0.02516615593358315,-0.19931940674538798,-0.01931504811566363,-0.057764083457999424,0.14029366944441052,0.19494804356721576,-0.07517181231904332,-0.012500407046868597,-0.012694600671294643,-0.09767950410336856,0.07444211658591454,-0.08666760529465478,0.08329075193040338,-0.12909775334501294,0.11929013594930972,-0.06771540078141688,-0.14015924539294217,-0.049668304296537714,-0.06970088834117684,-0.01595689256201514,-0.03008796278335535,0.07136341488187511,0.06750849660146849,-0.07839420403088791,-0.12558870930230692,0.054901854930695444,-0.03740513215756835,-0.02767379340544129,0.031046005260935428,0.1030581340759294,0.06656700640319066,-0.023435061429811034,-0.15317360559989182,-0.19946456058168519,-0.13741336470004947,-0.14131811537116246,-0.05923914594464672,-0.24661788509557855,-0.10608110710357427,0.042129209023053525,-0.12007136245071373,-0.2143076724897527,-0.2288088878292023,-0.2871100506448097,-0.0704344287547663,0.06631714992507057,0.01312675527816527,0.12008368449714284,-0.12730759456281154
-0.8310456965344369,-3.4827541042314736,0.9352538908517124,-2.2919699100749247,-0.5073816974663614,3.8214837661264753,-0.3455495201957749,-0.5213292576789159,-1.8906815442570781,-0.4171730896117628,0.308271104983516,2.4974432524920007,1.2092043166593847,3.104916574550051,3.59210151077405,0.21215001172471984,0.3531596663241711,-0.20373578514027496,-5.136565009266915,-1.0422334851949469,1.579525544366952,-1.8427908829589155,-0.08276698456465653,-0.8521227741658428,-0.20947664669809588,-0.18305689652171972,-1.0625841023004012,-2.2454552840796578,-1.8571261049966896,1.358002653966893,-0.6659009529917405,0.5182521798906518,0.30857199403572155,-0.13067390382437452,-0.6398704093283182,-1.2134746531735694,-1.7531507675723303,0.6849520849520343,-1.0833069595982872,-3.8232705052232583,-0.38397757046378406,0.6345394828867388,4.489843260039151,1.8646734788896095,-0.4783552179949459,-0.43759029232741736,-2.6113921733967627,-2.0672479913007216,-0.24695341144036667,-1.7629683902472733,-0.8741964292202767,-0.35256841935898836,-0.41887239385055786,-0.0780392119199775,-0.0523873427286359,-0.2633547027566162,-0.23937013025754456,-0.1423905542773317,-0.14889996129475616,-0.6450101618553883,-0.1567061068123612,-0.6397188470448211,-0.17858063321718107,-0.16541016781014845,-0.23979720002727253,-0.3859555842713354,-0.25362471481755977,-0.3707551157659882,-0.2113872794783517,-0.34970106105238646,-0.30418325352416764,-0.3049982541933226,-0.30551844704783865,-0.19336176684972312,-0.07360390554871679,-0.1324746208762386,-0.2579835489480092,-0.26124580893359917,-0.043841040115977295,-0.21844757523007277,-0.14404871163472605,0.14804969797983578,-0.15858535520426315,0.037054463435066444,0.026305014780472685,0.08542320765218203,-0.1597139096446411,-0.027697180269611352,-0.08553609427514736,0.13277388807493737,-0.18506465815293519,-0.04173662702374521,-0.07184207813639659,-0.25542774173677824,-0.0767316948213827,-0.3077501188161045,-0.3892387347146085,-0.12845419412445652,-0.24209231576471849,-0.22490990233000868,0.016630953380690504,-0.14334293781828067,-0.3465830298113515,-0.0754085399254193,-0.17794409576025322,-0.1707180442791948,-0.11981467838481344,-0.18052099147002856,-0.010087458275811685,-0.0033838526597887502,-0.3487239407382564,-0.32010060887146263,0.03477461960892881,-0.0074233253022996425,-0.14626515504135243,-0.2771534813502919,-0.11289666615803198,-0.14732189186328262,-0.14424438190983438,-0.2188376721613077,0.0456481190146013,-0.024994339601770426,-0.057541111377213974,-0.015019554862308378,-0.03067331475345634,-0.27813787581956373,-0.0022042854637418616,-0.1248642229663539,-0.18519521699805963,-0.17950385240231967,0.04082484946293641,-0.08039008568173235,-0.10474850735329254,-0.2460321921469393,0.015239967936502688,-0.15426427097600737,-0.13504987658471726,-0.19603602945725565,-0.12846868169186318,0.14255550342650983,-0.07004040354317714,-0.06518115764586448,-0.22397116984861612,-0.11404636735432036,-0.023881814649123312,-0.03976740809714759,-0.22440579232211189,-0.12251407365115753,-0.1141460861922364,-0.14556952964997602,-0.03885712574516693,-0.03812665645495372,0.07878157155243912,-0.10530012323003514,0.158411174144531,-0.08444004252005598,0.03560209957912084,0.23090945769406396,-0.0836161651337908,-0.1629403477157127,0.030012031765945874,0.17057090951039505,-0.016922201677677724
1.6945903687819872,2.1090805643861925,-2.0090357843572466,2.374494001801446,-1.4720329477086067,-1.842712899489713,-0.1838946502708488,0.5123231948534498,-1.1734348134914228,1.0828879283529762,1.820182228800279,-0.8939838981289783,1.4796442574414432,1.2562110648722082,2.39100434265194,1.2066134382962062,2.9281698076999687,-0.8616736165975448,3.759903216465351,-0.08463499966201388,0.5851084592206454,-0.9776078718518839,-0.6981102656700686,-3.926318340454355,-0.8316188090348956,-0.2322277753866049,0.04234887976312593,0.5386087304992333,-0.882195051124412,0.1603936050078901,-0.5808086063010521,-1.6528423975511235,-1.5619522438082007,-0.024791947198905446,-2.2222451103332914,-0.5095294209852123,-0.6144522759062769,-0.20169637279996963,-0.5974197328738697,-0.8588248862181956,-0.3863485343456948,-0.16449240478378907,0.07450428136085305,1.7354493592935973,5.193842309030401,-0.9066334850612848,-1.55118025116355,1.6690244112048573,-0.22753137403724036,-1.1877634666750738,-1.7382810280862793,1.694202941979901,-0.6724660800206217,0.10812607621991684,0.47265595950544737,-0.2448685536593875,0.4701940885365354,-0.4544547888243059,-0.2581313673423097,-1.2174967539328212,-0.029545175481133484,-1.2171443111236049,-0.14464484831316915,-0.028031169459089893,-0.08426970763360903,-0.08614198629857255,-0.2366489433062436,-0.7144660969887473,-0.07690407793949139,-0.1800946116018608,0.27873849241092447,0.21116874922244083,-0.0792068503841971,-0.3079002871678524,-0.35456338431548895,-0.052976029906734834,-0.19860272331210976,-0.21862062893263148,-0.2312034728113716,-0.12353431499914275,-0.12988974965896516,-0.040119799710403616,0.06794834768060662,0.03657770356631037,-0.13781373661756346,-0.0580240138909539,0.1398887042779271,0.02055628780647935,-0.11327375943136014,-0.22195192158980853,-0.265115857765161,-0.03547364594859452,0.07787550923398706,-0.06740804413010293,-0.05716189166042889,-0.0534178223416444,-0.05673773678543001,-0.16248226736078283,-0.1023544566316131,-0.03329123852157913,-0.1955559598822731,-0.14982296187325128,0.04515757903002633,0.019205112597848482,-0.12418487941020132,-0.07159218288007273,-0.14376664667806943,-0.35300572741610503,-0.10245266277728847,-0.09554793382988079,-0.239886751939027,-0.05230578700469513,-0.09195762572593551,-0.11389876063229469,-0.16223059678126003,-0.1618724072251132,-0.10377792661985481,-0.1723522485799013,-0.08644795575339405,-0.16006463859489106,-0.10895377138739847,-0.16677406762100172,-0.01718355523407372,-0.13294290802926786,-0.08153581124677355,-0.1913817991311113,-0.1232270755041249,-0.09925345089192555,-0.11548688348440493,-0.016113161509183987,-0.13682588738843396,0.06999057900352261,-0.08178048771963219,-0.10450654325309539,-0.03512539931970627,-0.12286834575501145,-0.101317028801476,-0.13893142702588251,-0.10405952931782327,0.02536678819024811,-0.1174277683074896,-0.041734336763646414,0.1296197034993099,0.05441045244015741,0.09168586476523109,0.06020360385839855,-0.03669064179802822,-0.12424409555721774,-0.042952756224516365,-0.014260338155367305,0.0686333704729075,0.09246128890630408,-0.06458364483360653,-0.17319020279711644,-0.03714918712177273,0.03317406515211192,-0.03494375521587858,-0.09409338003850885,0.17414991141296746,-0.028593937133597144,0.0758027251744135,0.08104904877837343,-0.1256900151149699
0.8615549982627765,1.7532001047134542,2.846922620778113,1.0959338229205657,1.5277198655966824,0.7914020348248647,-0.5659257434288517,2.5259362845416686,0.5449692260247399,2.0476182557335805,4.396771241191937,1.1565153933225805,0.19906869097089955,-0.012404841404358899,-0.06042125750356855,0.1170476125330487,-0.15470334013003856,0.2227915591428613,4.936377549190823,-0.06684734148983991,0.062366472250070665,-0.06890029418015728,0.12961751003189229,0.13006104015235695,-0.3658211892722281,0.12984968576355563,-0.07556246925562844,1.1598514169767034,1.9859229394050402,-1.9471344957165813,0.33451082554691425,0.18005045793608754,0.4617190585999164,0.2157332711593415,-4.660042291415723,0.20111774127106044,0.2708165595176825,-1.1888396482127113,-1.1205760958188884,-1.1917469365112872,-0.041978016931212746,-0.12415104398480434,-0.5299563783211593,-2.104352266241919,-1.1495951295917006,-0.03749801730905995,2.076889874495983,-0.4205816353661267,3.3911497949688343,2.1295284118964033,0.021177576723772344,0.10762542455638043,1.2504115425228621,-0.4865539971129978,4.980264397050652,2.488154787124894,0.23129326131848105,-0.2409998632320185,-3.10527488376275,0.5789916827218664,0.3459899613636654,0.43596012012493385,0.32636197804301187,0.02499205650947887,0.23753795009771544,-0.005745916799273696,0.28009398791173007,0.24002400275531938,0.05210537868867827,-0.20709492933947518,-3.1576001065697756,-2.4370747688723244,-0.7671175641612028,-0.9595001640531917,-0.08489204385290768,0.04304922782636462,-0.0331624181512956,-0.4743749067999862,0.2743366272466241,0.1821774733411365,0.33817533338105726,0.016090870554713203,0.17606670287835793,0.11908661682158805,0.05417032074222342,0.12677926903997372,0.22556494785292203,0.12185203628931433,0.14921668600781743,0.1604430943858554,0.1677360861622659,0.04852554812493242,0.05562546065522626,0.42099787295300356,0.2591587340032027,0.4403738881480399,0.44823142182588344,0.08034174828168525,0.36134235392702296,0.20816424136155023,0.24508371921866784,0.3217841218556179,0.4203720776422118,0.11829733108561169,0.16749135889501798,0.3274020457765375,0.3904192807334448,0.19558845702157593,-0.21606248166144068,0.0197017853998724,0.3375484003581717,0.24465071399306304,0.07749899904740601,0.2207922758162387,0.17108859483944225,0.13940054172506153,0.08777739860653504,0.23694411528353732,0.2527349120320535,0.31544344578816963,0.21508245163275508,0.11581594157535294,0.12130827548840002,0.28619174886924537,0.1237744973187287,0.32227521535364856,0.39490728543451226,0.14873837398746456,0.3641738742943923,0.23438717536433434,0.19045026983105154,0.1900686832677141,0.1318108831333375,0.1103823124611531,0.2832615771036743,0.33761603248920563,0.20709506333307956,0.20587491760702087,0.4394199867786974,0.05210042716259766,0.19136174404660747,-0.10673474355443972,0.08952345404711541,0.01441133738515295,-0.05076909312594491,-0.1090110697466339,0.19612104126886754,-0.06450133191281046,0.025930782049147196,-0.08149260319300003,0.1647945577437857,0.21200617950379064,-0.08344740632141416,0.10130634864292423,0.013388278615014546,0.16748326580224454,0.18769498889796796,0.12806159170146855,0.0763186893846092,0.0622741075605567,0.1397302143817281,0.0679330183654887,-0.04840387469405308
-1.301962730162034,-5.442806517723745,2.4099558526507785,-1.9399872245237255,1.2100121004063549,0.40902508387538333,-0.8586438315911832,0.9006785865455106,3.6471015382136014,-1.8889679605507321,1.1573761262323738,-2.005501966863053,-0.33507742164293464,-0.18648126169553436,-0.1374695694852398,-0.12773985048210867,-0.16140419999597863,0.005155485001243964,-0.18413312230177684,-0.2534801133620428,-0.21191365503957119,-0.22092134911011388,-0.039239188535220966,-0.17163070546573975,-0.19470866283214136,-1.1078337247298071,-0.376584183190686,-0.5163670930704494,-0.2711417078139179,-0.061346277196129374,-0.09943859479728662,-0.3266898111812686,-0.3181317781973335,-0.12587103783158618,4.553332880870914,0.015170205994859947,-0.20892060184297298,-0.0888319906272663,-0.19883843793058203,-0.9270417247413967,-0.15040777589383966,-0.09608122862297633,-1.4777790197831298,0.07956406138185633,-1.7430703645131136,-0.15665550079980817,1.140951677764094,2.4657690431546153,-0.23697517448824734,-0.4275828267870292,-0.3559613857344877,2.457799619748406,-1.8522821181641422,-0.07426253934907887,0.8849222806718684,-0.7865943867506255,3.1663622804374296,0.8612285662421646,1.0805321752637076,-0.3596100491253232,-0.11911915649602563,-0.2757145058507349,-0.13797676100678352,-0.17504697048645174,-0.06463826639110777,0.05848800610225058,-0.13315126860356422,0.09788134088126073,-0.17054528706998068,-0.07149868522067153,-0.5522604949602531,-1.2460183561092688,-0.17369383980280304,-0.2573708759642443,-0.40414827601886766,-0.46791102201958795,-5.0949243161696485,-4.91108222555945,-0.3280490766008122,-0.2111534016058,-0.001433824525175063,-0.1411900908977922,0.07515569376541958,-0.01477932682485219,0.004190978441994078,-0.12239849423032717,-0.1589687224459603,-0.042262036833126244,-0.049160397023256114,0.11637756160505919,-0.04797191478711431,-0.044188896875220686,0.05970383954085367,-0.053091676461458154,-0.03145882474155531,-0.2621375325868436,-0.2337445661296395,0.024320269595486665,-0.2041247576070165,-0.24324254772592216,-0.2892349071969096,-0.1955894297443292,-0.03853851799025748,0.010558853491518068,0.010353202793528181,-0.11270371312855282,-0.03593064550757837,-0.3577259678415069,-0.15226440137723202,-0.06618029808913259,-0.2346737682451508,0.05033151282278562,-0.0953414593109387,0.15579438611252316,-0.16193918277147706,-0.025131315582432673,-0.11193688341768897,-0.1685568105700223,-0.05011969670469778,-0.09906252292028309,0.03933482875413377,0.10945230221545733,0.043095639945979494,-0.09319751749039971,0.04127259881914372,-0.2969141382957441,0.011452201805061738,0.09390817188039051,-0.1669881997448506,-0.12367299135990104,0.05795293342472192,0.05362110602831832,-0.15218823506918638,-0.06892810658633049,-0.281408982439335,-0.10430523689745069,-0.07881897049468728,-0.10929904690649628,-0.12005097412143227,0.04072877021783899,0.04065489532116669,-0.117506970235192,0.021983955806278307,-0.026898086546133015,-0.04589206373503564,-0.04559704454770517,0.011977014472070644,-0.1417877758262481,0.06485552188926039,0.06453904126072767,0.14069660536792122,-0.12496439912306528,-0.15684585496901973,0.016496854965066955,-0.03605631311726398,0.07724088260408656,0.003112694927460532,0.014744157983316518,-0.16493652128841102,0.09309749468884798,-0.014637760220549634,0.02725808958030233,0.07078596751734614
1.7263992955751875,4.081607443522538,-0.35718008777906696,1.7710038688511482,-0.2584836021923805,0.49766405558366444,-0.3028130377545526,-0.4338399076746488,0.7635139591124616,3.3423585367628355,-0.7046195760035376,1.1745610738899908,-0.3760122366266357,-0.12287103434343939,-0.2588905972166214,0.010305474966866575,-0.2028467296321172,-0.036355894459425775,-0.2897042783292904,-0.4041607409160749,-0.07994215657290238,-0.4408558090067225,-0.1359495139845129,-0.16390290462459314,-0.03595085840221363,1.0081219855913055,0.5536532394250414,0.9876373902456284,-0.13407815574470275,0.036966064654014426,-0.13604370931621804,-0.22729720374793871,-0.26955960818440794,-0.26495824152729125,2.788354661919777,-0.23193532793522173,-0.054754928822129866,-0.21205801549286818,-0.17760914606324918,-0.7645294768352018,-0.09790681645613582,-0.17232202364203172,0.4633394654986817,-0.09863492491199242,0.1504084053837694,-0.17717398036849533,0.23318899702097676,-2.0140134586518235,-0.44634920966522074,0.9253216419575098,-2.997739102296232,0.9952098481035873,-0.6150081293549733,0.9169370771050444,-2.049163610589417,-0.26066886824675145,2.9663442260376764,-0.4153602549673902,1.7967508425765042,-0.19683285340418963,-0.2661431805234603,-0.26050596206985144,-0.24272804405382142,-0.12158421309545102,-0.1113059571326998,0.0104165946498114,-0.2528469955514516,-0.10038630824998412,-0.3053394687184441,-0.11722795133390007,-1.4841886696633122,-2.1515503873356523,0.3781021448277315,0.6330989174904339,-0.523017214060812,-0.40452985872411723,-1.623803787217744,-1.6163202240033343,-0.1390417413945708,-0.3487280060201878,-0.3084469246042981,-0.1066575833871228,0.08685091727429743,-0.10921652465186599,-0.14656139570956134,-0.03439659517316199,-0.09972640938118038,0.09889586622990015,0.04569407343239241,-0.12117198244701913,-0.18324360473618279,-0.014832401056779163,-0.11977830207271005,-0.13868291480636194,-0.1951758797728939,-0.09096188534510292,-0.11951750049285521,0.0040759731922912785,-0.13020961232391354,-0.254365708934969,-0.0834108316291474,-0.033542068485508975,-0.16790851496219514,-0.1425599090412733,-0.42184268501953076,-1.0329983606690196,-0.4368125709549309,3.63595369240392,-0.0006277143490677072,-0.02685267165196229,-0.7051475609197081,-0.7753635395717359,-0.2084699740200307,0.015701984041212327,-0.4850450470102463,1.6610832735931802,1.6470059696194292,1.9191843737413217,1.4919213319427331,1.879035549308741,-0.13097114181436167,-0.1988504345938275,-0.00832173954567631,-0.014949785550069865,-0.1398984762138448,-0.22645725535811123,-0.0764231262705949,-0.26767778198183384,-0.07720329785755296,-0.10317361310842173,0.06262699734363474,-0.281522396130482,0.02131282053617432,-0.1420835837068035,-0.050149906065614376,1.879103275148249,-0.20423766961323467,-0.15033844983854047,-0.10934364108070992,0.06855956926092725,-0.031774088928291595,0.010571029293081574,0.14023918702607324,0.06641174630922485,0.024648693505580382,0.061945632127500816,-0.03322978038211212,0.005813755313567363,-0.018156722883952637,0.09138217377314792,-0.027583401538657428,0.05787674149432498,-0.09974588629726949,-0.059487402110022035,-0.05704149411104477,-0.02704313979473569,-0.12882674377853293,-0.11174198454584741,-0.06283763334284186,-0.03036467661953058,0.005503355713825729,-0.0037258598059915484,-0.026904728316821155
0.36488595662814616,0.2819899455330769,-1.1402077158147232,-1.3708476651584791,-0.0804671871281609,-1.3652817210079684,0.3265667371938516,-0.853882713727009,0.06382345256296533,0.278030242440538,-1.0322492700992534,-1.2868044296022745,-1.7767776004534144,2.2265324133172113,-1.170673110422005,-2.3453081330976944,2.589290678319311,0.04023571692796448,0.6625465106821163,-0.564117979481535,-0.3353505934536422,0.11603444401389906,-0.024179844322287137,-1.3024443386068711,0.0858832671445605,0.0689973914495646,0.5732757245101706,-0.8249671347139321,-0.613214254390896,-0.5771476774311965,0.6722685304826586,0.1234913384302024,-1.4689830788977858,0.16287936193318106,-2.725518379913134,1.3779973001549832,0.6682403650634504,4.131700350843563,3.846777750692553,-0.2021236906205969,0.90045161318517,0.9168295774987899,0.7367330750664993,-0.5015787564689868,0.7037863634227354,-0.5442343728202603,-0.3345126809123733,-0.49020844383851825,-0.9319299157658162,-0.6459644434198156,-0.5069795514644605,-0.002955537883074172,0.1650827929854189,0.024177417857389766,0.01436418890026732,0.10619695021268856,0.29015509792188693,0.07298587219896388,0.17715627453233143,4.368208345476398,0.23577631580095285,4.741977252688916,0.1394253155856087,0.6868327845077725,-0.6227786724216415,0.0631170533971888,-0.915060388285458,-1.121668981318739,-0.9872650131576692,-0.8811067734507956,0.162059034443882,0.24623586453838905,0.27518162991739287,-0.06941165124787098,0.08166882239368581,-0.0005667111580924303,-0.011798791145711375,0.07968444153654271,0.005613052531252917,0.21741374855883858,0.08226658936701775,0.14640537638656145,0.09885648799818629,-0.012259973012974042,0.01813343778285611,0.07954755327389698,-0.05085453975247119,-0.020398337034666918,-0.15357130601500238,-0.006137960883188215,0.037886367110576344,0.22440220588451879,-0.0036325396827931664,-1.4044413230215893,-0.2697275585669927,-0.8876402461561427,-0.15023161391203627,-0.3076198765741432,0.0621324405036801,-0.2370869225522573,-0.2557003073489935,-1.378476704243144,-1.248815069482687,-0.168465706861579,-0.01913212901892923,0.08343399658008786,-0.26679197199573684,0.15030847798835179,0.18731419685721154,-0.0537457217069152,-0.08276397870365158,0.10115711942400198,0.030247347192709988,0.029089800904437576,0.12252291372537512,0.21219657595623145,0.16462840485001734,0.0033817866150592864,0.2313834469418582,0.09112878037949167,0.010813919637836017,0.09282689843659839,0.0736393045398529,0.049158283809894794,0.03005794360164403,0.0191038990627909,-0.033653387964044094,-0.049111230672195465,-0.0703525920733172,-0.17648493243709573,0.09503712587669916,0.1240411132477643,0.06756564063233107,0.023883237859527773,0.08868406032086132,0.00257786516002364,0.08414625745416147,0.020322578825171425,-0.3881537386931619,0.020901734431506648,0.19594869629516307,0.011375496420554493,-0.039034746740061986,-0.0006351117986586265,-0.09045415087414335,0.1531102732338767,0.2992681403129262,-0.09663951253690722,0.05212148342231992,-0.01830319666082588,0.15087096370016723,0.09621075157437015,-0.007148015989459318,-0.16169429520907921,0.02553502667684844,-0.029850737537117904,0.13722843308991534,0.1169886947696654,-0.01846173458015955,-0.17095406483034573,0.0858753129768621,0.05344439668753132,-0.10713909183836282
-0.11445826440636751,-0.015925880175490344,-0.18186999792665035,-2.0221110107817757,0.023939352847351804,-0.006804257757147253,0.0016809217030146354,0.987614098586424,-0.018029004799378735,-0.1056571353669315,-0.10310928357099132,-2.0971255210838424,0.8187772229934993,-1.9388371283369115,1.419862799165242,0.4337071771518282,-2.244747907237582,0.049831438621941025,2.159589806941859,1.3635037220558686,0.062094711183411734,-3.3396688192164956,-0.033786140224080524,2.434170101003083,-0.04659171093907557,0.08114817171797811,0.7327999098867236,1.543927243024601,0.1620022879508433,0.0017962160186065729,0.976332588720333,0.09736640496388818,1.726983257654808,-0.05188489919883018,2.8650915647247976,1.8750569023011665,2.3154065451914305,-4.621956176188378,-2.8489472624145358,1.2304730153774932,1.6693436659552394,0.9969656574639738,0.8782031805099054,2.443922344562685,1.1530029465112104,-0.8441780318805537,-0.6095373471204434,-0.48555822973312085,1.0750604007558977,-0.08015989073429881,-0.28127840280418404,-0.1766894535131625,-0.22033343245328876,-0.22787271537752102,-0.10590102470112779,-0.02027332571243076,-0.026184180411382946,-0.17926433701906558,-0.11263548344703005,1.5181885759709517,-0.4495854105357482,0.30756237944122294,-0.24614161491463818,-0.8121770443808051,0.3417502415006946,0.6027825796305234,-0.7806098772505811,-0.8466883614145504,-0.17139796377715585,-0.0022095500190432503,-0.06788723291270223,-0.05352171949960746,-0.28604500927773324,0.027581023716555634,-0.10048491636082389,-0.06783473740640143,-0.07482337375924332,-0.08455372384275427,-0.20849330303843455,-0.03870304414454387,-0.08395401118863924,-0.09733683793957458,-0.0783480146812888,0.038620000131668254,0.11002257926436936,-0.09524216572097649,0.12943234683826144,-0.042560758375228956,-0.0025369037844024324,-0.13462743457384363,-0.09587302824313315,-0.18412776367017908,0.02970529577703733,0.6313855707374658,-0.23259799359426397,-0.32921369219451224,-0.3321722430292223,-0.01761300314441025,-0.07417309344527957,-0.09185325285443358,-0.10708359950605163,-0.048207724936667494,0.1531419128357894,-0.048202038633318935,-0.08724045830162179,-0.03606580247068477,-0.16089414667614993,-0.12639569150773752,-0.19005537855603938,-0.01834886852382978,-0.13372066646625444,0.20250972197962475,-0.053097925828409144,-0.02570061204291938,-0.024994532647741218,0.07104047117002033,-0.2226670181732181,-0.013622256329086212,0.06124200270212097,-0.1989089113537505,-0.06352959075226913,0.046413592424802176,-0.08366346385569116,0.08683083186060235,0.06851966141950118,0.025435173383413077,0.06062366500760633,-0.016217983013533672,-0.19495658948708341,-0.10243735839617796,0.09935905085346554,-0.09616936625780802,0.04604131163988694,0.09318424077788297,-0.10127325186475847,0.0863076558433894,-0.0933553220898504,0.004871513354312328,-0.026780368691191787,0.016150414626123023,-0.06403191223832153,-0.16179652808096867,-0.009618851455048474,0.13213163685233448,-0.11146835186053775,0.008950546241329859,-0.05659041329093077,-0.038447008528292435,0.0953316992621957,-0.17963640351595003,-0.14045834625955603,0.01022423916898627,0.02710409607606707,0.1516229653296023,0.08725753793123361,-0.1403045769247739,-0.12343285463368242,-0.07024317861553346,0.10844164622649577,0.0420170769107217,-0.022622000526144808,0.10541235381985545,-0.009735691819078603
-0.11415401288365566,0.023784024646725573,0.4852161259521252,0.48578936037295545,-0.19108883293177642,-1.5342944831346659,-0.17405594243970765,-0.2364767566091231,-0.2267841110142428,-0.1730916701926093,0.4084688043591341,1.188101491082619,1.7188087481779166,-1.7962413747897217,0.46010321835442464,0.8138789450090532,-1.5684640718439766,-0.2789929973167339,-2.1997907689325413,0.9374685111477262,-0.11913040644262184,-0.9786716853331069,-0.029755317053510033,0.8148387735788288,-0.14177414615459016,1.1282150125938593,0.47477522868546584,1.317815344812661,-0.5624032443054559,-0.4900157709041427,0.8650368541069894,1.8145634653608886,0.8586146158902837,-0.09722145219036187,2.770858807164851,1.420982340367596,1.1137500922262387,1.2952813279783866,0.6540843671292418,-0.10872712765519078,0.24995870927764935,0.9287143835643419,1.9629851627989618,0.9579343451063155,2.531990343786698,4.026621844559314,-1.5621943340395374,-0.6364848140757439,-0.06087190485899287,0.8177987066134057,1.9945715907981982,0.08062250942277986,-0.0898091914180494,-0.0945963477498074,0.061527060448320826,-0.05623100734676416,0.011853468669750681,-0.029946523447118754,0.03798919142642364,-0.6132417063275649,-0.2364376845950215,0.08635167836454541,-0.43397950525304824,-0.41087773170589365,-0.49757055271716677,-0.2195592838207153,2.3549908604370375,-0.41067472238899044,-0.3067248118904474,0.12652069880139277,0.0786098112646016,-0.07045010231799645,-0.29080508965390006,-0.16853255078935395,-0.11801652099577298,0.015312546129914313,-0.2035241689840839,0.09521456445815422,0.02352102535967705,0.06903795458313772,-0.04306031709419821,0.08638403318375051,0.049940489402576685,-0.15827340840155693,-0.10790588894238375,-0.05615805118564063,0.22202161937456755,0.02516092999576073,-0.08976284983297428,0.08590066490728437,0.01830579956062568,0.028859870068758387,-0.07344189640045777,-0.029743375646984063,-0.07467086249193572,-0.2974409417920136,0.07771182264882806,-0.10363262809222802,0.00016243320006956033,0.04144612052516259,0.08737364721217122,-0.41836154638485606,-0.32122308409248157,0.010216452813166852,-0.43785170808383966,-0.46083384981086095,-0.4626238064166814,-0.4452973269590675,0.0476076603790964,-0.36215276744497826,-0.1860684607808869,-0.3131010737605848,-0.05876270971264654,0.02775813380218576,-0.2975461061843737,-0.12993103524477842,0.1171441491634749,-0.16923048673218063,0.04372154318816553,0.006430350009289291,0.001582198601922118,0.02251992263738303,0.03720806943003564,0.15118501736069592,-0.053658523308085494,0.012854337577153627,0.10944665086101285,-0.17326083328543868,0.11822213144084504,-0.0901967084297261,-0.016953589351711696,0.018110593706161863,0.009273144390022138,-0.16448167695292154,-0.22066870448512813,-0.021512254954413498,0.10217727297588343,-0.12332944482464639,-0.2453841820158155,-0.029743621690769384,0.127417623851324,0.03841562684523237,-0.04891960829157828,0.08286100507341539,-0.025126545731837948,0.07398247462349539,-0.06895227213696944,-0.011083721681113722,-0.01820491895802489,0.12188109547696904,-0.023722827783369437,0.03012897171922152,-0.1377857641859899,-0.2995342614052287,-0.19525947958877007,0.07337346333100325,-0.05933463610163303,-0.1489892687401811,0.07901917508679336,-0.06984011583040632,-0.019551525838434402,0.11510957416847618,0.04099467174143629
-0.06799599146923503,0.2526266691690979,-0.018415886575198957,-2.1710029512660904,-0.9189598334794454,3.1174237881527254,-1.3716938810265114,-0.9208299780942356,1.2733461966294517,-1.6006190853221731,0.2558007170467727,-1.0217061954325084,-0.7820077450771595,-0.45174093535187515,-0.8741840820765063,-0.41313367966113673,-0.43572295655674553,-0.0167889753764895,-0.781377186828306,-0.889738008143321,-0.3840959383600985,-0.5241226957783209,-0.031172311694826062,-0.1961659239969258,-0.1902507087850081,-1.3482447575508147,-1.0330492246132652,-1.5931674678116057,-0.19435837261045727,0.045034502845450214,-0.8677092131036217,1.6180112674741116,1.7738329083903452,-0.2985431457693193,-1.5351349201447038,-1.281202315342955,-0.20465486934165386,2.4747971346515505,1.031618805313972,2.8123592790610523,2.2013146762354134,0.83950591111369,2.2243959355719416,0.35539251036718295,-2.3741673449953127,1.7589942678810662,1.5191415379714994,2.8944995100088735,-0.8403388107501593,-1.0671949398506422,5.144964629439484,-0.7183330827819998,-1.4276090945846989,-1.5686844117798808,-0.5298345983433811,0.566869399340051,-0.4947293401255458,-0.07824175816557828,0.20780296120323627,-0.7091063307564854,-0.21464585951731815,-0.4060707298407006,-0.1703666976000695,-0.19346765638465074,-0.09651043241196304,-0.010116589657559863,-1.5119818738871313,2.20988120351041,-0.42878656428784934,-0.8063220097106814,-0.5073175938322256,-0.5514730112118248,-1.228731837196978,-1.2097068173195749,-0.6114573576060267,-0.7490898477537759,3.3073609053581046,2.8473568005933507,-0.3783340891892711,-0.3861402680978462,-0.12659631956795706,0.11995735399989796,-0.19362217044902721,-0.02671742940908053,0.011140124726556934,-0.0009827952406763433,-0.05091704602022916,0.13072909460576163,0.020616669209679493,-0.14147506261588377,-0.12006265020093758,0.07214942950479149,-0.010634608627327754,-0.40982073504630107,0.052065129063095426,-0.40697857392684567,-0.30744040747821066,-0.10659224243348397,-0.24947369645687456,-0.20095673019752913,-0.22224815821990576,-0.4352113579961651,-0.5846513637030857,-0.19429059057073586,-0.306210492372582,-0.41598805902030694,-0.17287186033653246,-0.4146187573765357,-0.05521596622717874,-0.030574448203462657,-0.2812985214961934,-0.2951276849562087,0.09172445970989337,0.008662358973389742,-0.1823424569276709,-0.7212947564181704,-0.7484535869361337,-0.21399138709964138,-0.12309028389104407,-0.18484606802909168,-0.05705467784638628,-0.10914723145291622,-0.11797089882535339,0.0479312157470024,-0.02831413626762509,-0.32973028240669744,-0.1589293018111338,-0.04377140443279626,-0.1940806823177316,-0.08511214756954051,-0.14038602576451958,-0.12001369764015236,0.03222872296269007,0.08929567254512893,0.08780185339342854,-0.0760858893314159,-0.08115508721967254,-0.041485197391260754,-0.39551731836844395,0.0759780714971065,-0.07507426657996512,-0.05272210714321647,0.10586080016905762,-0.062340221132072694,0.00614155581884118,-0.03829902907115285,0.09737644240312017,-0.1978867376572803,-0.07758384888813558,-0.2056793379653348,0.03574344812425159,-0.1272133443430197,-0.1475791170546198,0.17714314598972888,-0.07415930801689388,-0.0190987443795575,-0.012811176264128357,0.006457006648404794,0.1460999390612906,-0.055233669015315734,0.04878846705200329,-0.23445088107595458,0.08089759679306371
0.9021195144367543,1.2748840805860895,0.15962560271232973,0.19950702206067603,-0.628122959022247,0.6222431447564118,2.1134688092005898,0.387843984224836,0.37938124073547214,-1.1115837276228295,0.3335505838018328,0.1717398909702801,-0.3993650690708011,-0.3461425488022901,-0.284305144145306,-0.21034419878455493,-0.24434614670708096,-0.16028612073992501,-0.6821982829524069,-0.22311279997784758,-0.1750289372429477,-0.2098850014782381,-0.37126765813874,-0.1986574900785628,1.98695574021362,-1.5507832267525572,-0.6764291612115372,-0.7756389225797214,-0.41710020688821203,-0.4524368849176556,-0.24097607893371223,-0.6507221046202252,0.17660410666051238,-0.4638023439884269,0.004156388539812309,-0.2683807428965658,-0.2883968871051524,1.7106348053164226,1.435353738644673,0.5351951813027619,-1.3989205110948146,-1.2574677839650246,1.1881868735766943,2.021302436340613,1.0058684314434885,0.0983618668312659,0.6248429871131755,-0.47592748836683285,1.0717876113292744,3.506170430138081,-0.9269825534838433,-0.43373986367854955,2.55320395400129,-1.3080611013410008,-1.1143880137946212,1.046608604440207,-0.7674127174460531,1.434729133254742,1.6028274597039205,-0.40224577566877334,-0.32775856052960056,-0.469429853699166,-0.3189446267722325,-0.09696248195024376,-0.08506462673237485,-0.1434460189915653,-0.3754352380253183,-0.1679943047572775,-2.034546657282344,-2.5394237344586608,-1.3912269755262265,1.153350237417579,-1.7943621192015646,1.531541819294088,2.5718029029244738,2.653482130576495,-0.9841518110051358,0.1542255570822339,-0.5723127487329595,-0.642263051268296,-0.29926442544101256,-0.12478195177560598,-0.17894094592838047,-0.20094107403077544,-0.20589846086557978,-0.01192846448348391,-0.10074910672160918,-0.1685761397062765,-0.19614274729465675,-0.07939101852131157,-0.2690833358937159,-0.11840566514985085,0.09211543032029003,-0.4306090407870813,-0.19348388516986065,-0.36751274714104726,-0.21312992621218071,-0.18545480777364304,-0.15300409104676005,-0.2815964362095485,-0.18013340763894706,-0.26564711680528413,-0.18621323977069537,-0.19359907872379675,-0.3172095798236887,-0.402706268539072,-0.4347980811839066,-0.3664217378918979,0.14322063327057555,-0.05399104251211822,-0.31197282730511733,-0.27270755732931506,0.005542511017969492,0.08668317151796823,-0.304798901359169,-2.70497334944553,-2.9034678720578144,-1.0341518249160717,-0.9789684961495442,-0.4878421406450964,-0.18667815759803977,-0.19088866666304008,-0.05186197657752039,-0.049350093890833495,-0.12307154983095281,-0.1496718659445588,-0.31968870461614235,-0.10420736905356955,-0.1553086289940402,-0.22760742783300902,-0.2513589841967085,-0.22301070367030598,-0.08377099627314354,-0.22743464224530074,-0.2836868855912964,-0.19796515110652094,-0.38222751259357457,-0.05963918426871057,-0.2490051852411269,0.03765072623082367,-0.17247859066302046,-0.010980986161452079,-0.22298125912353028,-0.009010401156331994,-0.05419897471308295,-0.16259935921576155,-0.21165042199518266,-0.16431222853511293,0.0630715949246032,-0.2933638491448383,-0.04638541001687117,-0.012648764636997935,-0.24460585449314706,-0.07976798481895055,-0.1020418391160415,-0.17546791608240664,0.09060148774258073,-0.12723861946189227,0.05184042112956875,-0.006200085367401704,-0.16315188857873325,58354544585907725e-21,-0.02898375399755993
0.4326740618735058,0.8009512050380676,1.0824756906853168,-0.1469809250446542,0.4494075868523162,2.1437711256784717,2.0082352985850878,-5.9263157556661,0.01534259635616506,0.9848009962342559,-0.07094450530645555,-0.010932555534844865,0.15695915737696572,0.09557745618127943,-0.025322404308667185,0.19453871455979077,-0.006037700628878968,0.05417681112689803,-0.046407523487225905,0.03233559019456739,0.07174438912005514,0.03133886907572057,-0.05499340690681355,0.10274576618786814,0.06761582196017842,1.5770756012360279,0.026997640188694706,0.5843680099518032,0.19708265037607536,0.014333528143433876,-0.2510254637560967,-0.22892006080806795,-0.19910870352326188,-0.8550205777526169,4.447285546426847,0.050491382055616825,0.04759812802244462,-0.06355044432071348,0.9254325707730161,0.9096879488611074,0.10507546341855487,0.17115028940400678,-5.865586400073313,0.11193597415677364,0.14092521555837104,-0.03682046447118854,2.279922917741582,1.0198507467037667,0.6138819509628698,-1.5902884968933149,2.091200801531998,-0.34336006025737326,1.7891111800385433,-0.07302335427756476,2.2218948222430184,1.488883118976909,-0.40251404738404367,-0.1315006245085688,0.39194043607680734,0.17442823980571145,0.1702441476164361,-0.014577989459538448,0.1755134107343818,0.1148126198405465,-0.11388441760309446,0.15757224190370003,0.0767629999935003,0.08163936934434343,-0.032874295325954046,-0.036577023480123684,2.892281294700022,2.854179726228493,1.4122215573044554,-1.328844246125644,-0.4330489203008278,-0.4931681481496817,-0.5814615202039954,4.196482168452986,1.187445194136925,-0.24457498411931292,-0.7047123752854061,-0.17352989076086447,-0.2524879913013496,-0.1526771302251172,-0.1122302780754311,0.13683158319123348,-0.13180392746088918,0.13408480785393637,0.030551072841490806,-0.008180895241191281,-0.2109799703954004,0.12384486273077927,-0.04546384102405054,0.13469367729013348,0.11441252836832728,-0.04157312456396407,0.025156725012770668,0.0068693446844645695,0.09471673551136515,-0.08529678349695903,-0.05433345879616426,-0.0520089680083072,-0.042948056836132696,0.11984836268105176,-0.04719548948732775,0.08427742789759414,-0.04439972404427039,-0.14831872492744563,0.04419561115061379,-0.09385191487994723,0.07505506250525558,0.027091846136426713,0.0532539384868225,0.03464571528885376,-0.018788686370325963,-0.970160442639461,-0.9656905692244918,-0.4679707246262132,-0.32712397274691496,-0.41508448757890204,0.10334677749909912,-0.4024288067754426,-0.26293380776863245,0.15698927942490257,-0.010371329046069327,0.04804941432183982,0.13171813003998445,-0.0994019427243343,-0.028367290775419638,-0.0028971959842807684,-0.005293251297045204,0.03896470598112257,0.006754770492557141,-0.17598431638421358,-0.055639254344083205,0.036636865803076055,-0.014751902070616057,0.08189957404813727,0.030693609217800667,0.140218071443119,-0.08399705653015976,-0.23212112682399377,-0.07859003531564968,0.12070550796880657,-0.016864021417372237,-0.058363832786609275,0.074125681917235,0.2425998216471011,-0.12375423953874364,0.06564358223202285,0.06343319032162888,-0.14804558064888018,0.004025130808578435,-0.08954382151480492,-0.08413654864925384,0.27886041369829445,0.016705655598574263,0.1570733191098536,0.28672993137339403,0.07647711708165537,0.009393910109654341,0.002506258687191416,0.060645955063877224
0.2706029543855766,-0.4291296740281766,1.6346748500888038,-0.3259587652616329,0.8445553729803241,-1.8193540861561606,-1.370886347387085,3.010775105654206,0.9665085034233969,-0.5168137773940342,0.23813387786783935,-0.29052860872155756,-0.3938157881876874,-0.05910106670822475,-0.13888426647832966,-0.20258102314701834,-0.3386902388847678,0.003291030272720634,-0.16001422155600403,-0.0582710366454104,-0.05141033711956591,-0.10168293079632792,-0.010267288429853846,-0.036934135825382367,-0.24552204723097154,0.6176658888443128,-0.05886002681527945,-1.1754801233757648,-0.26496597837452235,-0.03060885552134989,-0.12384549408240936,-0.28188899955282476,-0.2759773664884958,-0.3109417380257523,-1.5357816622314473,-0.17323165677613828,-0.03715127806817423,-0.44309424572093864,-0.33464189049195164,0.36000354565900583,-0.07623887811843552,-0.20784788066382529,-0.1889335525416724,-0.07307049836569404,-2.3867528859661764,-0.15659578890715967,2.67194723432886,2.8254644432983875,-1.355946774069283,-0.8917608666238098,-1.138910700587025,0.4260154159340352,-1.8291929028863883,0.8821097785194788,0.9139056900550652,-1.1344368509765985,1.1982312461699196,2.105596047718037,2.12129102243965,-0.28139479592221006,-0.24813003514090104,-0.2445592883303736,-0.011847697913664345,-0.14824941560720506,-0.13792825437188946,-0.21448575565715738,-0.24670770303402048,-0.29346500499220696,-0.3800943626700352,-0.2842593923575275,3.3618777012387904,0.16026705731117186,-0.8080952992670724,-0.8331180914217283,-0.29627589687086525,-0.04953264286855739,2.267650919518715,-2.5276705899222107,-0.925241511979173,0.29265471732394494,0.7270873486800232,-0.33378360134667845,0.0502526412492914,-0.2295898842931467,-0.03156272037930797,-0.7866086088891313,0.6519757416718248,-0.03318689528270367,0.4817621283838502,-0.4536427792603885,0.268728339429528,0.6728272883630367,-0.14695591627780097,-0.13711578020904946,-0.15169154613309135,-0.02144717370262571,-0.20937643568632466,-0.1165041496798576,-0.1121942994116071,-0.028951576630160396,-0.16403529984524884,-0.23402581767484526,-0.24562917223038613,-0.013805526995483196,0.021897993831139453,-0.4205818997489962,-0.13553123106326917,-0.5206414915979019,0.08926513805545577,-0.10151901403244702,-0.17232891375502346,-0.07734790420546671,-0.08174384607454464,0.04339284054878032,-0.2610416330203183,-0.3873184654057774,-0.46332021657023026,-0.33122734200959497,-0.20320305954940043,-0.15047708694849854,-0.19804048260683507,-0.6455526453424405,1.194836960723548,-0.09232149385605282,-0.11021200785930636,-0.2919722383639522,-0.14302910047312228,-0.01616922900902476,-0.1565332972399952,0.04271660978340142,-0.05412399712692779,-0.04487030210917047,0.1632384717866166,-0.10911869246974493,-0.2548739398602899,-0.17466228694757616,-0.10879284879138029,-0.058542266142317965,-0.15087794574375143,-0.15981314755885734,-0.2340058794137673,-0.15999303049398905,0.04232021495741113,-0.12659125167481863,0.041959811879972005,0.003421207954654709,-0.002329076930459928,-0.10317013170902868,-0.0522887013638309,-0.012391423768104337,-0.02865127198174399,-0.019801102287311613,0.014091524441693351,-0.00719158079663656,-0.15336448870987288,-0.14007528976979627,-0.08227599439170073,-0.1232242082833142,-0.1337093433146375,-0.05275916160469564,0.16512999229523503,-0.0800779735846208,-0.24860739647538704
-0.48427827734633505,-0.33745623740712055,-0.17606913619546583,-0.15582713372787038,-0.2922075089342425,-0.1805524358531844,-0.2831785095326965,1.3954492240570673,-0.31878130664467735,-0.40387012284706,-0.1735731211368134,-0.18986416011216517,-0.06639431815481682,-0.1500602352256202,-0.33686912396612945,-0.2166842861565535,-0.20076866232287405,-0.04867668463238724,-0.22336387694523416,-0.16858708552187013,-0.2433383265421274,-0.10378207613623455,-0.10220358971558705,0.052925143293283884,0.19829220337208978,0.2704493381760691,0.6752627025145259,0.5421742174893888,-0.3122540604930697,-0.08960162328208429,-0.20008679810801425,0.7155758613079519,0.3873618837894378,0.2495580244058603,-4.241350966479306,-0.12764752400706286,-0.3698275969696312,0.6903360033308952,0.3212836373561567,0.7332988388881823,-0.04126074023946992,-0.173735769497986,-0.21111023085588584,-0.05751334440335831,-0.2888402222580816,-0.3873822510010842,-0.5288308021974149,-0.4069827855658945,1.3937414269169281,-0.39032276888367484,-0.2702723277275182,-0.44988024610347205,1.7120030728835103,1.655168712402612,0.010435412573039838,-0.1591881709644771,-1.6057185893395398,1.1432732649797113,0.9845884072769682,0.10856151550537706,-0.9101653545695175,0.3085465668303945,0.5510441423830551,0.4751230656853855,1.4395772264100124,-0.11664532254238748,-0.22715568656805152,-0.5082200415367693,-0.15631180214607623,-0.13066146769274187,-1.7420661835792337,0.33555119672319517,-0.35150218392149374,-0.38903636596668284,-0.19036295333702175,-0.21497300339218647,-0.5569094772358685,-0.6764246224392734,0.3481200753973957,-0.08977074368188086,-0.8022489069849317,1.4661733307168858,1.3960822620124853,1.5085527777956027,-0.12191864130753842,0.9199302392184708,-0.23227806324945677,0.262323623663414,0.2220771059753997,0.4645962602601041,0.32487020936932465,-0.4412656041640527,0.19113198284168773,0.22920867969086595,-1.1502861360947916,0.44995813338585755,-1.5095501690306201,1.370241733163743,-1.3326324768499735,2.9801215487529658,-1.102745754681256,0.8873721018562805,1.580910163288084,-0.1897219897295814,0.049625655628568174,-0.1263350327121548,0.023966013674018696,-0.15836715306282217,-0.23495570165671809,-0.07820890358640932,-0.20580221964986173,-0.21972033722951956,0.20429093018439737,0.23168767266824863,-0.17565075656233686,-0.31623389357212534,-0.4111896132050392,-0.2847247939097258,-0.3337086909455748,0.042214621516446636,-0.45361778744586934,1.4554686640179222,-0.6677057957230491,0.28307593709176804,0.3105205493055958,-0.3245770312005717,-0.12514736398384324,-0.06578768353296185,-0.0746491542252113,-0.18909988907292433,0.038206361939105184,-0.186387253924831,-0.20193928873114736,-0.09225290183530352,-0.03670487647164728,-0.11241748960444779,-0.22831921867366253,-0.0801125014782904,-1.8005012788398915,-0.07033011076663856,-0.07620853395112236,-0.21429539033275352,-0.22617583774391525,0.059883993301609185,-0.16298105473183713,0.0075120733610958,-0.07168982110402965,-0.08641150705600877,-0.11696570706622221,-0.11374886795672151,-0.06862583321445856,0.16976687699723084,0.039777274464663046,-0.1403309800996933,-0.17702225899817692,0.026353937889747665,0.09654060638993801,0.0888236172216501,0.058771634189867326,0.3219416086168096,-0.05210173869735034,-0.1363907563587231,-0.049738904576383546
-0.12818396917816716,0.034501156025794934,0.0964659502217356,-0.6796092278915443,-0.00789573582036,-0.5972702201135808,-0.10583777867108969,-0.4458123280670138,-0.04490155047933865,-0.06236802924982185,-0.14933977513131455,-0.6014725665392158,-0.9655157938649328,0.2006224619433077,-0.5634772675080949,-0.4585722788843641,-0.17640177491990056,-0.00045162474144144315,-0.8101531708410717,-0.7786972319414365,-0.6636364138271793,-0.26827329014929013,-0.08175536098252048,0.3964904367101953,-1.2185925220490796,-0.5734380005852125,-0.5846881510037578,0.49350265923187525,-0.6390666516239669,-0.7865440031253966,0.545471657921322,0.26238356965994486,-0.2095508285319118,1.0893751518332633,2.63258807056491,1.9592129740700917,-0.9118678129848999,1.189470062617482,1.8640161308635284,-0.4408137301636226,0.47517424782963724,0.5873217336163722,0.07814290464436363,0.6887813927822327,0.46191098415255233,0.6713995353315644,-0.660472786049321,-0.6332461123519008,-0.2704675323002432,-0.6612006780288502,-0.9072812683791919,-0.08791651140440247,-0.15872025731278036,-0.27726454910855414,0.11447111192056927,0.06326578395763341,-0.07780977250203018,-0.21213153852542133,-0.13575200931411519,3.5875663318733975,-0.535066297254906,2.5728092338970505,-1.6385309833777217,3.129572318037653,-0.33835283746746564,0.6193471069395627,0.26827374634025863,0.0035996105273348586,2.265983276569702,-1.3275355709678276,-0.7178174092647428,-0.07426646646991714,1.0129470334138122,-1.4338641506536465,-0.5526605710260072,-0.18725540453451223,-0.5763555918008364,-0.12128166346542299,1.402054658540053,1.5981121113808923,1.3306861153914011,-0.1013518951978122,-0.42648227032544955,1.8914494773258776,0.038527252653431855,-0.056853617954616555,-0.13974718414992124,0.024918703940842654,-0.04955755908563998,-0.09485861398050546,-0.4493890734646563,-0.0777479020163202,-0.13151141670302657,0.5628908573349302,-0.2274042292260272,0.7556390259486242,0.5259326804608792,2.3016911179641584,1.7540726372551791,0.28875219331296686,0.32037179632550467,-1.4101247112715694,-1.2948476655093133,0.15290040244780767,1.0763395883999185,1.4488090693800557,0.7690099102680129,1.4697664357471136,0.1161531111651662,-0.6136978037660388,-1.5236249485459088,-1.6118330740886013,-0.002355219590380314,-0.005960811054516277,2.704004293919702,-0.21130665534700668,-0.1899121612401195,-0.0650265180035996,-0.19828176774900266,-0.06106027258153916,0.04449254369749826,0.16674714136603225,-0.08460328184967507,-0.09933806711891556,-0.06484243562693373,-0.7952598416945814,-0.7087799205715812,-0.5918025760777543,-0.9990011223970572,-0.436867789103457,-0.22865400059119798,-0.3150101987419255,-0.007393413787541731,-0.03411209878619814,-0.055887567021902076,-0.12571453520839768,-0.11634502956207834,-0.10032719503366273,-2.5473680758765234,0.5197125933407886,0.9018521985975982,0.04996488549902574,0.00962666476736474,-0.10244897266064971,0.0623494433421234,0.09983442945507184,0.09009573764154095,-0.1351719587370328,-0.09141645585772243,-0.24521003973845112,-0.18389226200476214,0.15424485724206846,-0.04945389331193611,-0.036987756247014315,0.08391266500352075,-0.08090885453645204,0.06044891420789205,-0.07958741393969018,-0.094657008014086,0.03603480068373756,0.15171313977606102,-0.10953863422306556,-0.08474894368910851
-0.2570237799331798,-0.204839641266135,-0.20384946034388227,-0.2503588021278044,-0.021736480577800636,-0.2363969170672753,-0.21385489462717752,-0.24811754367123018,-0.22711904100747662,-0.27191775620135783,-0.1652996751370451,-0.23928199076771714,-0.10951015554316075,-0.35491626178039665,-0.21100194149853924,-0.250666421548059,-0.09204740490605592,-0.0196631601461651,-0.15057630705690903,-0.35696626697620976,-0.13701434930590123,-0.10018187273080585,-0.09055716807420029,-0.3221135308402921,-0.05105375676197226,-0.08324060358498919,0.1529886123759093,0.415801876652993,-0.3103362128567755,-0.2253739489530617,-0.39795136314827745,-0.7033356360529264,-0.08521769638288809,-0.2448531582676661,0.4209121790959787,-3.0482601903547053,0.011181534513204857,0.3229783696267356,-0.10435015057356482,0.9944542575043828,-0.7053909016526781,-0.5875744783802161,-0.1948813174107769,-0.060839283000932526,-0.31509176380196885,-0.14205188163409316,-0.3263792457912014,-0.24562295876155865,-0.31300516940220263,-0.5981356735025339,-0.7279808813364453,-0.3574676479414306,-0.12872489158676234,-0.23222599671557825,-0.07342099579532989,-0.012063599226561847,-0.12714235531856324,-0.20598381627176415,-0.20072943673171048,-9.521947034325162,2.0875079266361194,-1.552443704852035,0.26041809166784236,0.5283772045987231,0.32168125392056335,-0.18290470775761797,1.3494784282490515,1.4327302458370976,0.825574590216306,1.9049250059068925,-1.4133501209345354,-0.22206644982619145,-0.32913461389158827,-0.7635221580967045,-0.23115324622287195,-0.19253096547609538,-1.398620312488126,-0.28749159816229464,-0.13889029164780592,-0.23742073310272152,-0.23484251938212033,-0.05057195425658779,0.023317940023927328,-0.20450708838235718,0.02740934292701639,0.07217694222846562,0.06618035929938454,0.09164086179085972,-0.002758063544918603,0.025119589117346977,-0.10561877603528748,0.01791132895201438,-0.09896181151572286,2.3920240409138427,1.3324487640476457,1.1098685985411922,1.5537573653010939,-0.25689204594451287,0.40412219700739,-1.044480151617854,1.1278877989711267,2.2203265207457474,1.2056762989076872,-0.07217683167499007,-0.3658211374428338,-0.26215555782897404,-3.4693938312321175,-0.4031010388654496,-0.06806294533269998,0.008890354986841258,-0.29108529458596244,-0.2088495737003217,0.04730260337410012,0.04628772740795888,-0.0830534381694161,-0.28564732384670155,-0.22415372765404268,0.02832342269536201,-0.16058581039146622,-0.0888360182877381,0.18178977467646643,0.030579909142279614,-0.02055035446453294,-0.009439638133298803,-0.21486138108866623,-1.538920486439304,-0.2170317513057034,-2.0614004590521784,-2.154087623783283,0.07096264831341578,0.026755654215874648,-0.04263296899828843,-0.08893613070815137,-0.07768759305623538,-0.02250576228333899,-0.195895577490915,-0.3185291537785774,-0.08726695753296594,0.28512110077726144,-0.17784672152890713,-0.25753942339317076,-0.1696861745723397,-0.1115808124963691,-0.07261755329811187,-0.11796687498385619,0.09388644393795023,-0.07089333146118006,0.02073319147120087,0.0016537300833170704,-0.03580733942358255,0.02578249955078233,-0.09503995306034534,0.17724585666183668,0.01039560889919438,-0.035023030428758414,0.23165945967650522,-0.1450900267450645,-0.004831588975182014,-0.09120718376773247,-0.08155962061868335,0.05761920515799197,0.04145955303901225,-0.03834892600099993
0.19847915682163905,0.005242609572008988,0.10777605422049451,0.035363751911995096,0.11459408713567881,0.07126112467395908,0.06499123134539754,-0.2294694124559785,0.07265590689749706,0.196646573649115,0.22566083866603795,0.16893080498858462,0.09757539806107823,-0.038208333235924034,0.08928961180980526,0.06906911517221599,0.0540395387837164,-0.02563408883186706,0.06063929243463069,0.16800246814342767,0.0032252374514103355,0.1901940901299774,-0.17412115751191198,0.01239157002628174,1.7824065046998279,-0.025801676234063573,2.3199573392916766,1.467111724703392,-0.11832119253553683,0.01619723370149172,0.1406561273768867,0.6345629998995517,1.5806958849913597,0.11967474156055533,-2.1672622839853077,-0.3976585194571856,0.14007548496928846,1.177002712670548,1.5387551495607414,2.0169858471661564,1.575946342026181,-0.7340232452846388,0.11803109805870261,-0.5107899566855684,1.2351176820576124,-0.476700759330907,-0.2888618913641909,0.02477685109134356,-0.1340393281319021,0.4293431076779238,3.1040994009992136,0.2413600691470319,0.1179235841918784,0.32665739208040084,0.07002383102882358,0.10977442476647717,0.05749923979234137,0.14991650087908506,0.2804493946906088,3.415270001868215,-0.0005993301622954174,0.35270477033134084,-0.07721091876774315,0.45291525436952057,0.5670392347840051,0.1060700707845497,2.6325055029723794,2.1751767700459355,-1.5689777502181284,1.577540113421247,0.002817151415521896,-0.24888192222912955,-1.1133961591024177,1.3429957640753065,-0.4882611743088472,1.6249608103312112,-0.9510565275667685,-0.37450093530734424,0.05233372287472439,0.17583149058714387,0.07311711337799463,0.0912741547424801,0.10806810653344746,-0.018952804821656965,-0.038640050275454,-0.04108349967680619,-0.014541134392167584,-0.03962194137772891,0.21244473425592417,0.2024523983585585,-0.1808945257685479,0.048960777856738295,-0.23421214499612958,0.6749204200837495,-0.30759340018228876,-0.8706688590452042,-0.15773755765047442,-0.2658852145357736,0.4904203481754226,-0.1583070935675055,0.8563746307181999,1.2020822384709324,1.2346797758288701,1.0065412576817447,2.1885019064507705,0.648919371800547,0.7398988566484869,0.9445991173005112,-0.024007185014011258,0.13225568650233266,0.9174527502336176,1.0205510746104571,-0.03002192185690604,0.26282525763843473,-0.9669809351355009,-0.6821866096590435,-0.6403392560067318,0.12907008956060376,-0.1057159817179248,0.09166017231599644,-0.033453261403011,-0.07798412783306756,0.2743527760177722,0.08076882782566028,0.014769090735568454,-0.032484732429687344,0.019982094823531825,0.09094560644247637,0.04815030342669735,-0.06168654099136184,0.07021318529611038,0.00034075629284306767,0.17707699930899426,0.10068090379539593,-0.015243031297335828,0.12848814651723353,0.024149594306938842,0.01399455715622214,0.3955582681583301,0.08511739959253556,-0.04403622716631146,-0.07285424742591212,0.012503878179274813,0.1052411294129051,-0.10905063351710904,0.23197751777104417,0.09798998285569532,0.012713855636215974,0.09912627155205228,0.020643957564127034,0.12455385371754799,0.018890060732223445,-0.03091554231902487,0.13432123408974017,0.08812591325276722,-0.012229734367108877,-0.0963450811685797,0.10921986942436047,0.14724338083378827,0.03734456530171705,-0.13685559199554273,0.11501393400378859,0.10989615845046143
-0.4269806809802091,-0.5569634199940331,0.2565510465780455,-0.4425213353079619,-0.11220973732037492,-1.6952270283926327,-0.6548706283989316,-0.7156581379966954,-0.49523343526235236,-0.45667046835098773,0.536291686949665,-0.5143082236426614,-0.615690450473873,-0.35813246005136384,-0.4833842724007773,-0.3690091430694444,-0.34327813838783505,0.041943303815448744,-0.48949479434786886,-0.4512382763735338,-0.11326095985918318,-0.3854874668567676,-0.126662762280072,-0.19707155497022952,-0.715548248043165,-0.05616045627650943,0.2967764102978848,1.058762166569424,-0.37785628064727333,-0.10982318970601415,-0.1485888695288945,-0.49723442594195716,-0.6145273099589789,-0.3751082462921896,-2.063074356628003,-0.26836824820707106,-0.2097300320676508,-0.24934904067552963,-0.2425411433641748,-0.04554448248720432,-1.2927915657452387,1.0218458388500629,2.983448023393178,0.2490634257586066,1.2783849617460648,0.16083580558275626,-3.18248874648076,-1.1833051394680345,0.9249755162845192,-0.5964367043695471,-0.38662057582946024,-0.2751545395866342,-0.609631737748523,-0.42668215641093415,-0.2657861436921564,-0.252846417462958,-0.40849108009524143,-0.4930564845724293,-0.1905986603127357,1.5290306895485026,0.5626239357217849,-1.0506210464090038,1.4133479855550424,-0.593989526815957,1.334044828549552,0.015183375040248422,-0.36328092572688003,0.5482744339496666,2.7612261261476103,1.5865922698467436,-1.263412957929438,0.1900729665958685,2.1091401350101187,1.9454418577832204,0.3682236662190704,0.24277435669423825,1.237008660437061,-1.2124944575188283,-0.48652534114061663,-0.20773209522845745,-0.39992996486845195,-0.1479600323661381,-0.16309805438831923,-0.10790742726099799,0.15721884268704642,0.5000267943565038,-0.041684082293024595,0.09761203243454264,-0.05413150316816255,-0.05902375783356064,-0.0941649165030323,-0.004791729067194381,-0.13298772239518455,-2.3075700395403995,-0.3523824838992268,0.9037438871272248,-0.3837812398846397,-0.2113632583874741,-0.18561135462296324,-0.3173749933913524,-0.2663588496015581,0.042270972483368606,0.15597102733664323,-1.6198448809295345,-3.4576089387633147,1.4665825459859259,1.5532704357799727,1.966387816280555,0.24297415862217517,0.9654051662242653,-0.425865699139683,-0.9089891178163846,-0.36036361470249156,-0.08060430918114883,1.5562175318090075,2.4710308779978694,-0.7288729652864304,-1.2252705275977003,-1.0914119149630006,-0.689401184017733,-0.17039901203153326,1.2395216461366314,-0.31010670775388227,-0.34489446330581597,-0.036989851901453374,-0.5746550004879514,-0.468594886127418,-0.3594054419519759,-0.2880962800024888,-0.2990997864452489,-0.10552182251484143,-0.09770817381514253,-0.1914343969101534,-0.3330928802309509,-0.32834832798558566,-0.6397755399376496,-0.3122616399671031,-0.19419058484731955,-0.5949197534933988,-0.0966589574681999,-0.1563900657892591,-0.11161698398050166,-0.15978436892519687,0.06660312863847337,-0.0030092750897893024,-0.17379881802978467,-0.08506390379574752,-0.011916028362214238,-0.17862589150973313,-0.2520081496327234,-0.07660451770624076,-0.05861064318690431,-0.03785503990728088,-0.23280403491494653,0.014755782521872804,0.12419893044872465,-0.008178392375960594,0.06796310378819372,-0.3446326875264574,-0.05970069033931421,0.15882285566563972,-0.1147334593486401,0.01738722747339712
-1.6251892847426233,-0.5987895000084288,0.49682716728659004,-0.29209118418209373,-0.4017968355132066,0.7645386615987776,1.8153659535855413,1.5387178749371369,-1.6301024247256808,-0.9340101732000315,-2.6723796719955843,-0.3664886048035148,-0.4526046835889181,-0.14838433667026557,-0.06431433290831134,-0.28783266837632465,-0.1925776889554237,-0.16546754537271305,-0.20637911459848793,-0.34559771673801504,-0.1431832740837087,-0.2671308643721038,-0.09541518641702142,-0.22116876056556722,-0.11191041090440132,-0.21307203820714196,-0.3974011130649918,-1.7670097799933988,-0.3898278691601215,-0.2601839864896807,-0.06911055504290925,-0.2389408421253331,-0.3978571279089969,0.25221638199167307,-2.5861495083186425,-0.24032232027684083,-0.129831881009608,-1.6730471128317805,-1.5210168651762992,0.18981617442116563,-0.5660578122476375,-0.41105526775720624,-0.6278264559987495,1.4466467988872984,-1.0410502201991652,1.6082008155625314,-1.2213153625623885,1.288061811487717,0.5609304391020808,3.149844650816363,2.7140720549903397,-0.42826596629379593,-1.9240624924074692,0.7250880832197778,-0.261358454867869,0.6724270222191283,-0.4362229019485092,-2.446711848577523,-2.5172155045231652,1.2429520403639602,-0.26404810657750566,1.6056699045622702,-0.224348797812268,-0.37051130968805973,-0.2068610468221147,-0.05027382281625936,1.3818426497977523,1.2474656217407316,0.1715845194238138,0.8810838993915722,1.7770805188607097,2.8275294449879103,0.6693262326484892,-1.25933618359336,1.458673327561721,1.3307115002321654,2.1069515774161314,0.6239957568716495,-0.21361863592989624,-2.2009362966398207,-0.8071385162803485,-0.11667393124078357,-0.23626333597686086,-0.08200399378154906,-0.15914245771322233,-0.32118929627465626,-0.1711163181271237,-0.17800653946468417,-0.026390631668988876,-0.09839698353174227,-0.24647886030506327,-0.028375969795376488,-0.06408346874189283,-0.33595163895562563,-0.42014018940934755,-0.32499678975966384,-0.4543162375202276,-0.22965551441347384,-0.20579283792382716,-0.23956857084979796,-0.15811743652395344,-0.5160678918719434,-0.41268242061061955,-0.3077740697366949,-0.18587903929437335,-0.9467037739167982,-0.1347690980152429,-0.8943623778374351,-0.005883807209167565,-0.08632952829866498,0.1285719934721107,0.035552121879656666,1.1097849771153405,-0.1756504933002926,-1.022863153862968,-0.17684371818492545,0.41248197810090714,-0.851383026194865,-0.34800739259656455,-2.447347824935014,-0.11132632806372746,-0.947889557119035,-0.11463990564787717,0.06365724432984128,-0.3132802127516016,-0.41810959752149435,-0.7721277379281648,-0.1654094292986764,-0.1996015792551571,-0.2794854063751451,-0.38163897012871567,-0.05520090293684434,-0.1278796216288713,-0.1370826385708061,-0.0859261982064101,-2.9847386767862787,-0.7836222694023834,-0.835573922013689,-0.169766151945977,-0.04735269340228269,-0.1314832164790679,-0.12864471318059775,-0.03543131056627662,0.029977897022733298,-0.08969165656941651,-0.06036849758851956,-0.19750689138370048,-0.0113467256526689,0.021328190857801473,-0.14268215321076272,-0.1084360012838064,-0.11588584948071239,-0.20277508466540228,-0.1338850268327864,0.04719414848348321,-0.05189772987326251,0.010253380567526543,0.028889766882411017,0.14842932607399914,0.0278980889738713,-0.08610851389108445,0.024414851416122454,0.07670558049043784
-1.0210888473616344,-0.5915483110138355,-2.7256200103186257,-0.18406103266457,-0.7416192389810713,-0.9368290193574741,-1.1143438757985469,0.9593034254200057,-0.9183632679574112,-0.7395981381170442,1.3975640421926727,-0.0970341884883983,-0.10325814052579213,-0.1852690220201708,-0.13741169239598028,-0.0766117342249807,-0.15644126940899025,-0.24185769901394993,-0.17492074121481702,-0.2303906817597824,-0.1402676595329307,-0.19693016329075258,0.24101214481706654,-0.20054160262920506,-0.21445816048818434,-0.26402706845934587,-0.5188141238185742,-0.5215440420383911,-0.09012412181123458,-0.18777607959321246,-0.21157062267570026,0.0882942347787803,-0.2862695047989795,-0.06694357792560653,0.329358412201087,-0.16671645826388828,-0.0883089546818023,0.36937496884238463,0.5934956943498559,-1.1412628961224514,-0.1628795865843877,-0.18880915571212784,-1.0112632286224554,-0.14055108360742297,0.9327289476735613,-0.08729617460484788,2.222475964617704,-4.3294786710917235,-0.10496196926915471,4.143495951027519,1.8021625108833927,-0.5812302641668582,1.243426562809224,0.43609200461007297,-3.0931140130420682,0.7210709729212511,-2.465473678893324,1.3461555906937446,0.06525829356644786,-0.34460533670897336,-0.18854544376988344,-0.23054245393452033,-0.09887650242665803,-0.19594164973711875,-0.3012784935666813,-0.03489872777002388,-0.3154681006906786,-0.1281332392703137,-0.6169114783997987,0.06361247212052813,-4.488922284550762,-0.16615914759767753,0.12541236370377742,3.387660827992975,1.4608485092365957,-1.7552101052429823,1.6298079523298694,3.1347917366033284,0.4212288285930483,1.4767472266006652,0.2918925910675214,-0.6464499992192909,-0.25546052892723947,-0.20669044656637459,-0.13517640475812107,-0.04359901434975924,-0.028804071387843008,-0.07172781188882149,-0.053008324500664096,-0.18999528558256598,-0.17240627840927586,-0.12935669700308464,0.0035145033824871184,-0.30126932909745,-0.159417270784653,-0.28277605276776446,-0.21524580908655663,-0.1141702919093842,-0.18503983174151753,-0.18259580449246343,-0.3435103046954301,-0.15139886793292875,-0.3272565498087267,-0.31170121837380627,-0.7175879985465897,-2.9715748908999404,-0.6357964950832986,-3.115313570209882,0.16102523916522432,-0.05910488586291982,-0.6508302230096839,-0.6465695787103599,-0.1334570520209613,0.06083629693964221,-0.15061808293930976,-0.4538916507369307,1.8083394846918237,-1.0137973343056481,-1.1373920907157211,-0.6784692344217668,-0.21869194224044508,-0.1524101025583224,-0.08565539036677,-0.20031418154469988,0.014068496150453297,-0.3439737681535226,-0.02121942371211406,-0.22956719944642626,-0.18528304788144925,-0.13211626322549172,0.04596083199177944,-0.13518797418164213,-0.22226434945023377,0.007825114165768447,-0.18407284725796141,-2.0169106984708876,-0.24508111767806182,-0.21737803918378054,-0.28312882372597065,-0.029547227764867498,-0.0021567272623147743,0.06341075359467795,0.05067979088419634,-0.043761576466365484,-0.09328174783363251,0.05997779825035008,-0.11080776536115315,-0.05485750987678738,-0.19802655286066037,0.06715479872542295,-0.26083341804848037,0.005177908426902179,-0.03043335496662874,-0.06979111257531397,-0.044152810122402374,0.09502709571473536,-0.06081988957261937,-0.04947547822917265,0.26170033904132023,-0.009096980693723456,-0.01661195913883302,-0.055548491754218034,0.0038056101259865372
-0.4096685827626138,-0.5242000649192838,0.03949423420326608,0.06759656000370856,-0.8639967080387602,-0.084690352842294,0.1640999220552399,0.5359392000648279,-0.22881923928058207,-0.4679148679666693,0.1169060420367652,0.1386037324538619,0.164615863997133,0.01525291817836131,0.18058756873026985,0.10202710413180528,-0.013617070122470674,0.03941630764827279,0.03933826650524201,-0.09763829867638442,0.14324395583525365,0.01986525651916222,-0.03387352619889352,0.057971051097520515,0.1204087895969707,0.4262506580655987,-0.5166365329703049,-0.12406428519040845,0.1643123281130898,0.1391885381059208,0.14634017117636455,-0.08587001591530463,-0.13399455087761428,0.19253763868033014,0.27968634312336155,-0.025393182195801747,0.17091883489590007,-0.22548459191892115,0.05398714796786009,1.0762752963785456,0.08261064161128005,0.03762858651832028,-0.08692831513057947,0.03144670293533757,-0.145604542141807,0.03146202135270017,-0.5730845187966345,-0.40582240999696484,1.0454829882499324,-3.2377716991818435,-0.41576215469926353,-0.727111172302576,1.1724107398588104,1.4490176073169465,-0.2519773317233794,-0.06685881346581445,-0.3868773836828214,0.35033465987892354,0.09603918625621725,0.14745385576227898,0.15768121916528233,0.10954465089237511,-0.10420112014317043,0.12300124116075482,0.2032598972060114,-0.1310404242637756,0.015941899202950596,0.2208111180037565,0.09041911534921722,-0.11851198438417353,6.158918730005893,1.9607832740103004,1.4235560388164468,0.49531044727061685,-0.20774011767754363,-0.27401356835927954,-3.062689126817874,1.4752477430941568,1.0906076490940289,0.31203830511589475,2.459789724921352,-0.42202771241606596,-0.18309393622663214,-0.7024282898465475,-0.11671196822568322,-0.05829989606297962,0.027303699825475123,0.03246013267681566,0.014319785244672579,0.18415725890470405,-0.0367972221081418,0.1106787919300208,0.013200673456661326,0.2277320992133425,0.15024435197366282,-0.037947423136409655,0.1267114116381457,0.15517801604758455,-0.0034313291265465925,0.07722394042360779,0.0708423249643778,-0.026361285672571493,0.07967512238449727,-0.21093175061045066,0.1969000021027179,0.03309111047688038,0.08186514439553226,-0.007048709773305125,-0.16021615134385986,-0.06710843730742642,-0.1292195659336258,0.00992737682267019,0.07405996450694918,-0.25901018199311765,0.1500691863821363,-0.45799355967764666,-0.48225099326167103,-0.07436416901495722,-0.06993294148381995,-0.025522057041926418,-0.4322170707445703,-0.3625616017512879,-0.3622399763922995,0.04544088903143315,-0.15668757978677222,-0.009871073318364766,0.17744163465933524,0.0779555410475001,0.08075783585579617,0.04919399171364383,-0.29757183792405484,0.18550776430349306,0.15687732594423093,0.09316086965627592,-0.08230145586420837,0.03393840153196773,0.12747598262348192,-0.17473685478803894,0.12196541216891392,0.061484719850736363,-0.012683208999435482,0.004579986340564029,0.018405481347654677,0.04064160166149036,0.15397747678376367,0.002155463420411968,-0.019599070358947028,0.06340856323201502,-0.0030797169285451233,0.005523257741680684,0.024229292744194348,0.22400898608187708,-0.0022795591139296357,0.1001798718712941,0.02476874891170775,-0.10615966095987567,0.0037266219460599945,0.0466582468672349,0.10337586384419888,0.07428428931127584,-0.1595393937445874,0.00844900718447153,0.07817187888832253
0.022939890468599063,0.15317054337302538,0.016869892380455897,-0.05671764864298232,-0.18299417003669677,0.0870299314374813,-0.07894733508764068,-0.5091519204097055,-0.09634648905394631,-0.14708128581537258,0.09120482749427526,-0.11410200722162067,0.0740766553801387,-0.10349149832075155,-0.0009584734484270272,0.059823785448771954,0.10233432104323972,0.12898616514522177,-0.03526645710757112,-0.034476253502698055,0.031084774388169027,-0.1062562689881564,0.15353707797974026,0.08008115640488955,-0.14291479031423493,0.0804994747004705,0.5999685794233351,0.6358052481148001,-0.11093360760962348,0.18270055559450826,-0.04651577684403488,0.22516765341409858,0.23744361294768834,1.5903780890957298,3.945025542130227,-0.12544211904355884,-0.02708329684993487,0.09382258905851724,-0.04185384452480504,0.588152525856318,0.03624308207145055,-0.06461288123737897,-0.12354217831888722,-0.08369872428815811,0.07759794869625708,0.014118734177211,-0.35295648121896833,-0.13711875915572672,-0.6495366472679802,-0.06718713724382092,-1.047297177928547,-0.267310182148783,1.3823580945969096,-0.3132536047037849,-0.46215322270294307,0.002474027581395858,-0.8679775788266135,-1.371492960802854,-1.5015018372649689,-0.22858020394103964,-0.04092307527698794,-0.08135486879820199,-0.08620868475611161,-0.17504323382040346,-0.1774327789292394,0.06051148336359158,-0.001997547048968867,0.22300076015217696,-0.09908733325818618,-0.03279437142656258,2.11894195970374,0.8102598493706848,-0.698789890775498,-0.7795576450545987,0.02327700361426277,0.03006925216686799,2.5521277347711346,0.108953960137932,0.9130202357444069,2.1504275823808263,-0.5666845332940383,-0.2241234236933697,0.12036558971291007,-0.048385940905823425,0.23685217285593238,0.2193047189234053,-0.07219478387829481,-0.07600787903295537,-0.04661713284051345,0.06848905328007136,0.21504369318536612,0.014652958278220553,-0.2104324684905882,-0.04595434001652274,-0.09034705026943797,-0.18698276728800364,0.14779170334351405,-0.11157959927076495,-0.11076900076575423,-0.12790907806666899,0.05146587575722903,-0.039242619739235304,-0.11847427313353885,0.07121385683385206,0.1744766938171287,0.09448469676324539,-0.13296947936415185,0.0101518121047857,0.37583183921310853,0.11202117897846985,0.09351480650666517,0.010887715851655879,-0.04441611472853517,0.06241636879764384,0.05219049517398217,-0.17151760305818603,-0.0695419889131476,0.08929537654881656,0.1076394159405329,0.041710825110011916,0.5884625262599268,0.7153503391697055,0.2816535135449887,-0.3220283607326918,-0.573301407451409,-0.08337944599117784,-0.04140371538851843,0.1751092444178149,0.21395604198992846,-0.11178998554028392,0.11053477753515767,0.002345649382000582,-0.07175601801170901,0.045948933349831446,-0.05301838355038757,-0.04992414685763384,0.08980349803232326,-0.048546447657570116,-0.14063621962533854,0.07193776684070059,0.04442106584947504,0.044892914055949605,-0.08619168166141328,0.007039128027204513,-0.03697035275275192,0.11823966555813326,-0.04082932279822748,0.0460005736084547,-0.07391450366752007,0.002984606067756614,0.1779353650791577,-0.10899245899679307,0.04185480510625939,-0.02802361965615468,-0.13892018978663653,0.05533312667938606,-0.14708181810307341,-0.14877771262597395,0.09087086792566816,0.04890828666865487,0.04942283307652747,0.2222305355117815,-0.05269328694988587
-0.8661886220605748,-0.6132968556994766,-0.5534221155836445,-0.6829732232272168,-0.7468638539670114,-0.6235261218441199,-0.6707032283940532,-0.756654950860813,-0.7036434808571845,-0.5836522596184511,-0.7514101156160834,-0.6835405179701144,-0.7886636980148936,-0.7511784342350489,-0.5819828687642107,-0.398213216936989,-0.49244982988214187,-0.08456404810386277,-0.7822229488146994,-0.6440696867405867,-0.7912993080792322,-0.3771813998863117,-0.22028852645140393,-0.48363156022977954,-0.24868141214921977,-0.437719399287795,-0.35375366289063337,-0.4407214813612658,-0.45602740057369895,-0.328670271601494,-0.39303478677407777,-0.29937836942929014,-0.3630810005557009,-0.6349839058449693,-0.8949645099620726,-0.29848121678218104,-0.2966197211006291,-0.778522738317286,-0.5697339473102768,-0.8931589322636978,-0.6080789892377744,-0.5437878126658143,-0.6306677044802275,-0.5875283167406343,-0.5595402264089395,-0.33153588603422873,-0.8390941437683688,-1.2091274884380876,-0.9699588716915786,-0.6170420824088276,-1.2942324101133482,-0.5363683623551057,-1.3303801391658319,-0.7535649596695464,-0.5500176996321868,-0.6104097873456387,-0.4538600999149754,-0.5680626552702364,-0.6313865940473147,-0.11656855296769092,0.49294035074649045,-0.5883038134870937,0.5002004528879401,-0.04137404511646074,-0.10704179563302235,-0.17944670297799628,-0.5162082362060714,-0.29123403728978364,-0.40443346467330765,-0.36730677968003644,-0.1364335654688928,-0.9370026863260945,-0.7471270243433102,-0.7268768993229424,-0.5551552564304745,-0.696995350634505,0.3804053208486908,-0.4593905064547662,-1.0526267680983983,-0.5193316145701293,-0.31461718448621284,0.3673579389383548,-0.48531881613173955,-1.0504961144043448,-0.0767156613363141,-0.08514356029548915,0.09011814361633379,-0.178656505054513,-0.059702207399924004,0.022656319500865246,0.3295632229214936,-0.15091854015076836,-0.10613014072347261,-0.33931238144937864,-0.8605054105223923,-0.1842433084069483,-0.7913823121489466,-0.8639771842366482,-0.44746995717121385,-0.8605098384714038,-0.519507723196357,-0.6108158515162936,-0.6546476929531698,-0.3688434002536663,-0.3496234044710106,-0.49823073743725327,-0.45795155727605524,-0.6786917028525417,-0.20485821710357985,0.43876458790300377,-0.40124441922002607,-0.5878941513750061,0.017509844628212413,0.005046291989880469,-0.25391016691782603,-0.9316855885598637,-0.953685531441756,-0.4014424823997391,-0.3865884713130621,-0.5521255265930107,0.2404921720571536,0.14317717584530226,-0.14426166583006206,-0.03872531328098944,2.285366850636279,-0.841208465027699,-0.3247315688972899,-0.3534091727699855,-0.4497889083380783,-0.2953057703404621,-0.31227550807597004,-0.29083826694785986,-0.21470782462120172,-0.45819982784276814,-0.11167046794082283,-0.6620403921697231,-1.501754575396323,-1.547782041607536,0.14415843126209524,-0.11506352071487433,-0.23810473820069125,-0.11156752479707756,0.36185718563855723,0.03356817408234477,-0.07075030330701122,-0.089480147832797,0.10595226163196059,-0.2722247230591849,-0.1461919184646221,0.04741696503243668,0.01769893080297454,-0.18628573168613485,-0.11393931890553204,-0.1291386169503584,-0.10902415923469981,-0.12320801085013626,0.2553746849468501,-0.14338498150988563,0.07268308551704,0.03092413441677566,-0.03572163442977279,-0.11403223870766785,-0.2129636435563286
-0.4937451239430499,-0.5298999478155013,-0.5470301812765068,-0.43133252056301163,-0.2814631342477277,-0.5797013943805299,-0.281252473250439,-0.7600608580593311,-0.7439147914678739,-0.3393878471915374,-0.6205155971783824,-0.4050091350153267,-0.4932685958716324,-0.44003470332512856,-0.39405211305286797,-0.5028201041209541,-0.4963000166643393,-0.12383288151471838,-0.5575330802415416,-0.6761314265506685,-0.43849247800188745,-0.2842004135699958,-0.3250890400718391,-0.7117640816243187,-0.14315504231496953,-0.3302363006613148,-0.44789345964484517,-0.2998479063320912,-0.34311157972784717,-0.24529228863038682,-0.5763924190554334,0.03065483211891404,-0.013595735948651797,-0.565679358165917,-1.1033784958772288,-0.23275077659448187,-0.33136772511760476,-1.1022687164673335,-1.1809384323922694,-1.4330539114906033,-0.30923873910421873,-0.31599626044002477,-0.6079049141866453,-0.32570262615820744,-0.4491607117605601,-0.3522608538068584,-0.7904706810841506,-0.7491924280004079,-0.6117365531936599,0.4520952630286339,-1.1998842055164214,-0.3969669904508036,-0.7536256348414577,-0.6669391842112551,-0.5676417500245853,-0.3788385591726783,-0.517755367288784,-0.4750627028928636,-0.31380673865015485,-1.6378590245936355,0.49389804042658325,0.6148522174151441,0.7199463091599576,-0.14639893316509722,0.0553426158538569,0.01700375736770454,-0.22902068210369494,-0.4357799651917695,-0.342421882716576,-0.5981499603928415,1.1710366838358668,-1.1126242814761518,-0.5865279982145604,-0.7283915589179157,-0.3977223279112214,-0.4428254981842475,1.6698463021518999,-0.7153379261713041,-0.5495630954868482,-0.4455169804724665,-0.781807472848174,0.04756051090710161,-0.3002854057120078,-0.34268807513182964,-0.07134503753946955,0.19394622560598715,-0.19268528262968834,-0.10017068075174085,-0.20805905550208678,-0.2301589190524978,-0.43380945960142836,-0.05085991227868195,0.0465939083762454,0.9214899012709362,-5.438988838688479,0.756328838612108,-5.3083520594587785,2.0235227234463022,0.3641012528296125,1.3340998686285834,0.43341009987462775,-1.8173787423710188,-0.5365378351986364,-1.5646034961432165,-0.5125864764196576,-2.597441279250447,-0.6448857314936377,-1.634608188749347,-0.18241656440218268,-0.059112840641345525,-0.5325319674906188,-0.5529843251388046,-0.2029935604871168,0.02701980585057395,-0.24621955244351035,-0.9382426301196047,-0.8790389968851239,-0.24189953884822749,-0.4955399803242064,-0.5501600342625055,-0.25132342379660694,-0.12929734257932635,-0.22613822532164696,1.9317826996758198,-0.82536836886956,1.0433500639729039,2.5107556622609426,5.609355889412204,1.9740136125978405,-1.6860715649599627,1.4957243043456656,-1.3852283645915093,-0.14541901038569485,-0.389576745310603,-0.39587570352910334,-0.7374317179432445,-0.8361393282596749,-1.1027895001753638,-0.8655496011275287,-0.02904285937064059,-0.2686366497369405,-0.05937423150808554,-0.27926852030592764,0.001690114090075631,-0.014452288918271092,-0.09662225055957524,-0.15583483136441126,-0.07807952697042486,-0.1945544446648415,-0.15488256489388014,-0.028401175453527792,-0.18855086444681557,0.13787950160447407,-0.23063672781864866,-0.02641281905586358,-0.03660827776306498,-0.03671885320884295,0.1379278062276884,0.021032447964827086,-0.18655495738903444,-0.06029163329824572,-0.056003723252827264,-0.12374486108926126
0.5852548091147999,0.7362995765128817,0.8516526424289366,0.6880652673663475,0.5421365571719071,0.656666564297293,0.4148983985693694,0.5189668255690498,0.6692676987135265,0.6605265497511922,0.7195150283553573,0.7655217092110218,0.8097528871377604,0.41871825218357933,0.7893103341901598,0.5182221339240057,0.625054256753447,0.29695986334423585,0.9121318164509307,0.7982714792841255,0.6094157722311957,0.37061843667415684,0.28435258465114144,0.28477993771291127,0.3480375618956362,0.38757336319149444,-0.19046037087929057,-0.27903082181052546,0.44576721621903914,0.38648236305129413,0.2674108987062088,-0.747761438871904,-0.6691165073410996,0.4137135859833649,0.8039461472355935,0.5016794253534996,0.2660934836903789,-0.19472561519008563,-0.2851014948146156,0.30022276308967705,0.6080380240684921,0.5954686407935158,0.29174918439641984,-0.1910861922440486,0.48486572221187135,-0.20906224551339728,0.6746438070948851,0.591349633133232,0.5982063678316192,0.6192902293224904,0.4693121574094829,0.3589111906042819,0.7327419929381317,0.8931087799335155,0.7230535907564333,-0.14597427182166503,0.5502973913219873,0.7921785211313256,0.6985419187490572,4.438579889093781,1.5646620062707204,-1.2418853119429258,1.346047714847403,-1.2092889834541527,-1.0347356524268834,0.01577987078686504,-1.065767532297862,-7.123825847822863,0.0030635850848653827,-0.1643058312494525,0.8802131582543873,0.8888871357283537,0.20044321629040202,0.44479666487747077,-0.10392683307476248,0.5513067066865294,0.6093404000811521,0.7467015802709495,0.34255014143990664,0.6452954071268204,0.4808458895435899,0.23238259608533374,0.46211919091398007,0.2401972795256276,0.22639706151962735,0.01084249708865934,0.18185856997279745,0.08681480870225718,0.16713943668381526,0.25725213967691857,0.5161192841079543,0.35864222725724665,0.11411002176981622,-1.4372767562714213,5.9184285049044,0.39457555842225794,5.417667254678717,0.1085734488712323,-1.0096508967390951,0.49896012808846535,-0.5038724506752285,0.3862509472573531,-1.6116124630701496,-0.6846681206759607,4.998310560724807,5.02813167123959,2.118663439606864,0.7696035233630735,0.11974224977133194,0.042615838089475874,-0.3030683662091177,-0.27529456300467187,0.2519729206395917,0.15666877925764974,-3.277968048803952,-1.3885270075781762,-1.640543146365807,0.47874897787926024,0.23856708304211413,0.25226928151344935,0.07727656192029815,0.10974960247274793,0.1828925365212124,0.31145236259870157,0.19229805716541415,1.6204886916058627,-2.8144843795706325,0.5486826723694345,4.582366214642981,-0.46914446054142445,1.2861140375554896,0.8490080865215492,0.2623748896707802,-1.7165060487839368,0.26211829092958616,0.1959910132598638,0.4792278314788142,0.2937273568061569,2.8812836258360917,0.0796620755738013,0.243061508155111,-0.0818793024941485,0.1070404335630756,0.1716601758268248,0.04334326662448356,0.14071233117143436,0.2779577515721143,0.14591238258270173,0.14747886653727066,0.2540185780942729,-0.012549272796494707,-0.05395377105844585,0.12061608830429853,0.06004219084617254,-0.06814117302103086,0.24872182189367256,0.09502751878936541,0.02003987114431404,-0.009139685124605024,0.07184534839576245,0.20634420776707146,0.046488011758906975,0.22659561353023602
0.5697772545543465,0.6347099583194682,0.64025239427084,0.5781423473612705,0.5734483573534767,0.8977111981206716,0.2854739187585826,0.7451207063496188,0.6324740266241397,0.811232377020621,0.6816156455271398,0.6455303705211349,0.6678025008624942,0.5254501749724535,0.5508936601349206,0.6196354992304453,0.643414724071298,0.12947585528212419,0.8524888830052854,0.6289108618933181,0.350997238010759,0.5129869767568856,0.41195280417487024,0.4895389137471521,0.3910146992456027,0.38984176126533904,0.4630947559063706,0.3190867115657907,0.5674176467978195,0.43345118047389536,0.42654911153310826,0.27061849259461185,0.2094101459919074,0.5397588325147589,0.3577201427263325,0.5108677825543838,0.5632145646202102,0.6115216495827313,0.5318248638397041,0.471333420844214,0.4638644551241537,0.29797204486428047,-0.03631476575793374,-0.593165601796557,-0.20594936290141275,-0.6272260116240338,-0.09339704523039259,0.15625258806037348,0.5401320713551102,0.0722362078993075,0.5982365585023371,0.2366976791289193,0.8957122770427377,0.6110088019798783,0.5952414680427024,0.33587911704983653,0.4000600681334512,0.5652690188015502,0.6460216306411407,-0.3422926678799173,0.13966370400863196,1.3070947857026907,-0.1098012321159057,-0.04392084626773163,-0.1069859392597066,0.15181413191834972,2.0369565484795764,0.17896543151052552,0.1444541278027282,-2.373693763994219,0.438708218405423,-0.09245681268060618,-1.309417750734127,-1.4550276685663994,0.235911140703178,0.1418208974160446,0.541546766852194,0.6876124523831882,0.3828919303709806,0.3950010223629983,0.4351747665645575,0.2189632345184085,0.10562550785594825,0.3648103805571665,0.14884935543817562,0.20105700717970812,0.28762196067593204,0.24215136541074928,0.13273188853119317,0.18369032727413567,0.3459238196173918,0.29993382300276883,0.049661584621902434,3.0743355471477,3.5073141678733593,0.7782724706824006,1.888660983268976,-1.803063100884137,1.7779557151247172,-0.19028401316035967,1.8150725177268796,2.1996440785806377,2.547916283937884,-2.126467885834896,0.5473035499896232,0.3514822280555803,3.639970125642785,2.3924617869779743,0.05090279371864093,0.04219489591732649,5.966575546433979,0.7266521195782715,-0.30751082113981915,0.03290805055011448,2.713258511460796,5.154020616009565,-0.38604335714989363,-0.13596123628451326,-0.26233287659714916,-0.2712891229400833,0.11285111611697173,0.4038899809903251,0.4539137903831746,0.26691172072214125,0.1682662812032526,-1.9956950494839063,-0.13912658115916854,-0.5124637158737826,-0.4967049056134275,3.1719610804374767,-0.6826903156088027,-0.18582490513281985,0.9030594641528702,1.899304969926112,2.323618791730812,-0.13029852670321307,0.3292947908135779,0.34771417048940767,-0.033371807745679556,0.09813950401888132,0.22931931299396985,-0.029148132857370224,0.2681676064050537,0.16597761415446666,-0.38884159606339463,0.17757342297284737,0.016703779836510037,0.32394172008263966,0.24401369692690028,-0.001607781777234181,0.10256321472196464,0.19839107183145444,0.2711228826892325,0.10598082947557641,0.06728256111260016,0.0303889579017645,0.09794728910510518,0.053716564933980374,0.02378171014334852,-0.09106010937813114,0.08719765229651083,0.05396949140728176,0.11047142700228464
0.18019411772795185,0.15360049730533457,0.02507558222999389,0.0642612511754783,0.12012587593824806,0.053271790207299004,0.0633658130018344,-0.49623191746226103,0.03643835147834452,0.25453141019220915,0.271665547178292,0.35173406176794114,0.18124218379943569,0.18904837698429813,0.03877167705334147,0.09715116954212019,0.11047628638268378,0.1297954364475431,0.12474825138463934,0.34268399496398705,0.0661202551800144,-0.04889836115821462,0.2861919308878192,0.0852840740784141,0.06725515567132462,0.06709009343390618,0.13941411455409433,-0.08684588986307482,0.21958738480284687,0.029358583116756334,0.07448173955663245,0.18499185708722377,0.07140831015901382,0.018785228320794822,0.06453168386340538,0.08786583431635278,0.029440264456725106,-0.29575049944138143,-0.07910392755235461,-0.8316328367842263,-0.36073434930935855,-0.23157210578623535,-0.5796076167419811,-0.6160250662315933,-0.21742157681138982,-0.7605472998052372,-1.3263305337104738,-0.7548100720078541,-0.7276375136837004,0.880952200718696,-0.3226035998488258,0.15205966639051,0.16716707861160493,0.21009556015044786,0.11951027901963777,0.09409953250152718,0.03667107235033891,0.1845371581978799,0.04734727283671786,-1.2154727425532625,0.0065801089502442595,-0.8496227460068868,-0.07916099304218287,-0.24291917637451635,0.004906293467236103,-0.015820970790456947,-2.884256273745584,4.902074502355782,0.4678011762052007,2.545684204738923,1.065880824212336,3.602690909714914,-1.336824991110119,2.8875822799634703,-0.5924634442022985,-0.20118178005887186,0.0963658801410056,0.032003586067206144,-0.0020915759595583365,0.04176701407381332,-0.009199649725400471,-0.05658062328735733,0.2669842947900743,-0.05581188602696415,-0.04688045879972743,0.0657891379828233,-0.037466418755641745,-0.21182407311561305,0.20411578199442296,0.23323325613929613,0.2931592137632741,-0.03007674848831362,-0.03826989546915233,-0.6547922280635762,-0.7833904109103949,-0.5764924884224191,0.7044872102458185,-0.441285111160969,-0.5999657933596084,-0.5092442368399319,-0.48168386848448064,0.7135922180303449,0.8737028958284097,2.7776073059774284,2.8962685103697807,-6.474745681984893,0.4692221723361888,1.5470404344807214,0.11441010071777445,-0.013872272787704037,0.001833685456049603,4.422445526781414,0.09418367274457284,0.11669164228308866,-1.8562412118433258,1.187921982373692,3.329321274450593,-0.4622215954591868,-1.133739733078863,-2.043321827950674,0.11172193626319149,-0.3731499723707851,0.138244184693745,-0.00783410521317858,0.11880351724302857,1.3433554512484314,2.0727144797329125,-1.0869466148325853,-1.0869050316045785,1.0768204117077371,-0.433530081839888,2.508456701154639,-0.1458716906765836,1.6485519695414022,-0.7151419350805739,1.650411911858339,-0.13639263004220487,-0.05087036265522589,4.483614443935449,-0.08377820591590197,0.03200616168093057,0.13695003638260822,0.15360190863463108,0.14962995032090387,-0.16199637769251116,0.4072882900697794,-0.037306047116992404,0.055339191740365286,0.1372188320863715,0.08036429216694278,-0.06782702450655972,-0.02065651730845465,-0.13501277484408014,-0.14590408056810572,0.1755737500107623,-0.020357275450487766,0.2117367402638399,0.07953067586437178,-0.11198173198153574,0.024722060107537705,-0.036401891896406725,0.08163560722288063,0.04153196042609023
-0.18427280413385225,0.08618823638762486,-0.049590999066924706,0.06504301070052915,-0.044892069063431635,0.10715634382692985,-0.5330145294029304,-1.5913229644601121,0.04364318813138813,-0.1042813418776707,-0.3323618462995294,-0.027630031534189,-0.17263472981252226,0.1280705767188101,-0.1274471352383176,0.18183271745929483,-0.09640082071283029,0.07417659861298595,0.07824928081516437,0.11498238620630745,0.11237148029673043,-0.13026943731821336,-0.09152026764704241,-0.023165930827830278,0.16258176527905377,-0.023790993260822808,-0.24032225815476493,-0.3692188943133219,-0.049294526931884124,0.07777744678150719,0.00945630790936237,0.09915763160841912,-0.02593650777131732,0.01901370728123276,-0.17642485448806727,-0.040773944424309226,-0.0661778830858463,0.036968966387907316,-0.12300580321847034,-0.9434711537503601,0.008949638666157278,0.056100160705362036,-1.1547154592245332,-0.7074556102868503,-1.3641250137166425,-0.5591323696906962,2.4989490330609776,1.5585907245882207,-0.6295541361430976,-7.959958950049104,-3.571890389092166,-0.07672697494702703,-0.06820892290609618,-0.11610506352630721,0.0434627790353783,-0.7944870679369731,-0.026792709306353635,0.019070321288783054,-0.10149236037401928,-0.31431041021812917,-0.100812650857428,-0.20165337992901486,0.014884856890695158,-0.061075713812529575,0.10532012458828281,0.05398447574255724,-1.0667084009118253,-0.951468181678388,2.4991817017887406,2.1329872212413576,-3.679423444465232,0.08497576864332423,1.8083665493932743,-1.1587164737196216,-0.11352301464920836,0.10705922992739131,-0.26615193396646813,-1.1386577127284363,0.005451486696807841,0.023204573423789007,0.14621774317993871,-0.06962010184215929,-0.006169115097975597,-0.010504205911561969,0.06091936501724913,-0.04442125633006399,0.06264078822607995,0.10571888035254609,0.08360112883064659,-0.04575124365332476,0.04605903260464338,0.0031388719574323757,0.1651904537157151,-0.1003345386486031,-0.5962252501852936,-0.05439959847798964,-0.35343804059734,-0.4472043770368096,-0.3022560200305603,-0.2987833444505456,-0.27703625712551744,-0.5334044805897944,-0.24106903480751873,1.023387816546095,-1.719653951653821,2.275686600931528,0.349511270458183,-0.9551149201067316,0.0027836862371386235,-0.08328667490677222,2.1950510149355833,1.3647412979260571,-0.04289004085371627,-0.03674096071258796,1.768575703666921,2.121908982331055,3.1817071823626115,1.2220219401970887,2.6104602839999442,5.2031487650633474,0.020362703437154666,-0.002226162083566668,0.10733344626291663,0.21385571590524746,-0.18461730987006186,3.7651218359549947,1.9063828294364633,-0.4225296559695074,-0.37295488085254436,-0.45985792187032387,-0.02091253173012945,-0.096059094866626,0.10282777672608183,-0.29429038337558416,-0.3724719171659617,0.8176909205662359,1.2755700379197181,1.1482400465451403,-0.44601081136788323,0.015051298289745147,-0.12152963491650413,-0.052216078804172554,-0.025533020667650504,0.06379385801534031,0.9264081212266957,0.04326728246280663,0.10933446596830246,-0.061827125690763166,0.06040105490878365,0.04992412891800679,0.06321971386984492,0.06240658960239298,-0.08996284795170978,-0.10768870760148752,-0.10626819672198057,0.22346124035777173,-0.01601240995587862,-0.13295589087755472,-0.08741529306374426,-0.22204378712129944,-0.15287836654011627,0.07308310199878978,-0.04832124671845516
