2.101293596082437,2.148316740821095,-0.03017581475473777,-0.7926688389401996,2.940165164504652,0.06646147248134533,3.3007386049436485,2.5485486527284498,1.6679569276814539,2.064992943939839,0.09293269492459237,4.564856458115376,2.831992492665478,5.776527495937717,1.862261685811301,1.4971831391448744,0.6235347232105946,1.6789816747810389,4.233723568330517,1.4058592870541233,-0.5680671154021333,0.44083906883159374,0.22659972288154798,1.87010363661107,0.70441518719954,0.6433726352666743,-0.12127754523716859,1.3976153087856302,0.18589414871640797,2.385617305715697,0.03803888811093617,0.7080777246038937,-1.2722655595762857,0.4724265658268429,-1.319669344159003,-1.1935140196466232,-1.3047496878360019,-2.291378380518743,-1.8374187526086694,-0.7750470240283877,-0.3563822364531796,-0.8023872017960532,-0.2611954161617373,0.13619301533719302,-0.0027969097867145006,0.030721440395786025,0.21367213495171866,0.08578359428479326,-0.024772582007892487,0.5923973851599762,0.7814003035033928,-0.4330462536844587,0.2846913056034041,0.2791741234682894,0.1992959690774946,-0.08637708413464353,0.09790659136874637,0.3645510404864003,0.33889491462416527,0.5381785079494124,1.2138976941113235,0.655121953511666,1.395727172831667,0.299978580548642,1.2527863529116035,0.15773845133031486,0.4586670524445176,0.4407320315969751,0.4366589380345196,0.34739750539154524,0.5425701556644049,0.3575012659275876,0.45263257221301323,0.5333866071185108,0.27261620373169815,0.2755399587048964,0.38918317372201366,0.603135887427756,0.49791116550203407,0.4441544434117347,0.47402145563495396,0.11434553441335593,0.32027831629028547,0.2908756856450515,0.08777589988074326,0.09800220937258891,0.0651530831992383,0.10900526760430511,0.14090983468971424,0.03488862156345178,0.11531431703645821,-0.041451819107160996,0.01714655141823452,0.392240949401587,0.45789208660863906,0.20669634734377273,0.46874189403242655,0.25996610694936795,0.2524532456646074,0.27405813256908357,0.3128804775649105,0.38959747089791613,0.3559850896730945,0.030217997746409098,0.31070817102056464,0.6369801629250884,0.4215654124806028,0.7480547344413037,0.13826545846310379,0.1319273854967297,0.49293984452125184,0.4919055397253182,0.09127269599231813,0.039370225047644127,0.34791524469399787,0.703816367086936,0.6495323890424299,0.42145290128121193,0.4347690881174636,0.44976078624263083,0.2001037669517093,0.16325642394525303,0.11403246638473791,0.1832238447407187,0.12818516944467656,0.42001357953221363,0.4536007188282429,0.4658472559709969,0.2393722953194697,0.2819493565626761,0.14814992691688803,0.07394780153797378,0.2485750708259501,0.1833149331439592,0.18989772387198522,0.3789719626042645,0.13937902384966322,0.32315078454908075,0.5407609893722038,0.1482248746929858,0.01936276100688746,0.033143721651644927,0.0264105342816938,0.02444810115854132,0.1148661154887853,0.03810288959408854,0.6713817158391201,0.33132556558297227,0.2599512107735686,0.403754255947399,0.28032783407470335,0.29933475889660327,0.11169725443922818,0.07431194151696269,0.21112549680474735,0.1238200878286745,0.030932859448579507,0.000527239385120037,0.03935714063646281,0.23266085850464382,0.19120011018580843,0.352203348218182,0.2125632722667521
-0.7466654738416615,-0.5156663979960938,-3.4585649452909553,-0.4244256761397558,-0.48594090507301635,-3.9946671044531787,-0.7952898537585962,-0.6780065328207896,-1.1939101044302267,-0.4856673328908974,-3.556923299809697,1.4930799694736252,-0.771216081650519,-8.503812336035248,0.17883076285189184,0.08586425709914977,-3.4329822277723707,-0.0689745341183513,4.037333474757972,-2.0261989278947343,0.05753488794213752,4.693260677755814,1.7934137063067102,1.4634286129151066,1.1136739381780578,0.019402978492699115,0.08270008923859669,-1.4540185237370793,2.3194548002395763,-0.43551849809538307,-0.23737663242083784,0.1240557068522671,-0.5816258780620587,-0.8154863882007612,-0.7654267452071972,1.8698783589536299,1.4586920823016507,-1.995838974487779,0.8639185948651608,1.0119822369005353,-2.0787503189972503,-2.0736223096446693,-0.7118233821906953,-3.4457568447787703,-0.38957594619873637,-0.40109160649051856,-1.1281171002076513,-1.0283196550455829,-0.7953937241799114,-0.9142389713044488,-0.9933912149146189,-0.5105960887132387,-1.3287875290455236,-0.6034265453503235,-0.6418330287844639,-0.41683478546401304,-0.6199992727094332,-0.9891768758543785,-0.4783213905032043,-2.3421716887418134,-0.5863836736022452,-2.5555412514030307,-0.5341575615923085,-0.4720058431310161,-0.09341295515560032,-0.000779191983859701,-0.0761896429941384,-0.13684580214134798,-0.26496296681945775,-0.23358173874218602,-1.0998458486566738,-0.8323999908649757,-0.7403658822127087,-0.8297753662366509,-0.678728105287753,-0.647771711960133,-0.6303465998993197,-0.6616798059799666,-0.8667267895904046,-0.9687728141868542,-0.8323131487402707,-0.1451550833106319,-0.09468316412646575,-0.5734623618452307,-0.028429754240639777,0.022765019415825462,0.043395473413297185,-0.062012530683904867,0.09945202202393752,-0.0526111038549956,-0.027605636133526693,-0.008013657292436875,-0.28416808087101664,-0.15850816772977375,-0.2861347092898047,-0.09757866888070699,-0.24336747746488974,-0.4578202070768108,-0.15412150686483025,-0.4147751016562922,-0.35344580389503194,-0.27147377441144,-0.18905771766142507,-0.43700103535500157,-0.7252775306324163,-0.18306012444662512,-0.6047577908603907,-0.351500652168135,0.03817249851168761,0.010506925697504003,-0.23215927052589683,-0.4101432504489992,0.009122352988361221,0.15686638244466825,-0.3455564303141639,-0.8461373830143751,-0.9254502372837907,-0.22432290084449139,-0.16928425323363558,-0.5936620960934933,-0.19114227966328984,0.01059495312951717,-0.12533999079183897,-1.5763966663197104,-0.7701818178455341,-0.6085016849103002,-0.1112619477666313,-0.2720262766254664,-0.33887351296786106,-0.09113223329620955,-0.07368428696076179,-0.10890096665566312,-0.04631484186782133,-0.1581504008468511,-0.020851877364308876,-0.5945176944687034,-1.6366606241446,-1.5486812285012503,-0.07200691845304918,-0.07933115994508212,0.004439322575799436,0.03086654865859984,-0.07598816237005374,-0.03215688624526398,0.02002864216122534,0.0384068882850814,-0.26447538778840607,-0.08125147905616135,0.09923355650707186,-0.044962397478851474,-0.029921508765858633,0.1280539347449354,-0.02300580796673955,-0.10748205416463559,-0.16980870111038654,-0.10776052663788735,-0.06691053259871022,0.05975079204573512,-0.016133604660791688,0.06615460489760987,-0.1404626845963736,-0.14636514846735726,-0.12906065618607326
-0.38190800198276365,-0.2588613962239493,0.4223522263374848,7.611232590545416,-0.0976133379071746,2.1174523453753555,0.11066760366480291,-0.11340032553488631,-0.11818043002209272,-0.18923052792799508,-2.963723091712685,-2.0151712322492035,-2.368630611926607,1.7539645276799973,-6.43908251705596,-0.10487774652990682,2.6529064626274548,0.7609310380387148,-8.924757813260378,2.731532912243546,1.6359155730171318,5.225665551248984,-0.2607496017505056,0.1636849723381864,-0.3254558098053975,-0.28369741931649284,-1.1183227580994088,0.157046915044238,2.1584725680912356,1.0088321671953413,-0.18705872417448138,-1.3646144594667058,1.0431591061024263,0.08033992012633213,3.177441325547679,0.2429049218802169,-0.061609164429489514,0.688956770663688,-1.4050750946346953,1.780413584300689,0.9406642882018671,1.1072983347997467,-0.39829412546173343,-0.8789745761869303,-0.5138404493421368,-0.5024780620056715,-0.6817891327379768,-0.669542371416376,-0.058536485524467136,-0.23651159888749232,0.1493422318473723,-0.052335531175726605,0.15901694564263,-0.007671057801181126,-0.4189339277986662,0.16234265226481945,-0.3593116666084257,-0.13526111034535657,0.1416342615919169,-1.750809724989135,-0.9749748443094383,-1.4783837079997968,-0.43391205840106023,0.0035275204554497514,-0.23564231123091314,-0.14998855791439786,-0.09972074368667201,0.032484750118763804,0.05835631804830352,0.10246257547269827,0.13896027111110065,0.11387372065666443,-0.005712525467925216,0.021395152106739212,0.03506519391150117,0.1287399661796085,0.06377592016990587,0.1203271066973686,0.09700275489379015,0.010763077098383533,-0.14659143852826848,0.021029078452385115,0.006515985769352825,-0.2509662939929286,-0.009442238339289777,0.04055620697981926,0.05828099245613676,0.12020427552020099,-0.039009809420208076,0.09415525231208983,0.030047640750121053,0.026359978188722384,0.005011681904528192,0.29689684730899224,0.22668668317855784,-0.20899873465298344,-0.04835909455969988,-0.004406681386223313,0.16087226050170444,-0.016943885852038414,0.11211198962994767,0.026255354511193867,0.16953911799386634,0.07248856534585148,0.07770155815189764,0.1991980711466134,0.06081309816203449,0.003274455463587605,-0.1759562512651331,-0.0461487174847107,0.029556065310996256,0.0677522170916163,0.10042602352862946,0.035629524794146106,0.23717181177758828,0.15105434774731066,0.011930100142880444,0.08604260830052615,0.12546963106557676,0.1256386425903567,-0.09364173208338882,0.044268329029094666,-0.07907017432496896,0.06433805803071396,-0.0029969728539520984,0.1428066919940548,0.07937289825917994,0.07791918290509287,0.014003496337238417,0.09489432910905518,0.02237648419197849,0.09778508545511677,-0.01641677301044653,0.04510849014346216,-0.09499560198339425,0.1067599174236219,0.07680748989841268,-0.025356893847016285,0.14923910403530855,0.136377148206762,-0.05051964555361628,0.11511789196302438,-0.07727229882783372,-0.03722556894599832,0.147749674971419,0.09229486330159443,-0.08721445911201166,-0.05014099599929773,0.1507315055536123,-0.012101326366520521,0.06618005514008471,0.019897500337196918,0.0665004144113718,0.10994226654549898,-0.0005824035401444644,-0.06847374458592947,-0.15779915658508653,0.01600730923604131,-0.09787217578323543,0.15028818961749896,-0.11314890327688285,-0.10414081317452915,0.06046326205355598
-1.362320738006699,-4.124620074469735,1.4664246249115913,0.9112693091972658,-0.27272830717906166,4.277750909824855,0.03144405121019106,-0.3097344303854166,-2.285878636922279,-0.4114843179336631,-0.049306387074966346,0.1741605162796483,2.103087942408811,3.1636735036798336,4.1419719582014904,0.07990146959009022,1.024046192206777,-0.17936530085377964,-5.790585867708927,-1.3205961827631962,1.3253872115665988,-1.6857007144204685,-0.07943416590221411,-0.9448840781853013,-0.13566546734150342,-0.17569057475714572,-1.3618062832350495,-2.3685614414416944,-1.957104639726569,1.2288684345755998,-0.8475714238580695,0.9744875142525393,0.34244403588853967,-0.07912270222987901,-0.25653489009916763,-1.3090970917326397,-1.395383149174514,0.37528220641357757,-1.0022296957778103,-3.664514687663564,0.0723247957251594,0.5179782766122359,4.110578102802114,1.9326082916761955,0.7429979556669811,-0.7141360291926143,-2.995599096528008,-2.3529633473003706,-0.28066985665042005,-2.2080646947594955,-0.8261533228331092,-0.39801149506493333,-0.21589297864574683,-0.12286741038390105,-0.08602228637597238,-0.21720689710888208,-0.09029106892252474,-0.07281302336623909,-0.038582164580391244,-0.600677746355864,-0.24313513536147688,-0.845205829153341,-0.21922677697601228,-0.17200288652503914,-0.21992118895841567,-0.6589060156781231,-0.38933349389258254,-0.27000735521959657,-0.0041417927114261645,-0.05417589609570471,-0.14336682822462576,-0.16891211558241975,-0.09942484641336148,-0.19218850368879345,0.02531112046811356,-0.034279229507849916,-0.09968792024700203,-0.04606056671277144,-0.02633604807915049,-0.02825298633548301,-0.08839196281847482,0.10085547965906483,-0.1906977114077585,-0.1056532945215413,-0.04894482353352921,0.0007355219188543547,0.0823765492021763,-0.14609183489214095,0.01174756452127317,-0.06778169337557412,0.0029617206267763944,-0.0476175278113769,-0.18190598412503992,-0.043015030798118435,-0.10445170824894885,-0.14630087010807843,-0.3132936992237198,-0.23352366475285985,-0.07435649834492211,-0.04588110200687744,-0.1008693241015831,-0.06387430373175569,-0.2744398769963627,-0.19167503373036385,-0.05486301396710039,-0.21088962993454916,-0.21642087141618713,0.008925615443606984,0.024024427768510853,-0.0258232602325673,-0.13509274131336657,-0.1426043675732049,-0.08376454332633819,0.04452009484829551,-0.030253656840998084,-0.14190766913197236,-0.3213041477032135,-0.13936465686629518,-0.15199521868168603,0.04153167869117708,0.021616296607493698,-0.036312555492695936,-0.06636972389487582,-0.13814293184423745,-0.15573206562998146,-0.17286275138401003,-0.06479417579274833,0.04586268528858654,0.04873356044548201,-0.25300069266420905,-0.21902836342592408,-0.2049948590949978,-0.08466650808899077,-0.028263710977996643,-0.22452447395038347,0.020721745582367262,-0.2134188653395515,0.011131292625799144,-0.10599640431178746,0.0632068245623296,-0.036705462347872156,-0.009437264853647714,-0.09149554998583935,-0.022454904389813932,-0.06510142361284293,-0.08976780323073066,-0.09365431751615787,-0.012351611528951364,-0.0015491270873935867,0.015363328272079993,-0.08252344733925612,-0.08644142878829542,0.05985299384429929,-0.1675966201472064,-0.11534280397765091,-0.13937850818317513,-0.05485190277443263,-0.19686880055739914,0.12092115528387008,0.07018641732046013,0.17866220974943525,-0.11583686523805381,0.014228297609586072
1.8166370382480947,2.338409033749712,-2.4804374138686005,-1.5322972642391637,-1.8924487800989198,-3.169403565884769,-0.3049324966440983,0.17911370290363146,-0.8689749419766659,0.22931710785477846,2.6617728150865645,1.4612055124409027,1.9056737512957458,1.4623168468173418,2.650411744387874,1.0288662726743274,3.1968761479584082,-1.2631728827138684,4.492549727095861,0.2482192548233055,-0.029852668600526103,-0.8523545471492315,-0.9894603006676536,-4.03036029596306,-1.0042062679450698,-0.4199708458241966,0.02025707991809569,0.5587708634605275,-1.2128696703207553,0.6274101393175782,-0.8490248552030031,-2.1467790533622244,-2.030684030334734,-0.13816747220995307,-2.782504026778684,-0.9537480500725231,-0.8439542179134367,-0.5044000022680208,-0.2866222792590221,-1.072779620625904,-0.6151224514169361,-0.16916236284224095,1.0243636173389412,1.2750970378586588,4.393667269106778,-0.7248224015866822,-1.1746055053274738,2.0066648149914337,-0.5388950318387629,-0.8303814520960388,-1.9072339246689856,1.7071855768501905,-0.4623436970680089,0.13037118156962876,0.7298655913507247,-0.2487535262462048,0.7195303443374589,-0.6753284321570725,-0.43214346168190715,-1.440618094779698,-0.1528383270375896,-1.502724543319613,-0.22101488168217975,-0.1307506310977911,-0.15354311487803515,0.048910080239458156,-0.0743442771377936,-0.7563301834031764,-0.2408383905957367,-0.01904714038462515,0.4807932196291187,0.33172694519288715,-0.3287126187853186,-0.2258721358901007,-0.30728608867408985,-0.23732480612147097,-0.14608504368259462,-0.27305383000513117,0.04451709478957908,-0.06542096088682178,-0.08443258020248764,0.003492807901598952,-0.0019049854841959306,-0.43518268862773496,0.16180240172175334,-0.044437833441652426,-0.03333708914268784,-0.1456101738932891,0.017009635792333073,-0.3286708282387773,-0.24611481776731292,0.016259856879649252,0.004990084409829333,-0.1679890796501515,-0.047648026213455416,-0.00822769267891716,-0.05132658558123873,-0.14041166100633926,-0.13642187452376775,-0.08141814723085962,-0.14238829524079696,-0.1662942108104293,-0.11809756680370324,-0.01518566083742712,-0.04647186478249539,-0.17336407476055685,-0.09289803453886793,-0.037317802805325796,0.03693926791429755,0.09869405110566885,-0.18330671519668243,-0.10992843209871542,-0.10878140272942609,0.07703228754588681,-0.1120812466140136,-0.149865742641921,-0.19158038164978358,0.06557465751912397,-0.013149025623174977,-0.022757888334213227,-0.040140698346124375,-0.0995021198440965,0.05895742581332705,-0.14182341480302613,-0.09021486985476738,-0.3303810879314888,-0.24870664958147184,-0.09568626840258884,-0.07393410724991029,-0.12625195569562644,-0.053225085117959925,-0.12718391395145023,0.1720531537152379,0.012338721187690777,-0.06063685207031016,-0.2173804144768961,-0.22850327758738087,-0.0731840655831151,-0.011166376868977907,-0.04815578560968843,0.10427318227480578,0.03619457051554136,0.05479451202322005,-0.06688938196867031,-0.09734034454167222,-0.031841850702713184,-0.1271710038269359,-0.04092615327323486,-0.1353893698799635,-0.09993977698945626,-0.0034380514113203655,-0.02945263033144395,-0.04205503163743319,0.019934291129361858,-0.033863718699415075,-0.06981638673987008,0.03689878411220156,-0.05931695172578453,-0.1897195261034816,0.097442521701566,0.02410980136377065,0.031319140874069215,-0.044199555183338256
0.7269749481498459,2.018644825691254,2.987834593539722,0.15564329863137522,0.7071287181616103,0.6068230090907599,-0.4479735516005311,3.524699825531584,0.5323990001477779,1.223978251195307,4.113622284419824,-0.4161729430775485,0.48546412526194554,0.12691123772769441,0.005130353421566741,0.01719507912146535,-0.10836264829348079,0.11391927354488808,5.707266551923582,-0.13840888380728802,-0.11786563086724257,0.05774460682506723,0.021321731415366134,0.2388919299013777,-0.6117733064713102,0.32608802463601005,-0.19716244226961008,1.1829193197451615,1.6895159336017342,-2.09366757074892,0.07207689387997551,0.0920934938320971,0.1079496311597772,0.0851734052340369,-4.522778803335624,0.1858375813055319,0.26134649742910104,-0.9360148754505156,-0.8280741898486692,-1.7186307153701565,-0.0559786455160259,-0.09019337473777689,-0.023660561633096062,-2.1026290758303707,-0.48372831282087997,-0.34800196372965403,1.5195803850784726,-0.4744525922804238,1.6035132128056724,2.302827262100111,0.6931747921423399,-0.2168060840577183,1.4905981487260307,-0.672479300451012,4.658271705408539,2.279047877480774,1.4385989311887803,-0.3020544989483941,-3.187228665103536,0.3098344451857883,0.20954180011026002,0.18116568089803678,0.27268063566870837,0.2039036523922282,0.22347671215424533,0.10706133684968624,0.1550095620654054,0.23500911241942626,0.16665104878552078,-0.08021878375962704,-3.504868153092192,-2.16617589214855,-0.9615782155937777,-0.956375416003312,-0.022701163413127338,-0.06337575073221412,-0.42263148311091064,-0.6224162067961383,0.12916922342216106,0.14916485360169454,0.30079376154753845,0.06946433264122603,0.04289846593510533,0.07211488554894918,0.014387975546232794,0.05333844584240581,-0.05152741646815455,0.012348744496242152,0.07971953982884511,-0.06977989568576032,0.3390265824886235,0.12530465140820476,0.004453461673941091,0.22270311775511947,0.533921234499229,0.2070983166331815,0.09143180028671755,-0.05507711460483794,0.17657376461393093,0.24371117932503156,0.2898532226466708,0.3576328203542783,0.21144186161911058,-0.06645832892230592,0.23255910051683748,0.35163596857562396,0.15095306317507015,-0.05918727472560366,0.049103583106604544,0.2221984731160716,0.17658683198666725,0.21311273062051989,0.19485014886473817,0.046188024439149176,0.1303083262839802,0.1480446466252097,0.15273960207250625,0.2284021406891317,0.1663403039075129,0.2901739787574749,-0.18880663114606358,0.12314498688143846,0.044182921515579184,-0.01067819303095157,0.04528610439197106,0.31824158311070666,0.3162254601479166,0.3106711067597233,0.15158905429347738,0.20865331732638312,0.10136028853023196,0.0034865868379278867,0.3580914274588641,0.24857713738257692,0.1365792529006874,0.1010185015978221,0.014344083239267454,0.07912683619563422,0.28163440693945246,0.052710877999936984,-0.029909132925286516,0.14369705413257064,0.09283447613338786,0.09995997888584138,0.16583053562873354,0.04869160978570766,0.0891330321743636,0.3187650009148848,0.14705156796608576,0.09348905769016398,0.10257462218927012,-0.021526338363477115,-0.018755268735600388,-0.024477152660947733,0.1741075822075303,0.11657430608916618,0.1574637994962766,0.043026309118400136,-0.31698029423684626,-0.052684029270066914,-0.07044081690589328,0.07946939691179036,-0.055244087611826836
-0.7585356087565998,-6.8014327783732655,1.6677449164799403,-2.3276065174550227,1.5328077066981005,0.4714032354872635,-0.5383164505033226,0.40393119443760156,3.6741507792844272,-1.0121238382132893,1.5919177843080794,-2.4194443662712852,-0.2472956266133702,-0.2505664119801255,-0.09225946784511531,-0.0370072808544272,-0.19039118856295745,0.024465163274850318,-0.06294763210676599,-0.195540967133686,0.007465034831230657,-0.24924982582968522,-0.06968935796263794,-0.04777378642551797,-0.1687537642055719,-0.8010101974639766,-0.2104267301327616,-0.5001722039584735,-0.15900677562627033,-0.06624298351159379,0.0976883999042128,-0.14820390553656657,-0.292214445807466,0.05132786221773791,4.880884388590799,-0.03610708118578942,-0.00818911464172608,-0.008078080435194734,-0.2371645285219949,-1.331150728284802,-0.07295007056938844,-0.16412696753343292,-1.9799239030662106,-0.11313822889349627,-2.26884282181498,0.07615149300491078,1.0507096299819674,1.9046640092700167,-0.5251255832370259,-0.14095281217288233,-0.39389835500375925,3.08571457121926,-1.8622985367708607,0.15773015790739148,0.4418997994805918,-0.6762264915041845,2.976926383698195,0.7816581828331274,0.8119896763976203,-0.23694013847691917,-0.1351382288513034,-0.1336123849847473,-0.10678044073905206,-0.015300520323825442,-0.08572535847121063,-0.1374903759187046,0.06902627541371242,-0.077405403567513,-0.0922391139093541,-0.025983862511051326,-0.4008290778542913,-1.9188611829685516,-2761655966242481e-20,-0.05286624372049828,-0.2006767916086263,-0.26529052081298643,-4.411508568579745,-4.413419066206151,-0.20476360444044597,-0.27449132262045445,-0.05600245822837866,0.07599701731963743,-0.14901541815875974,0.018917181085131168,-0.046475176745019976,0.13322123487344623,-0.15665777796252775,0.04193785455258878,0.17780851305630863,-0.015513925447138885,-0.012145521071127305,-0.007535345049827733,-0.09340262864706447,-0.09674044000236343,0.022717734399092342,-0.2647234337496992,0.09272262135831608,-0.07198727123431008,-0.09528430130043948,0.04413311110323723,0.09477314309952463,-0.05524684450080988,-0.20657288400058565,0.18102827114977577,-0.06346717929084567,0.13068356012410387,0.03934007926096957,-0.14173210377310919,-0.01597093057065873,0.12465673158645652,-0.14960308850198425,-0.09166652677277373,0.11747629109843771,0.03692788723396288,-0.06793790104175353,0.06509768586782626,-0.06199389581524391,0.002965414339433296,-0.11642126680538795,0.036610355640341874,-0.019909193842878765,0.013618672369014729,-0.1712794781606857,0.08982649983818938,0.0135522785239471,-0.18418273860847514,-0.04266920242182837,-0.028940467102499465,-0.04058327259814838,-0.03908014701053096,0.060010128033754634,-0.029758466776331066,0.10125320811539239,0.2428056356990297,-0.1495489082299565,-0.08390833857274625,-0.15417418280798173,0.03870281202770542,-0.09013221103915352,-0.24401690798722148,0.03998571088569057,0.1277325382576999,0.09519246914530473,-0.251655565926154,0.19964892561678863,0.01904108406238014,0.00286361809501732,0.002125508783294111,-0.001850309403620533,-0.21709478338011604,0.006924912686766016,-0.13065586183429992,-0.01385921296647604,-0.01893934314208376,-0.025324679421383434,0.027929425610591398,0.22490465224111694,0.05860681989895255,0.01787194749592795,0.03572207895319486,-0.11130389513072027,0.0267670226889439,-0.06412026270854003
1.863968524027234,4.730452666974121,-1.0711002181611189,1.0057232946150263,-0.08520332443770572,0.49020854277007686,-0.26852389474310573,-0.5602190844714815,1.2314415194410109,2.4507266745078202,-1.2481433572321594,0.4721860494276335,-0.9751211497127471,-0.1675130163433761,-0.023774688624584244,-0.25829294790837654,-0.3433083523407317,-0.0074811565906247515,-0.4387942312953499,-0.1805698379926959,-0.12083023122164632,0.0005266907266790535,-0.1316202479631228,-0.24877588289564623,0.017874015610331702,1.5607931560397186,0.7860749005244848,0.8365531169274154,0.04224148142166366,-0.039051882769170605,-0.138927245385122,-0.0647384114791219,-0.24251496097319555,-0.20497450991666086,2.748724212553945,-0.08309786009585134,-0.0486139930382018,-0.3352295518325054,-0.27952903551453123,-0.9077950288082173,-0.1100651332543286,-0.0831534983936318,0.4526750135862745,-0.2685123203716997,0.4397545045623249,-0.024395824251872523,0.3035655364814267,-2.1280274406127937,-1.0901233591471082,0.8650380850298373,-2.83816798284515,0.2784327296871699,-0.46475645981780306,0.888672403408777,-1.2103260804877753,-0.25555841701651316,2.480135402863982,-0.46870282629043775,1.723086993422177,-0.21210170678373003,0.0010995224579680792,-0.12221164737332565,-0.2734829284270186,-0.12344124151167608,-0.03562396299237594,0.18190474937752146,-0.16509263483829018,-0.036200199934262114,0.022369086580384365,-0.36683732736945557,-1.338732482292296,-2.0673343963535267,0.464549839381807,0.7011317435930855,-0.5310878399918175,-0.39461768220902627,-1.5819178660236464,-1.3875608785883344,-0.43205074361091345,-0.34868996669591973,-0.4544929251704665,0.20054405296493913,-0.05142445985412148,-0.047530513812798256,0.07219152077341938,-0.006546813655573726,-0.0028339838874659614,-0.018484450715591617,-0.054989714421016155,0.06561766893043428,-0.12127513271817034,-0.08823898026825974,-0.12334818597772006,0.0027533708205768133,-0.22387092734809869,-0.2843855773330109,-0.14419821328194085,-0.09121197304001076,-0.08499243246784949,-0.21131545210083172,-0.1115822361187837,-0.1717511400227604,0.08070996083444544,-0.047625857490675536,-0.3764573435140616,-1.0071689041530312,-0.41329662565409603,3.5444159388566727,0.06617423340081874,0.025388727600433016,-0.8541342154599538,-0.7636144396296701,-0.020467892785973437,-0.037886229313801624,-0.4297740975995242,1.5224171829396216,1.5463888516237534,1.9850543957111582,1.5146378339819666,1.6701929447084063,-0.06658702379077816,-0.12209862417930276,-0.060635821499160344,-0.1295314657822003,-0.08800973541917664,-0.05366601499394202,-0.09208616055794694,-0.2712813928872567,-0.14160879351862157,-0.08777812682934646,-0.014130064713783674,0.023006348002933875,-0.0027840664493542036,-0.24749405401888439,-0.06308710908923,1.6698191887068194,-0.03801388437368648,-0.29490502910898025,-0.3157869045689532,0.0771153884852263,0.024226102150596847,-0.08420554863122545,-0.010625559828750906,0.15130122537249302,0.0620203647709446,-0.16722165276684478,-0.26494090070407755,-0.14521309262958593,-0.06085543218635882,0.11639303353747237,0.167599008579,0.012977333809552485,-0.03247959228385224,-0.1842468954576373,-0.1809080024487207,-0.12069059624587983,-0.018642243108415456,-0.043373111375044154,0.09393118381783305,-0.01040643724735381,0.004492605354591397,-0.18703130616443714,-0.2023761043480518
1.6440911328248664,1.1300349798013811,0.34231267203938853,0.9728995588551206,1.8390973844198955,-1.123306438050169,-0.06274513781989528,-2.5750415459443565,1.0105711984828396,0.5149102185351846,-0.025144174231875635,0.5883791910223293,-1.8059600244273464,2.346981929742117,-0.8955580263033772,-1.846791535694063,2.1881525012509795,-0.015752594001823564,0.17335720266774615,-0.23352624328720772,-0.12573176994698443,-0.19736382970238642,-0.11760707771698657,-1.0841677805997767,-0.0021587677121012445,-0.0698119923283326,0.7263118003483799,-0.48653143529013,-1.2736930997415894,-1.2157206266875917,1.1157736369423013,-0.21330183241076875,-1.5280839477422985,-0.07574141007452569,-2.938241955790147,1.3087201031173574,0.9384098227806958,3.936293176664091,3.4534355891582975,-0.37226366061759514,0.5105471062470791,0.8433378858316036,0.35425700663495036,-1.9999466091064488,0.23185178603359413,-2.0838374874911434,0.6569161632048177,0.6326081934455846,2.025326702679235,-0.5562189667476668,-0.5770937480224727,1.9964016671656615,-0.39409505990707466,-0.050352117268866424,-0.4413951789951634,-0.24255008894005126,-0.5352576598225928,-0.02601582186355221,-0.1743753643108318,4.849847969573653,0.39580308893948285,5.250069652989131,0.10553802521348098,0.9019802154116429,-0.6006761635469648,0.22531131861287607,-0.6525190783250688,-1.0510822626620915,-0.58438365269774,-0.6766268278367461,-0.13691867082196787,-0.14548749992027735,-0.14603380791534132,-0.05112791009754293,0.01754946125715929,-0.06098168216209015,-0.09439918676335622,-0.1558084220657362,-0.11724088459712778,0.0031204242144960387,0.050656043980199655,-0.050043170603623184,-0.11126357654153217,0.14557938273540044,-0.025522594495650645,0.015066696507946327,0.07823659080979439,0.11807387630965109,-0.027918625317096497,0.008715885018410146,0.08404878971455922,-0.025641603362301327,-0.011460369376532257,-1.2287630134402716,-0.2544553265435492,-0.48558308755533447,-0.09687489597290704,-0.24869552298928427,-0.06818373433358049,-0.12689805777417973,-0.26873729976723376,-1.117884086521185,-1.0219786966817466,-0.40272109625898983,-0.17996305217098021,0.12634606222205771,-0.1052834925485028,-0.07861017816301237,-0.018680052658390643,-0.014869258414556032,-0.19652320065413778,-0.04929682795172692,0.07022012916900902,0.13019769115080831,0.012904529164302795,-0.0069775205645269045,-0.018081137649415116,-0.007085927458855772,-0.04022111298885389,-0.18531771263906466,0.074820352988783,-0.07799739345938396,0.12713491057445986,0.09695572223393353,0.037845084411972534,-0.27093595569428186,-0.09434864098410796,0.08998598799734835,-0.08543672504065052,-0.022660875384579525,-0.09946605512493094,0.009872349792555711,0.12876809572189346,-0.0943287602556811,-0.17011090516889013,0.09998182994785422,0.0035922260652955086,0.09326080577493935,-0.08216018549904824,-0.07381688440436847,0.20424615250859424,0.11877717548051663,-0.103640589141712,-0.050928976857200874,-0.04518544714020697,-0.05411068599925335,-0.05740859227358514,0.03892962271459017,0.032134630592372496,-0.17134413286817463,0.18119849568744886,0.09956125313782693,-0.016267056281346975,-0.08630271224582166,-0.07785870451358905,-0.08987673005858192,0.10186418401629194,-0.010639541298334129,0.1430755516709587,-0.10844931188556754,0.02000545395182933,0.09232535231230456,0.03998159339356136
-0.06684913123596047,-0.06111455783751893,0.06944720138122837,-1.862056824792716,-0.20500854767488638,-0.11139358612704037,-0.02074840588520261,1.4392591148546352,-0.013646227906746595,-0.08524662925372475,-0.004272070129941447,-1.9099086837185086,0.46213972402078735,-1.7223095333057916,1.2149833158186696,0.3439622622471503,-2.1484397904980463,-0.07428720476628556,1.7435791215697547,1.6811758363937819,0.4634918417830729,-3.772314436288888,-0.0731977119049588,2.4547873453359705,-0.06806611944923371,-0.050207352833494374,1.129129409994046,1.6082063524282275,0.04615920952560924,0.28787862481499255,1.339789456025589,-0.00792124932259339,1.6912594719623248,-0.03370545816575313,3.198480162982249,1.9607445803236891,2.186741441197574,-4.657818147158647,-2.7920211344549726,1.285273805146905,1.4060821209824081,0.7407154128031986,0.45318832452889957,2.8081245707885243,0.5787813849637238,-0.3307190420681226,-0.21737972187924043,-0.6338625722589177,1.5490900971740147,-0.26173532856912846,-0.022063986829349708,0.08751661595162988,-0.09128048453786683,-0.05283830547742758,-0.04688336658101539,-0.055476355812445484,-0.03366337473560112,-0.06940133828337611,-0.06118618747038898,1.6580609956017354,-0.419063593225471,0.7445640049424331,-0.31439644723400617,-0.714110122518939,0.26878241255991425,0.6977361802350901,-0.9061697244102567,-0.6739573494650882,-0.08649899660133342,-0.053853565033902935,-0.05966556153764593,-0.08114788117391976,-0.19031084827976438,0.08138489720505117,-0.06608484913099713,0.012954975148220754,-0.2272219450984397,-0.12922029069108718,0.024575621732792232,-0.11499968630663895,-0.034680738532537905,-0.12393577859499703,-0.09820836089650356,0.14954195112794863,-0.21081647887522842,-0.07038330955950095,-0.06991457353344245,-0.0750696601678291,-0.049972127299484914,0.1730445245060838,-0.14508699374690265,0.05460440305363607,0.07748706498099503,0.6369717682890994,-0.23667451727990324,-0.35836064693376785,-0.08358591739613594,0.010908967282958863,-0.06616996775797002,-0.08603054003865845,0.0482634639470489,0.034494317092033384,0.12784906221155104,-0.24953955445350343,-0.03396760915635094,-0.07047524149205762,-0.04628651246827504,0.11611225805475066,-0.09778516259819038,0.14903302943312338,-0.055673005890129086,0.06488816703876281,-0.13412371554557764,-0.08284298355156386,-0.009671091644663867,-0.02873323283532645,-0.09714635375725676,0.01301093320083005,-0.050388297486716194,0.11714816963442454,-0.020794084836444068,0.09377673872317278,-0.04168561811351051,0.021383457357872695,-0.015230153328569257,0.06504641123629472,-0.10612734847360503,0.046714817460076635,0.023519374339566284,-0.04656337963018424,-0.012373360287046022,-0.07737502002108487,0.002941586690710295,-0.0742310954040708,-0.1273010778803525,-0.04990659450578393,0.02231909612624707,-0.09489423877846338,-0.023408071351162855,0.09481598449618214,-0.09140338357622652,-0.0452361223511557,-0.005953111895507139,0.06493914389381615,-0.057180785994672904,0.047438386798402885,0.00023857769119555266,-0.19754411246684628,-0.24585373539300062,-0.02884645476864066,0.05628925984995043,0.1141769856270217,-0.02413575145991485,-0.14774515436536495,0.0378246502076184,-0.07986252280990155,-0.07704548447881243,-0.15535337180349842,0.005246006205258254,0.13421583100388187,0.0880243205388461,-0.054502343777189086,-0.01656588953985502
-0.16926034091597464,-0.030975761814771786,0.5559119387532129,0.885084726564115,-0.029169968799675716,-1.269277128421009,0.14396738766881076,-0.11016555626604403,-0.18335412412559465,-0.013783570506082154,0.4402277166433347,0.6338171384822864,1.704959869918208,-1.8196262514037462,0.4684899863604582,0.9638364659012001,-1.9110701412183604,-0.32827072856477413,-2.1213958247509614,0.94075815351496,-0.18458834350786318,-1.050722597021355,0.07622143932901872,1.0573940102010473,-0.12219498271517297,1.1234404161158351,0.4843102075462656,1.3502860630634712,-0.6906301936944897,-0.29171221470745484,1.2622739079065826,1.671257866401577,1.1661365691673506,-0.23192986341508479,2.794253515296729,1.381924518985205,0.5949764919250641,1.304725697729737,0.7973206181954045,-0.1593569545561812,0.2523289018391832,0.5843511663368504,1.5389712497250638,0.9942864272972013,2.4117584526623266,3.6844179298140523,-1.2930279422793969,-0.525903103326981,0.056687977979063796,0.865048059220399,1.8971330767139598,0.001042067999637249,-0.14833496032294696,-0.1704401772469051,-0.004417241654760059,-0.031383523837230205,-0.15788038019960723,-0.04719012658424874,-0.16088236325727182,-0.6145645913036183,-0.6317424668872802,-0.031020299336265156,-0.6850161120760797,-0.626577521365,-0.7000375893422514,-0.17204011962717475,2.378984151274204,-0.5234719163294623,-0.264821860729464,0.34004185175179524,-0.196436896424602,-0.1731773556360828,-0.13179804819291968,-0.1481307348678159,-0.16903450074954082,-0.04343322862062859,-0.2264767407778912,-0.0338384517899937,-0.057989895517571444,-0.029824518419229045,0.12062187775866448,0.027534112167714387,-0.04571716052198749,-0.05134683981725662,-0.052160458267765185,-0.10052412271412035,0.09722410579274102,-0.08457040428272873,0.01408019452462906,0.18205053121528633,0.06566022383992606,-0.058467393044563255,-0.03516814471142069,-0.18104954042395063,0.0059490252949168125,-0.19984371287416616,-0.1041814350205966,-0.01838429428222093,-0.038787839360477396,0.1261825509359856,-0.055954087733209874,-0.1039980879712431,-0.3160695481931499,-0.18229750508970619,-0.2637847232292641,-0.2412128052942709,-0.4317750340365157,-0.22467836995410137,0.03508244493131585,-0.47718100766568433,-0.529101141424793,-0.370620437994762,0.005550335107195511,-0.13367583237421238,-0.059129785683934996,-0.042203721134728665,-0.0034647230461716024,-0.041746791273397574,0.048137817861321625,-0.1489471241929839,0.0039050661486075906,0.08004618878151164,0.10633824927031267,-0.03927854415059117,-0.07874927556631245,-0.07506170052992953,-0.17051476347560038,-0.02093299515424308,-0.09674421173381431,-0.016737422172430214,0.015815622123771994,-0.0016000792442218274,-0.16013472772811885,-0.15731012094364594,0.11313807217720766,0.0352700296334351,-0.09325644312704827,-0.028386031712743873,-0.008028704977631335,-0.009495120618135757,0.07245077611901897,-0.01003911759292828,-0.16731681072217688,0.05430453341361616,0.11015911390416339,0.04569066332282876,-0.17194510435679747,-0.050352557896216066,0.14235266896687832,0.04791246327059679,-0.29131124275392717,-0.004722575606284016,-0.13219232530301245,-0.020951296019862873,0.04362711030408156,0.010434229484244594,0.06701580790541774,-0.03424391397685187,-0.03461225372801263,0.055727025521718695,-0.057999903443477385,0.05531015553806304,0.09398338296083546
0.17947079658193052,-0.08145668064857504,0.1615431354892642,-1.978037699962447,-1.0379073431973482,3.357672238331987,-1.0406825814820087,-0.6630284802001424,1.1931476689357212,-0.8786306686245207,0.05356036465188336,-1.2809079510552819,-0.7626201948137886,-0.2610446254853184,-0.6967743742575531,-0.520164805334706,-0.461612268752141,-0.10670658632409138,-0.728475308369793,-1.0964466564835236,-0.584164849442794,-0.4734198636049495,0.023632681530291685,-0.05149528460713172,-0.28486417703175143,-1.2481074148413487,-1.0907053344170918,-1.4517546991975818,-0.2029640703003044,-0.046310574765368755,-0.7079854219234333,1.667694995578963,1.8599444304749637,-0.12548488373778607,-1.4922549242415168,-1.4904122168003222,-0.2534340791356934,2.4196146475767417,1.2403354003652804,2.680058486605312,2.04268236738726,0.7173657944891197,1.6833444433702718,0.4695243187283881,-2.7629019291460666,1.9354170614503416,1.9130172616293297,2.6245291299245093,-0.6407417414880443,-0.8227355594516013,4.837662124259047,-0.9342340220330667,-1.6766753058574835,-1.4682256477657576,-0.5639535516619205,0.32278044695505287,-0.3511015813353664,-0.3106510427107639,0.2668032058991054,-0.7192356598632597,-0.08950834831332517,-0.375896106702245,-0.2634041560266346,-0.2700268702339725,-0.27740308662212787,0.04582545345315096,-1.5958297896942848,2.4262181836766548,-0.46141710108592543,-0.8992954347746547,-0.6039591805952099,-0.4731283829307014,-1.5322869017302871,-1.2597108275768887,-0.8602823142750855,-0.6901150839413227,3.360525506318502,2.977755857151328,-0.4457429627296455,-0.451948913000285,-0.20710690349898092,-0.04586110635061052,-0.16146819598132348,-0.006902845109743504,-0.12204321383098714,-0.07919421838546101,-0.20699921384136716,0.03650823700114182,-0.03897243797169073,0.03836606085840665,-0.10559955778259052,-0.04800765505092653,-0.08622539489458475,-0.28482983123702826,-0.191622636854312,-0.3054802950544207,-0.06580667128257248,-0.22850631911600366,-0.2731938192165668,-0.10601198493126214,-0.29119759274092816,-0.3969213993155092,-0.5170882454697093,-0.08973421931068241,-0.08756895156829135,-0.3439879647524249,-0.1820233510607191,-0.2134598398745412,-0.1541428176806573,0.08377546740865237,-0.31689793718578807,-0.16796078792556554,-0.20416455818797774,0.0045337161763679265,-0.125442805293905,-0.7699016553184452,-0.6469688545625197,-0.28528301425520186,-0.13909092904953446,-0.10768217814738185,-0.015654068363576877,-0.1264928386066496,-0.2458595497618486,-0.08207200860862093,0.03084411857073222,-0.12099442539990078,-0.09186331532585844,-0.19211129648994069,0.0014006889483686954,-0.1797767354858426,-0.1262996557282474,-0.0189435802556249,-0.22535641586995395,0.0754972389436449,-0.17786237584417622,-0.04558872287228714,-0.25294222599441074,-0.2283617951483559,-0.24925789065866516,-0.020050463371169783,-0.08990530522949428,0.056287545299536765,-9240789821151585e-20,-0.09516568126085331,-0.03346209911859153,-0.16748439488023936,0.11487039781046897,-0.1295665550662958,0.03383042190607359,-0.11096623965893944,0.016931372266658976,0.07254299935102893,0.08638270800065576,0.029297102046241152,-0.13747553646670593,-0.15813146159412086,-0.055179635275979765,-0.06011833065108333,-0.10956500824219935,-0.032364523774282145,-0.04426514924576597,0.1936806499115085,-0.1333118608859539
0.251466201447175,1.4083579143302611,0.08242554614871608,-0.45831617566894733,-0.8454679048401952,0.5848224422890791,2.1560782633657967,0.1483146088803232,0.6236045006771317,-1.151449876338156,0.3664580877349892,0.034568234920675754,-0.6827683933904465,-0.31841716567774103,-0.3635045799394445,-0.3588336788266702,-0.43004306099195544,-0.26309282268854417,-0.6194264860307828,-0.39804114612255476,-0.11536597852627563,-0.2967156789790551,-0.04649204688150067,-0.083983833234037,1.9629808509424236,-1.3816466596379184,-0.5264949085881977,-0.9533665411987576,-0.2237666097640822,-0.3450740039946614,-0.03201684101403383,-0.7860727557754226,0.3621446328119525,-0.8093378455414952,-0.135247084020236,-0.1930019504422947,-0.2981386094859404,1.546486700074587,1.3872515798077176,0.23468892305820505,-1.562404552893915,-1.0604604716249693,0.903488843227385,2.299423616677745,1.4037946681593358,0.24582888233138744,1.0669936030825296,-0.2935847897736698,1.0621026256544008,3.52873077811373,-0.9034793956138728,-0.3932821884714908,2.641745020442491,-1.1563303084262508,-0.8752236349061291,1.1077089814038101,-0.5893512853623661,1.6214206695619757,1.7887705706497037,-0.47966283937479337,-0.19038478552970461,-0.3762857098148926,-0.25690633377328553,-0.27042586699106247,-0.2431225967028331,-0.0051603297947610555,-0.32294623562137026,-0.32528551708312603,-2.377666807532189,-2.2989507655057873,-0.9937074057317906,0.964613636352641,-1.4057315845537108,1.0713928517059503,2.753832342012566,2.4343430062996894,-1.0479995183218422,-0.1011065907143938,-0.569011460596294,-0.5158097222416099,-0.5591127403719885,0.09707593129855434,-0.09232523292209088,-0.29047912734008724,-0.1491401674624008,-0.04553926498236558,-0.06341256605362025,0.03171352423304121,-0.04208259691589513,-0.10362427566595049,-0.088780215746456,-0.0694416443835693,-0.11372317851010251,-0.3046386967582407,-0.20037915138490636,-0.34773489091670606,-0.28802092572279586,-0.27246182257304496,-0.4312958381028766,-0.13787051798389294,-0.12269200608389927,-0.4346072663636842,-0.3111990137535998,-0.2000590104350292,-0.22334083528056262,-0.427860068586959,-0.22523000625518838,-0.45976498425082685,0.041480982246751,-0.01819974961792692,-0.49232327537538356,-0.2694774337371068,-0.25512660448548535,0.02592928444109487,-0.13518709516606953,-2.8271616571901856,-2.7034901026262075,-0.7403811419937324,-0.9108238426826923,-0.45174751863062,-0.060560536744294305,0.055556506341758995,-0.28398742462376253,-0.22360771101727583,-0.06043194539619913,-0.24692928788308433,-0.22339931062126828,-0.2430969171571742,-0.07713080885050114,-0.18041387533344225,-0.12547972806900276,-0.4574175291402568,-0.08083169093651764,0.00010001510869216806,-0.24094702067551022,-0.3463084421668855,-0.23690126618701154,-0.2124509448795594,-0.2916615131241824,-0.1299105915826256,-0.1415255354474588,0.028896404590939968,0.05568114915654188,0.018913076686101767,-0.1558037667833096,0.15278030901192702,-0.21595660372019707,-0.038125760968356806,-0.004297572654115026,-0.12381216430876284,-0.062387368436171695,0.025215437130934753,0.19441681646229678,0.04469681159636806,-0.12277146710848684,0.03841612691071606,-0.05066896386973979,0.10929909524264436,0.0016244242165841893,-0.08481131408174593,-0.07108557737312894,-0.021608130529518363,-0.15235878415799334
0.06814273161027835,0.7339091731547149,1.0914528186804502,-0.3872169877943024,0.6393468751002104,1.5158644908216323,1.7718922814734266,-3.806632452353616,-0.05745443272525318,0.6060471045332497,0.02692468892896604,-0.24113725854162443,-0.16431961787032234,-0.08753149016237616,-0.015123015196459833,-0.15929903437558654,-0.026825962400158755,0.09416134943676185,-0.07002629912539264,0.01943439684066298,0.0182465305342008,-0.10073178731046271,0.005174342091874674,-0.12342218223994361,0.37491524879774224,1.4015476346813451,0.08883021815896154,0.4542637245635683,-0.14825838700740337,-0.0998670071832016,0.07967008291206948,0.0033824274384797893,-0.09231849895701881,-0.9065690751859365,3.357360492286513,-0.05528611511743792,-0.04722197610519143,-0.015454946181374558,0.7200154331614032,-0.27680189017809986,0.114139251413433,0.029358868265630635,-5.226778720330193,-0.10196417390967784,0.0922807450575144,0.08103375915335229,1.8741689333120963,1.6412027195128713,0.3581674119298883,-1.318766968849949,1.8548135856565076,-0.20247326455518813,3.18861800170735,0.42391738047591215,2.2268771093134596,1.2207521694003247,-0.5235022547244359,0.812137592755727,0.9515060373403434,-0.23603259826266343,-0.1596418856356543,0.05023058148603301,-0.020516829288031037,-0.17276010720918453,-0.020331447785664817,0.14442077793491856,-0.1874119791409991,-0.10757720478947606,-0.03572052622189671,-0.1229675244527341,2.1252300779367337,2.3283813691925745,0.6751159677338109,-1.3335220850856253,-0.3993685499618435,-0.5098787391714122,-2.4263732299077687,4.666107054831175,0.8850016856336942,-0.07468535760509877,-0.9969345720545434,0.0015657117667392637,0.06714320409214185,-0.10485249247171047,-0.033703030131245794,-0.027890386205238635,-0.05159509946313859,-0.10247807462530913,0.07325663700024623,-0.11220967146609405,-0.02272751663552841,-0.04721947848657897,0.05717405352852932,-0.09064984121364836,-0.257088837533196,0.07671934460879563,-0.11852906583367377,-0.19190996041505,0.07184930229207445,0.10608162396367285,0.10814328749141457,0.11089991882755791,0.20470599330744108,-0.07251154410496584,-0.035175006562710366,0.011851174795840667,-0.03595960889056308,0.09257682421348291,-0.11427087830044313,-0.04154132455649522,-0.024374851893289782,-0.11976459345756825,0.10403189862413355,-0.15752814555191233,-0.027458864115165856,-0.8427504436940484,-0.5875840695030707,-0.4296668898276513,-0.23877722571181717,-0.4496393333377531,-0.11083551860897406,-0.12222457202352642,-0.18260216907950397,-0.18917755949761234,0.05891013450303305,-0.1451286813802266,0.031325136226382014,-0.09291821032965751,0.004275716526571795,0.0695983011057705,0.04329613811834678,-0.21513548673097135,0.02418810812214218,-0.04741789450077414,0.062349478627008,0.05484067071103972,0.05937224437321463,0.09922003818995151,-0.020375072748931147,0.013714523122737557,0.0005028913685738595,-0.11085955114980697,0.002391913158053539,-0.0343499151031275,0.04165226844259802,0.13491263583388474,-0.032507510995299374,0.22610806610035136,-0.2537232492159694,0.07087876243074676,-0.024147183333897333,-0.025455902066317107,-0.09592264137239548,-0.02090543741148009,0.0661207058765507,-0.015725413421786336,0.2069950430159897,0.1261653232664681,-0.002969593954203378,0.10521480340024007,-0.20994225612943546,-0.02525512210854416,0.10306120468077776
0.046904641826762676,-0.3938227602751264,1.0900806439072768,-0.11445426583060524,1.04586409229182,-1.1952725639551918,-0.891804912843843,2.493233483765269,0.6848125547574966,-0.37790879471516026,0.4493796411228491,-0.2650334425336904,0.07547982692386997,-0.05529879710844715,-0.09887721261836867,-0.047512884868069746,-0.07995236586356415,-0.15533039980917823,-0.26876817408053727,-0.017919327194309578,-0.15470747942893345,-0.09098454079259917,-0.04139794504875726,0.015619628147057082,-0.341971380705272,0.9655055266157965,0.19834228757453873,-1.14823695216834,-0.03355832032831524,0.08005970806181985,-0.12923236176616157,-0.2379746852120474,0.040083299035729596,-0.08394350683910035,-0.9951104461419625,0.031782046026030006,-0.0032380862003999,-0.2702926307617475,-0.2909161058468583,1.464180396215671,0.05896014938385742,-0.008886961143009768,-0.2591858996430715,-0.0810960477293125,-2.395929572119257,0.11616792294997359,2.7977173502750343,2.233995609815325,-0.04786308313573893,-0.29859356790391883,-0.3780033026758994,0.14704422223169278,-4.851210042039822,1.357895313624572,1.3613178109907584,-0.5170001731552886,0.9645648560571669,1.5438816696225182,2.5211419946698563,-0.12180474447797153,-0.2945974433767534,-0.021044939020763258,-0.0865548228391308,-0.08275592493593235,0.006750172294405606,0.1338666871379532,-0.11561098019037,-0.09481498438766556,-0.33228087940429585,-0.17607609361850088,3.113328923730479,0.29609817934671795,-0.9220072429055578,-0.9625498906565433,-0.08039264571940549,-0.21537746050779186,5.009252521197647,-2.4847119456852003,-1.0808111943523782,0.5842430771899892,0.8684436011750579,-0.2605156788708779,0.1862006220522024,-0.48106665812597754,-0.10620964456641484,-1.408975413658543,0.935663833473853,-0.6309137718768112,1.0808742878712405,-0.49205019728067206,-0.007372304003499977,0.8096208582347607,0.2162444101431995,0.07490224366934829,0.11586369635848075,-0.02237438226175933,0.010882377804734748,0.08741965895246523,-0.03592201168858772,-0.08017050760756618,-0.12843386004389248,0.02565528082163115,0.10127116292557707,-0.16678411790603972,-0.04911093132425867,-0.25807676435900706,-0.04988255640620972,-0.1011778774143027,0.03338218976765623,0.0061488560827003625,-0.1259482250667862,-0.1953720381753039,-0.14526966361980434,0.09597734872084136,-0.031966419088444616,-0.409039700012605,-0.1318922985772994,-0.035346523841933875,0.04183739798332042,-0.0465176030706704,0.07488987227563935,-0.9121451968797544,1.3212833616561879,0.11880546957291854,-0.008778667242003949,-0.07568332444402041,-0.08823810359846433,-0.0427839901144742,-0.1156672251118958,-0.1914002421888212,-0.00206095433137764,-0.0721679527029679,-0.07425141798840636,-0.13211637066428306,-0.010815712276717068,-0.07461116286248372,-0.13816428259146893,-0.014655995192316876,-0.04009822600214553,0.12188776102503447,-0.026768489705676028,0.02475816540300973,-0.015278115931088758,-0.34938516270435466,0.08953509041688787,-0.09544491897045039,0.11593300571626147,0.02406467347308002,0.16870030050542525,-0.052320811203048205,-0.02240791534540205,-0.22849018271520904,-0.003205908122297581,-0.07878399268271544,0.04421464584358903,0.002839854101302525,-0.027316128897381286,0.23116671920340362,0.06967166576967056,0.04370694749398106,-0.20066302275123526,-0.0738132727884681,0.06377001272125654
-0.7145184549752018,-0.6898379178918063,-0.38439650215431803,-0.165897477906431,-0.715803159550317,-0.0623810402603837,-0.25527001415942285,1.7883553106811028,-0.6446347776921154,-0.7611995160688112,-0.12434942940007966,-0.08104328357914392,-0.24507915866244484,-0.13190118140614154,-0.21887742331886142,-0.16293014958550026,-0.2411559024846863,-0.18049525860580515,-0.225515163426009,-0.28455941537293933,-0.14062018588014144,-0.10804862732039809,-0.16423398610858023,-0.10932508926764246,0.26975381933550896,-0.32440638292275437,0.8708126122313388,0.6421444491661229,-0.07666979580124557,-0.028750107162936578,-0.12202653521320035,0.9151974792913313,0.3301900192992196,0.27054879297190176,-3.7987566683465093,-0.17800816258032506,-0.12713102510512447,0.6307858798012622,0.6167723617311933,1.5719331209968912,-0.07477036546155055,-0.2594191577825523,-0.13869728964171132,-0.047841505018892,-0.2974029108545326,-0.2271569402065604,-0.5987064594181162,-0.27190440085302403,1.0813337038183606,-0.43116012659461006,-0.3353549416546756,-0.8169707973633291,4.511636540461287,1.1014758504602538,0.39119144713938225,-0.35364020010802594,-1.1319079710927684,1.017710689372721,0.573173237740937,0.3558995827486498,-1.0211886197987283,0.4350615965591873,0.624450763871823,0.5104578204977342,1.5746557269224237,-0.1235929583262932,-0.22442520938025487,-0.21834535356299903,-0.3361017341475669,-0.3410762091089241,-1.6472508781005357,0.3639337833252337,-0.31281477099968513,-0.3367192142084187,-0.12359919457674629,-0.2747863798875614,-1.1140626730112655,-1.053039978592479,0.5832140372087572,0.09591912394222053,-1.0647933025684633,1.0707126462523506,1.2965416918694834,1.915144088030949,0.17421984141508617,1.2219616645380615,-0.1733204527438176,0.593787384835297,-0.24515341439211796,0.6320048844582625,0.667039922512515,-0.3514141384847876,0.3179537868250676,0.2654897185779753,-1.1358259398418424,0.4241633343219491,-1.598731173195579,1.3723512923613879,-1.4094333999989852,2.9994077944706725,-1.3883899524829093,0.7862903224091201,1.4458404250270875,-0.19242402607732884,0.021568647225798786,-0.21744459836553628,-0.0744754341434268,-0.2582709962826633,0.00622391738156468,-0.11640007301569383,-0.21294055039566584,-0.16309209614051146,0.5328129596320612,0.09416621675199832,0.007909866735904141,-0.2508943840587018,-0.19825656104025569,-0.18460580469110427,-0.13296648306740672,-0.04968709179518698,-0.32552783588102263,2.234701494927367,-0.7244962562377483,0.06658207291574508,0.3181993287461324,-0.2830953852195863,-0.2003922652954571,-0.11349479303102503,-0.22834070281535124,-0.1770554672752401,-0.030039162206397525,-0.04714167522431657,-0.07786732936288214,-0.05125164015042042,0.1492984470617771,-0.13073948110634623,-0.1291700081057346,-0.19943831072692314,-1.9534625990749215,0.11114573227129493,-0.15499619602089534,-0.06665091014224479,-0.35229400691020657,0.5468954696656952,-0.09104545655536354,0.018566431446987677,-0.051727036851782905,0.05982450315307063,0.02908399033253358,-0.0897134436868289,0.01377203248794389,-0.03631313173239986,0.17365809968422724,-0.03288995762114438,-0.050463077502813425,0.012151385569822563,-0.027243080675038115,-0.08724769116069313,0.0007735061086229716,0.11556465470051498,-0.040446639309950815,-0.07436866157441549,0.10451219556146178
-0.1574447184819882,-0.004532631015182808,-0.1380889961877439,-0.18848846478389544,-0.1293836689336164,-0.13737268347792425,-0.05413495661294765,-0.12952539630085466,-0.3164996594808373,-0.051639930278471254,-0.12630092578133226,-0.13162235385532245,-0.5564387937034087,0.029616647391104246,-0.5160676341309919,-0.6966753422611203,-0.16962124069123244,-0.10735936860435762,-0.3979653859751702,-0.682738568845854,-0.4656278425982544,-0.31366311308842915,-0.0040171773858408985,0.3116302918062776,-0.15259479599553527,-0.7710045691927205,-0.1741457901650624,0.5518553767793373,-0.12835347396459446,-0.11629698827553712,0.6335456298365234,0.35357787367635446,0.08304101799593863,1.0876026612081449,1.940953395510443,2.143514274235885,-0.8329286133941172,1.4045319319817082,1.7126781538806417,0.04234208553831957,-0.5426366087620679,-0.45634860189834786,-0.37451857061398497,-0.20002472976038815,-0.23102771788341137,-0.2856399105128103,-0.3307455819284836,-0.40295644071530284,-0.231900013383718,-0.8514683760672491,-0.9056268297185673,-0.10674883767322271,-0.34278942116583616,-0.2034939799104037,-0.13964005936767593,0.034159991335677306,-0.030252094103412272,-0.16743009122323024,-0.19007550148628602,3.5073862045863695,-0.7403360241482071,2.7642028202080424,-1.9450117330331829,3.3886745838813117,-0.4206506640557011,0.6606022440278773,-0.17581399042226828,-0.10243208981267772,2.0269169614876024,-1.403994776968729,-0.6221354368197858,-0.10783337404288391,0.016060048517760446,-0.11285129407105393,-0.09349473533646147,-0.17712862628092588,-0.4560804678619337,-0.588882775070436,1.3552020026750766,1.2199806865492446,1.4131146079787034,-0.17202460581875129,-0.33197514991895277,1.980592116372702,-0.07949885800799314,-0.045873751991010965,-0.14535556706158914,-0.026356270503575925,-0.15492911090724026,-0.033467224621359606,-0.32951132747206174,-0.06748400763043869,-0.1502805251853024,0.8543580957682316,-0.42583872702161296,1.2740119760261268,0.3533266053197825,2.424555127736854,1.5167830221478948,0.1361200333820221,0.5072011479742028,-1.9814012468163293,-1.6207929949359894,-0.0945903874060526,0.10517639760820052,-0.09940525328564945,0.0557657927045252,0.09608203554803267,0.14837138300406322,-0.07495149590651855,-0.027591514870379138,-0.138396279536888,0.052786051428084096,-0.07683371222775456,0.2880517171933143,-0.1974336695253423,-0.17601281801386423,-0.12780278666882963,-0.18630100409492106,0.11243947133466965,-0.010975359452673741,-0.10678082309117846,-0.16646674876046427,-0.10579150552813597,-0.06661911503497808,-1.1130346890524052,-0.6428242377611748,-0.9013487747260499,-1.0023831023999559,-0.3731035672635491,-0.21859213917683507,-0.2974559119743209,-0.03158935142329738,-0.09579977794008365,0.022776766991591597,-0.05487696516736983,-0.014280325359615717,-0.09798421101522992,-3.303182595349388,1.3653092832685711,0.8322385238721265,0.0358684325785104,-0.1658817889926436,0.041386813618975685,-0.08864670595014854,-0.07524996237006512,-0.016658165846823003,-0.0007581028883444729,-0.034679823362134495,-0.18599854669238236,-0.08578712504465483,-0.1151647371918137,-0.025040740154884267,0.03319312227413225,0.10577350840743613,0.11639308384164201,-0.06152015933027599,0.03875965628941524,0.03837153724043976,-0.18126115484649505,-0.04855786277782412,-0.13671404921641753,-0.07857713941148235
-0.3410316597330689,-0.22725575082706523,-0.24748629947994813,-0.07400943181890665,-0.09008555768218747,-0.12563610169509282,-0.16421380827058,-0.5645289466496008,-0.2691008278887168,-0.2884568346895921,-0.3399853606535811,-0.21299491014110838,-0.21235438343377228,-0.2354902538934448,-0.2695646619440501,-0.207072877986463,-0.23460020007181076,-0.07848874428460116,-0.30026096336553204,-0.3190754881248154,-0.24293239162390076,-0.1703185685739129,-0.13213950913948122,-0.43537467834249777,-0.10557415427081372,-0.26096577173545127,0.2646569891955594,0.5712933453747694,-0.2615596489055531,-0.19985224301294938,-0.4986024892356862,-0.4470973698988527,-0.2603470801216061,-0.22138333448919378,0.49333009178200854,-2.8505462059535014,-0.041636405402807206,0.18732363101622043,0.05516040575608503,1.044498907114069,-0.712282097895615,-0.6602386392555737,-0.3629487764649536,-0.25680124829726136,-0.30151739351300955,-0.0038047403216933304,-0.4139802351519078,-0.306305198291001,-0.30453282871459036,-0.7978436831580162,-0.9434852237459903,-0.3331508743091792,-0.042665201171662136,-0.18149536235913527,-0.3247633857701699,-0.18527579736884237,-0.08471515194598647,-0.3302629248581805,-0.2708328284831442,-8.84967345659132,2.21433340298317,-1.0592739965008862,0.23337192961795944,0.5009143111852667,0.18980959204692313,-0.10004152212528786,1.3296583116111285,1.4929876145595016,0.8506195874035891,1.655861697879688,-1.5161282345228517,-0.3334198187260216,-0.3097072187860051,-0.8621317857536694,-0.1751736700275599,-0.08021291292422533,-1.2558090973644385,-0.21108831270017153,-0.5147124680230428,-0.2834419557271378,0.008798130448172594,0.15288935636263984,-0.1508308445221748,-0.15147093633297384,0.10931563929944021,0.009177029257946154,-0.06103654646623988,0.04888183845207836,-0.08009910053319345,0.07239864290441415,-0.09476418286531263,-0.002711461593265769,0.08158866074035652,2.204469571785004,1.3033736773030404,1.095073059151985,1.2880245946034712,-0.2986259976702113,0.2837647418935617,-1.2371748164170617,0.9910658527817252,2.1710008219211137,1.11484048188673,-0.26216231096078674,-0.44932377489396524,-0.16806726718157614,-4.0271306987469195,-0.30848654115668506,-0.13067402035633532,0.03215768072188952,-0.326723112659737,-0.2615802078179713,-0.11072870329349814,-0.1696498180466606,-0.01756585440815223,-0.3822234490713315,-0.3061157811972852,-0.12993671906097323,-0.05014979473990129,-0.2374746669796063,-0.05480228058545074,-0.04591976667393751,-0.056926433592199024,-0.2898217015904568,-0.04725629001090487,-1.7100836680121154,-0.12331398286771386,-1.6879708606191048,-1.8251921448760098,-0.2773780532196543,-0.13686956096935884,-0.11374324489068856,-0.09391911524067731,-0.033707489230878865,-0.005343224686037178,-0.0775379757370503,-0.20029449154148185,-0.26855868429666313,0.016695259212861677,0.03607958694064337,-0.4290917373458539,0.056318343249881865,0.09918890924141877,0.043109522993814126,0.20046247209780696,-0.1585515790084508,-0.06066340248086619,-0.16561559681406013,-0.02358706720763306,-0.04327482523897414,-0.14741537356398698,0.11379946606045532,0.12132208675276,-0.07820434417762745,-0.05265375277164984,-0.1772899552762199,0.002806897792763236,0.17786960948377373,-0.02987267068981872,0.07237387516916632,0.12379139496474557,-0.013728720055980363,-0.05381215304878082
0.05652216122377034,0.10883950396509737,0.1524973484438728,0.18258137939913624,0.06423734549293447,0.2829214447054456,0.18480483814931764,-0.3092345249297969,-0.03408241552157417,0.2693382303965902,0.05539892834017998,0.05397979983510403,-0.022839516801509648,0.058029682684918274,0.15629336923346493,-0.045244657167444885,0.1493760890590221,0.03318089184052529,0.0845716386490546,-0.008539878789440297,0.2484191966952658,-0.02960722150099998,0.20978426781798423,0.21600286057737805,1.1413627313301085,-0.12423742379971352,1.609760892289073,1.2324610649806518,0.019344553472294527,-0.14790497426162205,0.010107299798296056,0.6444964575348202,1.2780589161903784,0.08442518795752789,-2.274964785137226,-0.3001815705279774,0.1204404508837156,1.156108762868605,1.494207020575885,1.742462091816812,1.7485619786216313,-0.5657813633859764,0.31115541651232387,-0.3132475003577255,1.2951791274762692,0.18768312740010207,-0.438815670087042,-0.25968272971932477,-0.2584950053581786,0.24196539185653104,2.7785036791802966,0.17352686735945372,-0.049680363568535044,0.10298597155842572,0.05236949140235282,0.23280446202687236,0.2302011828647515,0.13825515089730778,0.28411175119572385,3.5850044481919796,-0.18012950981679238,-0.11913331860121587,0.16316673618269006,0.3657914249449423,0.557571419716174,0.10546224474059623,2.6820395882677692,1.902052593332074,-1.8290078857445016,1.8887213562786145,-0.12622548225115637,-0.16549342528860492,-0.6652756394928083,1.0386880746898886,-0.23295777888644217,1.4828882209796457,-0.8447993649713148,-0.41443888453630046,0.08423310320311096,0.20386760350380198,0.1709858973502708,0.1399152323835753,0.09577211390588525,0.11536139382849861,-0.021198197719343805,-0.06239712728405916,0.1407381621971274,0.06942710895686491,0.3075317450277166,-0.007041435358417627,0.00016883228390911174,0.06901589589438928,0.13532517064564065,-0.06263444880851708,-0.4823440156733569,-0.686285604315613,-0.07498376300341299,-0.3572934182685037,0.6373897086403624,-0.4361166753701423,0.7876881041552555,1.2512968279436494,1.5809025430525712,1.1806256019128731,1.9441115034370802,0.41824805804254317,0.8521088546475158,1.2326166823049902,0.019372371391420236,-0.029015286897915032,0.9761538880187174,0.9960770004184722,0.152718976264642,0.12412280032809435,-0.8238717647491173,-0.6117194123546091,-0.6897665078611767,-0.007222093067411733,-0.09099209190937416,0.1296789260238577,0.09382245644243256,0.0026891064111738004,0.0013976913197996693,0.09868777154346622,0.06437599282452598,-0.119242560364768,-0.09270097517559228,0.06019651792312376,0.09155804298736842,0.01747375644825082,0.03977855069311844,0.0617107955937485,-0.07397353327816085,-0.01767756490006917,0.017978839197234114,-0.10748139759382183,0.01952998125898568,-0.07551157820797579,0.853964537717118,0.038602052242266385,-0.001268976078014744,-0.010275258724440406,0.10803402082612847,0.0816480876915855,0.007578058043088245,-0.08349697168490519,0.06507662760851325,-0.07783450243980106,0.0943691573953703,-0.009829754476044802,0.052962899782169594,-0.12063541377445733,0.0817489081503382,0.010182843332767512,-0.1150510615668608,0.157002570267338,-0.05984111927321369,-0.058672707972615305,-0.030924720686986686,-0.1446324851563096,-0.04687722217429808,0.09508379591660156,0.06678633858897651
-0.4415309546868227,-0.4015220381794302,0.600340741702003,-0.4807700869530198,-0.3079973514707341,-1.2815094072739155,-0.4687797691255297,-0.6806069428170333,-0.25601654769469273,-0.3720863171462357,0.8418619919885155,-0.4354576574582265,-0.36445883488387326,-0.37120516222646693,-0.29461072374182756,-0.19221399846627105,-0.3496389404542555,-0.14261427567929394,-0.5158080625638092,-0.2789161625267865,-0.40765547124871976,-0.3285968732660213,-0.015361432676852948,-0.3126376641654071,-1.1855424667919656,-0.25227811640298575,-0.06377219723156287,0.6958364883543517,-0.2812775989004188,-0.377482942040477,-0.2930209477218093,-0.5915928041333826,-0.4382767427181101,-0.2845035567740668,-0.6951225547495059,-0.3089102405724586,-0.23877676186045124,-0.3339953380511789,-0.7500516350643126,-0.026558181471745275,-0.1374173757984918,1.9153089264561962,2.9498072374102215,0.6787340530146322,1.4689384795663274,0.3503046517985589,-3.0069382460813188,-1.9708351016444172,0.969206324346238,0.010115709926990842,-0.6387104513769992,-0.16265541741935496,-0.463148516321127,-0.41023773210554265,-0.3656038171880208,-0.4391361144341719,-0.2605527965448052,-0.46045608725553216,-0.10511997547620154,1.1049412233830427,0.12076500504231265,-1.221475351645562,0.9485831542667804,-0.9883872787940098,0.7457545092415246,-0.009288183237081894,-0.20525047235071514,0.47865453520476386,2.8782117243351855,1.9618895478484382,-1.1798924316427808,0.20436845902805845,2.528656372359618,1.0394939379242085,0.6231839106876166,-0.26522486040442905,1.4009789830559778,-0.8869808125197995,-0.2011805538009507,-0.44580335283301137,-0.06091755381100166,-0.14531153936856686,-0.16124101100081364,-0.1047038481117422,0.06530354737612847,0.6169826769641051,-0.044035990546957955,-0.13631257817904113,-0.018771666225613427,-0.11591627385583658,-0.051077372872418154,-0.0961184065429379,0.0007234000349918461,-2.086608138353282,-0.37336086367722826,0.29332281577407043,-0.29534050089665165,-0.2197803005719343,-0.18116551699390251,-0.1657142500576777,-0.15440264825589053,0.8241809804831224,0.8577375219898207,-1.3312915269532817,-2.89132311905063,2.162565891796405,1.8589725395009156,2.3848636953224696,0.21999013495808983,0.7022076442753327,-0.8951293543692017,-1.094885309871878,-0.2950954900880442,-0.037274098977080256,2.04308787618812,2.574616923111234,-0.6078369750509016,-1.3039081683748228,-1.244230642472146,-0.9033962729778975,-0.25657259373208124,1.4164293133890795,-0.09396000151257491,-0.2488875059922618,-0.13814769832409185,-0.5416959489916676,-0.5040558391834614,-0.2675400973746766,-0.24932821942834954,-0.26745095271452846,-0.10270892350719607,-0.16753277525421914,-0.10584641306080611,-0.23673650294681134,-0.0914295074498299,-0.683624290754702,-0.23014226871511967,-0.30638010357686,0.4476052511035848,-0.5170358978355512,-0.08558390175724648,-0.1578230168441835,-0.2927316664203388,-0.07316245677827252,-0.1491619464706887,-0.14365953346541632,-0.14080759688048342,-0.15127785561863075,-0.16141857958574846,-0.10425316621970963,0.14932020426768625,-0.0665364879825505,-0.19109037448935137,-0.051287511991386946,-0.026861068582422647,-0.11780877730448293,-0.03389779836218756,-0.16418176000933718,0.027113734359612424,-0.0008406827789368663,0.20849536750979755,-0.1400399414263255,-0.03340269385321279
-1.6121300383494492,-0.6304883183335371,0.5625037139653303,-0.4038483839443513,-0.4646675438056293,0.43236078991201393,1.8975597633860635,1.5549659506477755,-1.6081718839487955,-1.3194407344175725,-2.9535781036922613,-0.3325801846311973,-0.32530634957213805,-0.3218553327876987,-0.1781852935150134,-0.21202398181436816,-0.20348334745230473,-0.3183709677488605,-0.4798582382860745,-0.16805767303237462,-0.29778999512905463,-0.2499576239650351,-0.18591933680885592,-0.23296899925055944,-0.017948505363387993,-0.2304218804889962,-0.5985710922965812,-1.4851799232158551,-0.20964705779194215,-0.336992033067992,-0.19079876174441274,-0.3452563168229897,-0.29512476045999286,-0.7594672052791774,-3.028769779471646,-0.23884873089512879,-0.17739273646569695,-1.2669998245441767,-1.0090772588322776,0.05713391742177072,-0.6448638715157812,-0.38969644051346586,-0.6460910779082774,1.778152952068938,-1.1664569342625406,1.806461508474405,-1.0714838827096473,0.6245951451205877,0.6527440788467898,3.027674998029199,2.628883356694782,-0.5842708513525093,-2.839486461670333,1.2963380828559987,-0.2642198297279036,0.802930944306454,-0.35849914706870284,-2.3987307812350918,-2.4226534762611873,1.0531636447566186,-0.3212693755367104,1.4367097098643427,-0.20901687588457188,-0.12821787615916558,-0.203011733995124,-0.10091987840819665,1.7792753934874872,1.0541778210045671,-0.27476663140814817,1.0896416177520656,2.303378551883833,3.259796250472719,0.973305488253021,-1.567093020158953,2.8178572181494763,0.023293292223274677,2.5293745231377334,1.0006073129272308,0.29906552056004276,-1.6568495802490255,-1.5597923376712561,-0.1156905893224838,-0.26293238004360897,-0.31482045583500057,-0.19108220430590536,-0.54355921251862,0.06378304458710218,-0.012530120701440564,-0.12899042864544613,0.024170200269231293,-0.13752799831957888,-0.10522907276372065,-0.034412515600736604,-0.35334661519044297,-0.26700285489932635,-0.38622670922243957,-0.18299815068536732,-0.2139506135060097,-0.17914921508060905,-0.19664763879487077,-0.11887517144105522,-0.4226626708537323,-0.4595455005291763,-0.4340054631665363,-0.08706385945303616,-1.4306122075898233,0.2354721053831268,-1.4012485298558666,-0.167786061264991,0.007111119802818245,0.04789907746339131,0.11924938707490117,1.325990983604056,-0.02317337637807153,-0.6849794301431873,-0.7603493168460289,0.6787462683562042,-1.0439927796850952,-0.4073233189390211,-2.410221872445494,0.0125143473222555,-1.2536156179343811,-0.24471982766094313,-0.11976602364326203,-0.17296856885577583,-0.7405944237864117,-0.6668091309534996,-0.3201097481835899,-0.3572826104340572,-0.14517068050191695,-0.13176476355155312,-0.11432185295428052,-0.25639676292404384,-0.2191428770651657,-0.11950416602219012,-3.249209398630919,-0.9682513150791835,-1.0903025916561768,-0.20158653281224062,0.005110671814089242,0.12462177212078163,-0.1989217423801962,-0.03390523487573197,-0.07197386910184554,-0.15846261249068416,-0.039859098724543435,-0.25325232553286353,0.14268587284006548,0.06920442473890856,-0.026666573202921946,-0.09996114831216722,-0.006962163939382881,0.22473821725021176,-0.1385395870695255,-0.02767602781457971,0.040827498812067015,-0.012767626582737357,0.17278373912863598,-0.17099302403219102,-0.0993271947780683,-0.06544859122637064,0.07695325260235292,0.07387420746873288
-1.4445207975295151,-1.0101203691535632,-3.2479706539494573,-0.22281624637418201,-1.3672833397710922,-0.8791680686811643,-1.138942547659464,0.9631288662674725,-1.3381659937903132,-1.083052709242701,1.5247448089760243,-0.4247337981723312,-0.34551855311473084,-0.39404155492764015,-0.17003254155945827,-0.3339416513371309,-0.25686384476159385,-0.052830611789395125,-0.2322858089593311,-0.33129833939895853,-0.09532296652507354,-0.13538386163272767,-0.20653034659499145,-0.31641368455303487,-0.32026763234466205,-0.49335062224053366,-0.9010803980200669,-0.8911769134596526,-0.22159383727776663,-0.27980814185500835,-0.41081306650169247,-0.15498211992773442,0.0583562212061481,0.103873083362119,0.10076577491976108,-0.27029586053820076,-0.15436921728126907,0.1200950936592438,0.16348740463661496,-1.1693612568761829,-0.2640211787381618,-0.058729051234135535,-1.1403005787729088,-0.3157329131054357,0.9055777869272503,-0.19178531748487523,1.9331068585185094,-3.143574686453759,-0.0599035636094664,3.730389429929654,1.221911973279939,-0.5837912360073224,0.7049671824907462,0.5720317316402347,-3.8118420443110126,0.0993656605887424,-3.175438404124781,0.9524103106787207,0.30220973468713325,-0.5071950626263273,-0.3654701871738364,-0.24329652096013993,-0.25045817301511636,-0.24759229560260024,-0.27890526861732584,-0.047085091363675995,-0.3197505254399267,-0.35954121702652536,-0.17757091224548488,-0.16874253765470404,-5.251198983827751,-0.5198387467206289,0.7988623853018754,1.5593821610315846,-0.81938241783791,0.9114982039209423,2.3682274786885826,3.664645269570278,0.6208555441028342,1.1850542513100994,-0.2405337957430867,-0.5821745891393519,-0.2742156472176443,-0.3444034038665417,-0.04374858851928708,-0.14908012307693802,-0.020654568828597872,-0.04849530470053018,-0.10556600384369415,-0.16598632886718714,-0.21216342314905004,-0.10970919681296917,-0.019057406755658167,-0.2162388660580261,-0.36457134164236393,-0.330383723337418,-0.23928207552118771,-0.25000684494055825,-0.3301003175058467,-0.13987940182753636,-0.24457315431867008,-0.44978068063334187,-0.3220670561842764,-0.3751812592287101,-0.831433047540099,-2.064709349924668,-1.0537923590196188,-2.167459157203989,0.027444078737231353,-0.10528863378995074,-0.8261409012441363,-0.7728328746549729,-0.023650811666618567,-0.07976537613316378,-0.30965310832720183,-0.11646817305934132,1.1822186202766245,-1.008285896548948,-1.2067844258425526,-0.7495474567935112,-0.02497969592516978,-0.676828679911166,-0.8118801660086725,-0.1102714073979572,-0.08431666636286742,-0.40634315468994486,-0.14898193698312062,-0.11889836300718674,-0.18424176195884237,-0.13047709412844918,-0.14430309579169123,0.06400007005361454,-0.10366047520869943,-0.10552911821001627,-0.1688623816823755,-1.9969096273892353,-0.818554627048352,-0.15298594646610866,-0.189712472902985,-0.028298195716471176,-0.11772847331752252,-0.13826989437129783,-0.14108824061660705,-0.07894648525296745,0.07654017188962256,-0.02596775215176839,-0.24131334883627467,-0.05250977113186735,-0.011733193919935419,-0.013007661360504345,0.05304424503305466,-0.09615684675502817,-0.19431115897283277,-0.030425813604467576,0.018704745669660874,-0.047886797773088186,-0.019984983609378035,-0.12057163029451269,0.053989210361402015,0.01283561756339751,0.004547923220866143,0.0630313386127297,0.07573243121801859
-0.5666831802243302,-0.5214917119980901,-0.16139732270242546,-0.369103566578273,-1.0791321256223019,-0.4492416209117624,-0.2140799786750406,-0.8259882681184321,-0.41852474266716017,-0.5060971573119409,-0.22212413106812415,-0.18210218778058107,-0.07631085720753729,-0.18690594442866398,-0.287345749920495,-0.0919867189410526,-0.14823082872736515,-0.14613237845911917,-0.18905134111198474,-0.06981113034391451,-0.0471962833125129,-0.1698612947419081,-0.08000571434857026,-0.10271601099410353,-0.21427671693373337,1.2331120102427076,-1.2299968126007474,0.3753820165464481,-0.28111131199838485,-0.17403761257298114,-0.27305826480084044,-0.38906843551757114,-0.27154862743246316,0.4677478621718549,-0.8049371171442208,-0.09188949298082404,-0.20916025970649268,-0.2387163383931096,-0.09617427692951153,1.292929540688607,-0.08075232932998054,-0.019789815802142167,-0.5657112588572276,-0.03513109307505013,-0.3770776522805289,-0.3336640955834067,-0.7802834553449415,-0.7279066609452112,1.2148687968480063,-2.8885097297940034,-0.7735283668612576,-0.8168697750269929,1.7552869833205973,0.5537914454314731,-0.807029097290847,-0.12941045906875412,-0.2602551895409981,0.08497885182783645,-0.033260746250713694,-0.22269849370661685,-0.1558547694206192,-0.23158300382397373,-0.2814257127579742,-0.09969593509933676,-0.05619713174038572,0.07285388541283788,-0.11766438943737423,-0.1730403187784415,-0.3861573981562205,-0.26462996269534367,3.27986229901232,2.752056329232075,-0.3622117392233468,1.5301204968038435,-0.15397263521919843,-0.09478214891010624,-3.087986205667926,1.6712102931817356,1.3037438187703587,0.15752120014590207,1.5510743120022938,-0.38592526074802136,-0.2466113008980841,-0.8304474035105983,-0.14405735158131538,-0.26485522582415905,0.10335143281356131,0.11382366600738433,-0.07020593411415643,-0.1983644548591664,-0.160944077748949,-0.11711679646718874,-0.3301963308859969,-0.19855400489842276,-0.20376283262880537,-0.07665697210774122,-0.22107039623214944,-0.22230370729255636,-0.13411893448647844,-0.012924656273647115,-0.12593398320156632,-0.22762318664175044,-0.03872260965721285,-0.1415459380814255,-0.13801589032608322,-0.3077224826578792,-0.1524374069195683,-0.19832581195199,-0.2607449101045391,-0.12009709500371576,-0.22490066912106565,-0.3136503224636211,0.17430534501471598,0.08177265096118279,-0.0040163088645409585,-0.535617619073596,-0.9288093852657229,-0.20016576980846826,-0.17704562228607978,-0.4773921117461366,-0.29328975008408426,-0.3683625430800692,-0.7842411161232355,-0.12488859378031612,-0.3008715956659136,-0.008185267688945357,-0.1253445101205901,0.014749069985167952,-0.05847779736818186,0.006204503249150505,-0.07473851301477603,-0.1265461817936329,-0.21025025480472698,-0.170537319291281,0.08485883941287689,-0.15403242368146494,-0.21379507288951674,-0.16523507959500072,0.018739665014659613,0.122899112216203,-0.1129252138056705,0.1989299816089375,-0.13225597832390193,0.10105153817722534,-0.052147858827187435,-0.04470728975611317,-0.09557090546198019,-0.06577163523082691,-0.17752890871948107,0.05215823862932826,-0.10031223005016872,-0.031465076752421536,0.06839530622336448,-0.044854664668412335,-0.02300183115753666,0.005097217267497014,-0.061725785665495095,-0.020267206754666933,-0.050190096074389644,0.019472345715260582,-0.07799340321861405,-0.01716053957523488,0.09262029555165567
-0.10823333960538219,-0.013728236760512057,0.051736065828789646,0.02712792658797754,-0.23347306891537767,-0.08356537566209381,-0.11432299130037615,1.2186063786477521,-0.1252987378916475,-0.06549874762905884,-0.0818307102203023,0.022385348417171512,-0.17794298202599468,-0.2302004360304129,0.05002864067345407,-0.17383257416432077,-0.007645205485691561,0.12268931780217139,-0.02893473193655203,-0.07692188448547908,-0.13159047635817336,-0.05602490444078369,-0.013637827461899234,0.04696388636167049,-0.23017523118781996,0.5596407924987636,1.751648973558689,0.9729329176431413,-0.028393357337825633,0.02336638347024744,0.04157403309196364,0.1803456860936755,-0.009403519517837654,2.2964329278076416,1.7127567745439152,-0.13595987477989901,-0.025419676292173073,-0.2788982045435618,0.07003551740071891,1.0852413668716505,-0.07083193101070565,-0.03341468939095231,-0.11643304379772565,-0.10402420877296788,-0.03636083776009949,0.07242506578451054,-0.09631547307977335,-0.3746268430283933,-0.9056917917900627,-0.1477042429469669,-0.30075023696778225,-0.10589253396386583,1.2241375921990998,0.1948324467934915,0.012805597296755112,0.14965436302956606,-0.3795861215591366,-1.3115879690935872,-2.167433610595153,-0.16071169324598727,-0.0071223767661688815,-0.04167537946175178,0.07192052949868172,-0.051541917067417,-0.16609864277388284,0.08007516048420225,-0.12675987960016366,-0.037470765646349706,-0.20453288912186282,0.03981999823838108,5.081123361285766,-0.8567453691140579,0.6139963842972126,0.9792887716771432,-0.12757837666627775,-0.017935480303347604,2.0190354810025095,-1.4073288168660858,0.2876788463784026,1.6800923240579833,0.39883836831052577,-0.12817070123578025,0.5836781961895692,0.16877416401083184,0.3319914862963269,0.23091354857950766,-0.32768620699986817,0.08318115762562117,-0.23996769923908254,-0.1012493711329354,0.5482856078486791,-0.25374847414823104,-0.022992161808875828,-0.11083066694883775,0.07463688788497627,0.0013684477280083906,-0.22136160650016928,-0.049439627486559765,-0.1490466294188288,-0.009875474352500944,0.06501088794656146,-0.13870579212023582,0.16558621970973603,-0.02230914478636734,-0.035343700379793855,-0.009134279586624971,-0.04818482964535063,-0.046611983550341296,0.36160424532538304,-0.3149750839823803,0.02808178199383924,-0.14601070440843614,-0.2209500056423142,-0.0376715496038049,-0.07851162236469007,-0.12334376263946359,-0.33873530790839185,0.027375494933208816,-0.0544510822138325,-0.0715646559702517,0.1398325159360823,1.3711218499608142,-0.18096435636353994,-0.4018387128320582,-0.44961816349996564,-0.10081166639229501,-0.02094349637303796,0.011341386204002954,0.019983911283400824,0.03580241408471403,0.036451558116425954,0.03242980523517264,0.10369744953290459,0.0958278011607359,-0.17211104328142318,-0.1155570530396023,0.05513957143126469,-0.1638741224373833,-0.005223937581203521,0.06602349173944914,0.01315961059215429,-0.0823102827394287,0.024512001298492146,0.2709466961660303,-0.07618987164772585,-0.0881120748157793,0.13528117948641408,0.013954807910649519,-0.12128470982231168,0.10956894183063022,-0.15261942620495617,-0.1617153050178096,-0.04268521980165802,0.034311784164504006,-0.11484672623797874,0.019635463326507473,0.019308262402614358,0.06873384417041697,-0.185590066024229,0.019891610610288706,-0.13548486114424974,0.5925213802211587,-0.15330515309373752
-0.75536098383607,-0.5368682418575426,-0.7600347051084755,-0.5775809513770599,-0.5496739995933346,-0.793147531484913,-0.4243669297369121,-1.6694231515100324,-0.8243477772347091,-0.5209348315702129,-0.5359383323605025,-0.5114687157534004,-0.9747495811747007,-0.8498411761860796,-0.7145023209359382,-0.7458222584755545,-0.717961644464305,-0.05543682184201337,-0.8243744272778686,-0.7964869479244493,-0.8048659532885876,-0.7982974932267144,-0.2713279625904807,-0.3657484863627567,-1.2605618609729086,-2.1704044116044674,-0.474907211620103,-0.8570105723675869,-0.42617901553283494,-0.5043254703073281,-0.2863922014120038,-0.7411966585917702,-0.9324916551583097,-0.8229847467569589,3.78058455144479,-0.3134267885176148,-0.38193241359838853,-1.0045772482746915,-0.8627360094824672,-1.755689699858394,-0.3969471373277489,-0.4175148902187898,-0.5880302072069318,-0.17093205420054675,-0.5567858707294782,-0.42600166162963277,-0.9406230250396407,-1.013659283806589,-1.702612679003848,-0.5485163567418112,-1.1780073786477867,-0.5986194432015254,-1.1265537011948819,-1.6129083428576714,-0.39580309468054903,-0.3672860838317608,-0.5846568879859448,-0.8768435292550285,-0.7400333186058178,-0.2224492769797817,0.4139651379924213,-0.6369138354950071,0.4683555174033923,-0.2969386504663111,-0.15979450215349375,-0.0806951303433295,-0.3461076860285849,-0.2803501534730444,-0.3365516902180625,-0.3229656996846358,0.2791748465937997,-0.24467354924168438,-0.821303011349583,-0.7466923101395373,-0.39810216725100844,-0.5856361567315476,-0.30994907152440054,-0.07985798141888024,-1.331991540344312,-0.7656825022547044,1.474427823479765,0.2581768836294588,-0.7543782196795101,-1.3324028246332915,-0.11124371606793151,-0.2701847087270322,-0.19584726401770997,-0.1563997435086642,-0.27567069850916187,-0.21787046021312953,-0.15810824930005343,0.10846854149009097,-0.2823308744196097,-0.5097375154678191,-0.7158260380393435,-0.5283365961550328,-0.588150334657258,-0.7012849203323561,-0.5257314600722618,-0.7848548320958385,-0.7515682752852687,-0.5901112138749366,-0.6938717208602218,-0.2395731870637545,-0.3643403899098885,-0.6352258921294439,-0.5414133291896616,-0.4613561982055269,0.015368150131181492,0.6528493338316882,-0.36502874381514694,-0.33507571355978993,-0.10562806832982172,-0.03317037064598301,-0.3043957604320627,-1.004382221186308,-0.994015155577757,-0.32978113818687693,-0.2982327809987343,-0.7104771360869077,0.23248835300303453,-1.7488309793446921,1.437749526961235,0.2320931112704114,2.4533465607034475,-0.7350756317035816,-0.2821416285609897,-0.39917072891350325,-0.3127895159790808,-0.2664059745161582,-0.33278650087124056,-0.22336126616022228,-0.10584213442925344,-0.04976816451048005,-0.09896361389200266,-0.8556817351546632,-1.1964071827373841,-1.3066363993832395,-0.09448677423889625,-0.08425331900764378,-0.06801846036751392,-0.07210153559538053,0.42814409073715004,-0.08003163048340664,-0.04264635044931818,-0.12617838064324263,-0.20042080522126313,-0.08757745773949309,-0.14898137014792442,0.02241963825408296,-0.12465384181547985,-0.10986298588538485,-0.06908252761557106,0.07860224364042076,-0.14720816646788043,-0.084726047651493,0.19677277749625974,0.07706696660369763,-0.1472643243439758,-0.2043833462645588,-0.10138777242298797,-0.5403924435292822,-0.01572491554537779
-0.4920285029058191,-0.41229544715699834,-0.8441260163397343,-0.2993549502942902,-0.4119822359661417,-0.593890702910709,-0.3421054469380944,-0.8059859641239762,-0.6591589300895782,-0.38927958532246415,-0.5179752383700343,-0.41328988047626,-0.6613780083361318,-0.5136584478863063,-0.5016164707965534,-0.4233053012291196,-0.4393267233821784,-0.3274043435672193,-0.6440053894463805,-0.5608954808367737,-0.4039289736045452,-0.314558928376852,0.01045966648239459,-0.6009941543397982,-0.225221585427775,-0.30150492700097786,-0.49649330861635604,-0.23075174179573654,-0.4042302880676015,-0.26268542805882344,-0.47519692741134323,-0.10670135100809769,-0.001282231661694024,-0.2947632416881522,-1.1311018785939386,-0.2628154841595545,-0.23320697016723582,-1.1373367296579964,-1.2376336900408635,-1.3264903308296654,-0.32173472527920555,-0.45688641387665246,-0.6189453590479402,-0.35611451304286845,-0.48442286385855576,-0.24560290850704014,-0.7028443274653229,-0.8677466985311892,-0.7505046783979303,0.4947920567285554,-1.2305668953273439,-0.4290254997038669,-0.597735216143592,-0.7259497306387981,-0.4309323853204955,-0.38263314720745767,-0.24018160002100494,-0.5377648483015072,-0.5513452602986736,-0.053910317471148446,0.10598255824510382,0.9872365151865407,0.4152775017610982,0.009247375650547531,0.18573516025435355,-0.22760995716917193,-0.37951121775986374,-0.29104119356236463,-0.2613997767659748,-0.9657890798720447,0.9917364664059308,-0.9758055827590192,-0.7011052001327451,-0.677126850531606,-0.48361822933976667,-0.4382891147943419,1.3084333286543992,-0.5265875829878237,-0.6345153897709732,-0.5018225907367769,-0.6219890878316225,-0.18541883088888206,-0.4222224916192295,-0.2549549422675881,-0.04173617588136099,-0.09608859899530055,-0.12433169991853217,-0.1416031816168278,-0.017824198894747217,-0.09526191206019835,-0.38901826107114534,-0.05761458562334117,0.0047544701537444185,1.1410425745009383,-7.360141423069639,0.6495661508666214,-2.500560086759976,1.8594416806415808,0.25992024388055857,1.4874732273994382,0.07345576250010866,-1.7317621086055301,-0.14372634827961056,-1.9004581568410965,-0.48390557073169477,-2.8221104465497606,-0.6281312561825751,-1.5847707508463835,-0.0386161915442682,0.05991903235180232,-0.4302480911195298,-0.3992900101300386,-0.07035993333793081,0.09366816701920143,-0.08874159697394472,-0.8159072679995819,-0.7695426192828736,-0.3650400141275401,-0.25191232843857797,-0.7057573055924149,-0.029767040685113842,-0.20202174158396194,-0.31268471485920624,2.2362379502945955,-0.8222244907940934,1.4900311395876313,1.0396549944714955,4.861159876037526,2.226284197918296,-1.8655554754735748,1.2646017680878487,-1.3153030867074444,-0.22446126770960645,-0.46169441508415326,-0.2956948553013418,-0.6019941271718672,-0.8293262470694943,-0.7198327720182391,-1.0138658414500257,0.041138960775813964,-0.12723332747010235,-0.03646049545144013,-0.11483127281385673,0.07685539946701292,0.13317163035460594,0.032063741442770625,-0.13121816056984326,0.04706745395045823,-0.10196536590084913,0.04560677171037132,0.006641609666707516,-0.1720869045009142,-0.06392960582770282,-0.1061740279244712,0.08294265440284368,0.026766881281801123,-0.13362647995138816,0.07720671716258497,-0.02687052153598136,0.10194725232748371,0.18403140323824707,-0.011985052639594072,-0.007784510041887676
0.6444003480872322,0.8283671102999336,0.9075343124368074,0.6663833463051625,0.626501255098013,0.7146103038323673,0.5297325039532778,0.7531634935560771,0.9023457786658314,0.8443352305792058,0.802462039588103,0.769798337613027,0.770435541429458,0.46812101920090293,0.7316782998330101,0.7540117144771692,0.7787387641024351,0.3402855319027399,0.8443956962171274,0.7224596551172445,0.6687955822026425,0.5893419743662413,0.3797449707240664,0.3242518161516628,0.38630356843037417,0.29147681063646635,0.11883054716766378,0.18199877367235878,0.6544158568594481,0.6732478446529429,0.304017767483462,-0.34144883265086584,-0.46695179165820605,0.4373822832756267,0.5479951794734861,0.5276783310110245,0.5654286536037505,-0.202779235200196,-0.05010130516274037,0.46277941681598944,0.6153674830521637,0.650671809185336,0.5893830259002528,0.04693030257769826,0.5004261487158482,0.04716978374548672,0.9071168363328966,0.7002791730399578,0.7892341468493482,0.8721784697819426,0.6033583726018188,0.4885531531201013,0.8131281452709811,0.892802897429349,0.6457283346490336,-0.03843586512317077,0.6186696580559633,0.6532708326209984,0.7326798228781993,3.2561845187453002,1.953555756505559,-0.8807662152713437,1.611192961227078,-1.0886195455187202,-1.0175189620508005,0.08589693515712077,-1.0326991888595753,-6.756371278158339,0.06970035646875435,0.08249276447102256,0.9121296017650073,0.8891834649301035,0.43581958646317853,0.35386799043714084,0.16383875914766002,0.4152249656817557,0.8104840849926758,0.9175054121311238,0.4370591436756485,0.4852602017921433,0.7460991292676655,0.2558393048901773,0.29462695391357224,0.5148482822312878,0.11146327216543667,0.0679092892234622,0.10059223280432086,0.18301864996710143,0.22234725626186921,0.2719106000904989,0.21634444220885896,0.17178190324286552,0.09046645862361831,-1.911841483575909,8.945982739223133,0.42341151481415745,3.602043087290151,0.38851140626105896,-0.4395603400212558,0.3903936186346643,0.22698698941704948,0.4361309247703248,-2.05467533767433,-1.0809989975929961,4.787379294955207,4.819235016707942,2.3778167195208684,2.311991436620498,0.06743128365130381,0.2601495269114312,-0.24404612087846597,-0.25099157119458926,-0.010073502911351324,0.11010015708326218,-2.843248670126739,-1.5698929410438103,-1.3762329132870657,0.4502636485384269,0.3943486574009556,0.4031533252574761,0.09738524581185781,0.3305157009293167,0.2553005192534595,0.3516114584555683,0.30636003441236737,1.9985084376742166,-1.1458493229707107,0.7260036357139396,3.7914620680129487,-0.7095562012202724,1.075845978787632,1.2771251425799761,0.32115810850982224,-1.9539051128578286,0.034105815795225716,0.4395676331154509,0.38681274912043806,0.6567515544778256,2.3190406633667138,0.20686399641414463,0.14989094390671845,-0.02604940919815852,0.20219938005884233,-0.05956279039675062,0.1643076110823987,-0.032281366141013845,0.1846061965530576,0.18411209524902175,0.17242692794264264,-0.03162431793930954,-0.024214678375533726,0.10117227848984552,0.11241012945244895,-0.06972438266985993,0.05151233081435895,0.0938695014713578,0.0637559335282525,0.0704257632152243,-0.03930483314231421,0.09907616008943636,0.11386114562900125,0.127985678554855,0.023058752852241484
0.5967488162975475,0.5542648195109575,0.6221617847825229,0.5923672134441027,0.3445931198897153,0.6026048081218188,0.30704374032567633,0.7355641347640658,0.6060472556299817,0.3841291276232252,0.6365769947598937,0.5253846139247713,0.5924288854246621,0.36663036267280796,0.47298381489363833,0.4735565061022976,0.5705419311790713,0.24754175493627373,0.7647622354055879,0.43284301186580043,0.6743101565476236,0.4877312294694403,0.1066076971637546,0.23267092917046384,0.30755816820343534,0.47244309726808675,0.14456305614518594,0.3561951750727693,0.30764890572122605,0.3336230913090468,0.5622979117363136,0.3437182571618729,0.4257333336203664,0.26579475546474823,0.6366221456645677,0.3156095662066933,0.2693681691692725,0.5836394669276936,0.42909132785568604,0.3052659221591711,0.43676568197711174,0.2847798236369954,-0.3001973003527664,-0.5071567559513536,-0.057931541550830516,-0.2129282380876872,-0.5522938645133234,-0.05035607178545952,0.7763743768842055,0.5677469026945507,-0.23172855912910206,0.3908864043094447,0.7076520564213854,0.4726577559417317,0.5816136566940028,0.13620411200351484,0.30831518154700044,0.2805659168490899,0.557285918149619,-0.1504566673983826,0.10919399151700163,1.4213326474370749,0.01070325871128652,0.1956412418959848,-0.004947443007307313,0.1985602139808179,2.2761849408016324,-0.07833712501616519,-0.46460007296454015,-3.0711511395853686,0.3770570759616732,-0.5667826829247082,-1.552582846684277,-1.6377184179986768,0.19202571075962996,0.05212496191950717,0.40240921745810054,0.6263534716797122,0.3968208793646562,0.3210179807507335,0.4738858896222319,-0.05097083393665114,0.15719283558225716,0.3259731991693715,0.11402479799800401,0.25314826861132156,0.31740401464000545,0.10710181435777974,0.2461157775267749,0.03235554650493769,0.27388452280228265,0.1591440696970203,0.11552340378545106,2.5806975744115728,2.7558171297341487,0.5307332635108537,1.5520401582669079,-1.5428241600377017,2.0882514601465005,-0.35423806274675507,1.87824047797744,1.487414057233829,2.169892321991923,-2.414185366027537,0.5870865033166769,-0.11656436114687128,3.733191455980577,3.8292967117907177,0.10121394217554436,0.13403929818495128,5.328461771380816,0.6836805234274668,-0.4967398975577488,-0.015848502751121783,4.415981082505109,3.396876283674792,0.11534456128714551,-0.8274339619568725,-0.9924034128238169,-0.013293175661405126,-0.002468117734727101,0.22812471540222762,0.19250538010065826,0.26751365369373076,-0.00869370939425893,-1.2532052182161488,-0.6343361745639986,-0.22949306283750442,-0.530259810939497,2.9487607065388683,-0.49246372606116356,0.07591758479937229,0.7175238760619979,1.7990380814670224,2.336531706988704,-0.04028222898088378,0.2556620792199051,0.13683016054527516,-1.7737613975269264,-0.317042881202783,0.16234326766969676,-0.14801875107910117,0.19734162208687747,0.16979789253168268,-0.3302704601891346,0.012426393479571281,0.19749440590896916,0.08800787017487986,0.1448125949055448,0.1134574010750571,0.1831600481368646,0.16358085749276066,-0.11711239498649102,-0.027128228317336665,0.08458440385480001,0.05045159003895077,0.027106787954780217,-0.029148865043624086,0.014611891133584768,0.09716095867663992,0.04842444803237403,0.29633721400990176,-0.12325987709617664
0.21104119411902736,-0.052950839856551295,0.3351387985587739,0.22753498163519517,0.22349627954688275,0.2748674525702707,0.1424968695320341,-0.26066908681623435,0.32690254176878536,0.3505386615082935,0.22890663510860354,0.1138920251711664,0.2999066625759897,0.2549780273358951,0.09270666872219256,0.24799336845753212,0.2053614757185636,0.17648952494939635,0.26314740098819245,0.3336264286822785,0.160376476495689,0.21297714944237608,0.12875574571734674,0.3044522545844526,0.19713577999885573,0.2100142995535685,0.09651257937441587,0.18616572051780061,0.365340183591765,0.24339620164582765,0.2921092819090318,0.17340837106840065,0.10602242053740919,0.1944787568746065,0.3778058469581434,0.14285115832111303,0.2290334507998899,-0.12310781850300515,0.009731010246574018,-0.895297938192341,-0.20633541377635714,-0.3514102108156928,-0.1246554442632484,-0.1710208756602814,-0.0637120359493081,-0.2874830098415395,-1.3210290330791512,-0.6228884171022341,-0.28403576538661407,0.3386004147359135,0.5582699608975202,0.07342040014647377,0.17955036512584552,0.288046764130116,0.09460886790179157,0.1424190619211467,0.2624812027311426,0.32702495392382513,0.22226935295293293,-1.363535439605414,-0.0022768701240578385,-0.988622590276272,0.049043085339972,-0.027740361970873335,-0.06951059949906158,-0.03665843892612141,-2.5590595540118715,5.093535702888005,-0.013766909934104165,2.7429904392864533,1.555893323691321,3.96864022150059,-1.526568145535703,3.3494045849317975,-0.5776601280040078,-0.2992330368400442,0.2513422790749074,0.11930305061577011,0.03826790136423667,0.26591143912048965,0.24983546446090624,-0.12350290148743555,0.185375840545952,0.14855957636486994,0.22758018466522026,-0.13216959170775075,-0.016699736776364167,0.037518304194243776,-0.08242612130289724,0.068074742781559,0.12351044128984708,0.2831327674350933,0.07183705877109114,-0.6938102872006855,-0.3239110823212914,-0.4322199712409063,0.6272617203337894,-0.4015007377158929,-0.4474728796244924,-0.31080358875943837,-0.38873518078709735,0.6005992868441624,0.7096617874564769,3.5296181042167514,3.347236124001891,-5.654050668038042,0.7673145250477094,-0.5915821017549833,-0.09778246163297487,-0.09483613894543924,0.4930325092543607,4.42654055251711,0.08485597087106699,-0.2020086294226346,-2.611912897603305,3.028610822289932,2.9723392706642713,-0.5159762852272481,-0.8805576357023843,-2.271860542987415,0.18803383716685415,-0.3151595402307411,-0.005911664345080438,0.2319312038619992,-0.09351876850789427,0.7418924486574284,2.493924197939691,-0.8311708913507686,-1.0210981826055097,1.4826695703155575,-0.4871562119520566,1.6023406581748119,0.051362681088128456,1.9980624219345338,-0.49500298810931065,1.839560028270034,-0.07861355309014746,0.0017272334902109963,5.595125061681005,0.06437961550052823,0.12147068439584992,-0.07746854641442427,-0.047718421833472184,0.09142593631634581,0.12922433213095996,0.36335030878267643,-0.09868520098117722,0.29789796103087757,0.10206879969763492,0.03893505921749618,0.11044198170906037,-0.16342118708326547,0.06254002707689503,0.05346016614039744,-0.03322228053042301,-0.08702248586966002,0.006833351529063564,0.06190079494352279,-0.15297451637540393,-0.06103720240319442,0.032269441154506265,0.15955730203324303,-0.0019471670843833452
-0.008019358204653064,0.0667389133428231,0.13221355473415292,-0.03803530617985833,0.08616555899494308,0.1350435090298891,-0.08684247033254819,-2.5773320809804514,-0.011793597067613583,-0.024339872520710314,-0.09971063330365701,0.15420242953849383,0.17623471767516175,0.23297417441706397,0.1839966582996556,0.1875599915170996,0.15868506816185565,0.06124045947654894,0.27876448399867687,0.0634803150925722,0.10784083361812345,0.2866589776692348,0.0775639560491943,0.06801634185700535,0.1955318436066639,0.007948811600162363,-0.2151454202535252,-0.49965211401424986,0.07004420198298918,0.18483749201869445,0.018116510412987577,0.14661857302064482,0.18915026824037198,0.06952134525537954,0.19245049657429694,0.15396348505070429,0.1480016606476322,0.21899294246013407,0.2675436364369448,-0.6409825475160127,0.1113975803857422,0.10301189277494693,-0.7185175664126903,-0.5111388851516986,-1.331906546413044,-0.723693327640311,2.5287290627205388,1.1635601135755615,-2.239458760247336,-8.068273960831368,-4.384245157019943,0.0549295993038687,0.17524253541476847,0.19556096489906952,0.17295829145190975,-0.07095713225957519,0.01822948766851718,0.04139172360070285,0.26731142479420905,-0.32080196110765913,0.142048957847236,-0.19519008778969232,0.013087460802565688,-0.010255394570441471,0.217832653521592,0.06305604882803469,-0.830943461642335,-0.9695501611734062,2.6662633913770657,2.180157971879048,-3.7857267162301342,0.43228405280618604,2.203843831701051,-1.7600474873871212,-0.24392032431191685,0.018468755828176687,-0.05524257740574163,-3.1042331177123734,-0.006385906765280805,0.09953982481194598,0.09049541297139077,0.16416014359435446,0.11990344431932709,0.13587748445323727,0.1864127857668252,-0.028783085638370644,0.08747573282870492,0.14955361117639068,-0.035816321262191794,0.012807290035820712,0.09252260971075073,-0.10519469788356277,0.09509704991678551,-0.0657439472749552,-0.4024378905167709,0.09500158962538284,-0.24534873144429384,-0.22899870399081165,-0.27431282937481466,-0.5889689272164739,-0.3471438189272134,-0.43232071831667124,-0.30840748388888506,1.4650542939346516,-2.190973401860367,3.0650035289871864,0.8757509521716941,-1.724079622125214,0.12015814972301558,-0.013662826591088537,0.19291153185052312,2.924910837718724,0.01718079276030502,-0.1177119482287185,1.4806299057419214,1.8418002569140228,3.9527292923399457,1.6353687167283075,3.062853761935901,5.331365299923839,-0.032560324211686024,-0.07492576496182421,0.04696854035405773,0.07050973855414017,0.013946119406953499,3.2149621136138635,2.0647660349180192,-0.32024539651061756,-0.3342645319532298,-0.46737091267512865,0.03383819082820499,-0.07892778785973366,-0.010791009171381986,-0.12062715108481746,-0.35264287896034036,1.175137086574788,1.4905190528218584,1.075843134617903,-0.31727975819151727,0.01290597523067883,-0.05795136537695209,-0.051391503632184005,0.10723918904328605,0.08137348325341542,0.9337539720748463,0.1615981613186034,0.1653588922954483,0.024143536421472513,-0.009839694604568155,-0.046202995976575394,0.07313365964115076,0.1046550875766236,0.08269914367579956,0.02078986239970481,0.1492597227993437,-0.04040358560531552,0.07664930010041147,0.13548776269082224,0.1881841663267423,0.022145381014933574,0.02849156476034582,0.20152965489861757,0.049410283989570716
